<?xml version="1.0"?>
<opencv_storage>
<HOG_Detector type_id="opencv-object-detector-hog">
  <winSize>
    192 32</winSize>
  <blockSize>
    16 16</blockSize>
  <blockStride>
    8 8</blockStride>
  <cellSize>
    8 8</cellSize>
  <nbins>18</nbins>
  <derivAperture>1</derivAperture>
  <winSigma>4.</winSigma>
  <histogramNormType>0</histogramNormType>
  <L2HysThreshold>2.0000000000000001e-001</L2HysThreshold>
  <gammaCorrection>0</gammaCorrection>
  <nlevels>64</nlevels>
  <SVMDetector>
    -7.34350458e-003 -5.73781319e-003 -5.97543549e-003 -7.19406549e-003
    -4.05182457e-003 -3.40644550e-003 1.00058143e-003 -1.24173274e-003
    2.72203702e-002 2.81709339e-002 -9.80684883e-004 -2.06000218e-003
    -5.82071627e-003 -2.80437432e-003 -7.58342538e-003 -1.28496848e-002
    -1.11203203e-002 -1.21131903e-002 -3.99069302e-003 -2.51093111e-003
    -3.05114477e-003 -3.84087791e-003 -4.22736537e-003 -6.96218992e-003
    -5.49008697e-003 -2.25159363e-003 2.73721386e-002 2.81381812e-002
    3.18543566e-003 -1.65037578e-003 6.35680929e-003 -4.19052463e-004
    -4.04147431e-003 -6.90558041e-003 -7.55177811e-003 -9.98278614e-003
    -8.40829033e-003 -7.04497332e-003 -6.35943003e-003 -7.06017390e-003
    -6.48601120e-003 -4.09200834e-003 -2.76793540e-003 -3.91678046e-003
    2.19765678e-002 2.16063038e-002 3.66722088e-005 -3.66118760e-003
    -2.72432831e-003 -6.23860338e-004 -5.70307672e-003 -1.42040495e-002
    -1.36526339e-002 -1.18294852e-002 -5.26163075e-003 -1.23257376e-003
    -4.70507483e-004 -3.79759120e-003 -5.29951369e-003 -5.75567922e-003
    -7.73337623e-003 -4.45652707e-003 2.38700490e-002 2.49285176e-002
    -7.83033553e-004 -3.22441850e-003 -1.11182721e-003 4.52079764e-003
    4.77951299e-003 5.41875465e-003 -4.91802488e-003 -5.42011531e-003
    -6.49534585e-003 -4.45811311e-003 -2.28359364e-003 -5.12160873e-003
    -6.01149490e-003 -8.99663381e-003 -1.05671482e-002 -7.61601282e-003
    7.31181214e-003 1.22109288e-002 9.02957842e-003 2.72405846e-003
    9.03181359e-003 3.49791232e-003 2.52582529e-003 -8.01753136e-004
    -5.28170168e-003 -1.12821888e-002 -1.09273456e-002 -4.91768960e-003
    -1.45862927e-003 -1.26327819e-003 -3.07536381e-003 -4.17787535e-003
    -8.33540596e-003 -2.28176173e-003 -1.74658652e-003 7.80029222e-003
    1.84671003e-002 1.17363250e-002 2.02921145e-002 1.94138456e-002
    2.43667588e-002 1.59981865e-002 2.91363266e-003 -6.21102517e-003
    -1.06366323e-002 -1.87128212e-003 1.12244254e-003 -3.66016268e-003
    -5.69627713e-003 -7.60280155e-003 -1.04028257e-002 -7.31533859e-003
    2.60871043e-003 1.57388463e-003 -5.83893852e-003 -3.27257602e-003
    2.22218758e-003 2.12787674e-003 -8.28919001e-005 6.42295752e-004
    -3.04968562e-003 -1.02835838e-002 -1.03240432e-002 -1.67167501e-003
    1.35496142e-003 3.99272074e-004 -2.86784465e-003 -2.59265210e-003
    -6.75960910e-003 -6.31458638e-003 -1.50042335e-002 -1.29108476e-002
    4.60349349e-003 9.18797031e-003 1.66297015e-002 1.82098709e-002
    1.38132796e-002 1.55168483e-002 5.07553807e-003 -8.66277143e-003
    -1.43583585e-002 -1.02426782e-002 -5.43503044e-003 -3.84025020e-003
    -4.64907568e-003 -3.38627514e-003 -7.83280935e-003 -4.17748606e-003
    -1.31873377e-002 -6.98974077e-003 6.01232611e-003 3.93346371e-003
    8.50076415e-003 2.98342556e-002 3.50096487e-002 2.06022412e-002
    6.76174229e-003 -2.84379954e-003 -1.04447771e-002 3.49654074e-005
    -1.92258600e-003 -3.30154761e-003 -4.53258259e-003 -4.44584480e-003
    -6.70480123e-003 -4.66839643e-003 -1.46092474e-002 -1.19780861e-002
    -4.51030210e-003 -4.98744659e-003 6.65642263e-004 2.47868076e-002
    2.51119900e-002 2.56684758e-002 1.09795043e-002 -2.93290638e-003
    -1.50030917e-002 -1.09574394e-002 -4.29646950e-003 -3.00038885e-003
    -8.90694838e-003 -3.78868869e-003 -5.35206404e-003 -9.04563908e-003
    -2.32624356e-002 -2.08930876e-002 -2.53017107e-003 -4.98856883e-004
    6.11938443e-003 1.57059431e-002 1.44455768e-002 1.80775430e-002
    4.35576169e-003 -1.08983293e-002 -1.27091324e-002 -2.67229136e-003
    -3.65430070e-003 -2.36371459e-004 -5.58402063e-003 -6.25821855e-003
    -7.26165110e-003 -1.01758493e-002 -1.92086101e-002 -1.77990776e-002
    -4.66716057e-003 -6.21258747e-003 -3.18940147e-004 2.45705452e-002
    2.55420320e-002 3.14922072e-002 1.66250952e-002 -5.69935003e-003
    -4.08792403e-003 -3.45704099e-003 -4.49155830e-003 -2.26438348e-003
    -4.65790462e-003 -4.83005028e-003 -4.34681214e-003 -4.83128242e-003
    1.81909539e-002 1.91656686e-002 1.77574356e-003 -2.35816953e-003
    -2.10079621e-003 -7.91764585e-004 -5.04980003e-003 -9.78272781e-003
    -1.30342748e-002 -7.35574961e-003 -2.83941510e-003 -2.74553313e-003
    -7.12392677e-004 -1.02283433e-003 -2.46405927e-003 -3.70099605e-003
    -6.30579889e-003 -3.82743939e-003 2.21393015e-002 2.39709876e-002
    6.48912755e-005 -3.56864952e-003 -1.12542720e-003 -5.15380292e-004
    1.49934599e-003 5.56373736e-003 -4.02204040e-003 -5.54903643e-003
    -2.02107523e-003 -3.39823868e-003 -4.16840613e-003 -2.36232835e-003
    -5.57146966e-003 -7.38726836e-003 -7.74719194e-003 -4.75732889e-003
    1.55432979e-002 1.67729370e-002 -3.78339377e-004 7.63199932e-004
    1.35146803e-003 -2.13861302e-003 -4.00027679e-003 -4.32978617e-003
    -8.37562233e-003 -3.19667975e-003 -9.81773715e-003 -5.07048331e-003
    -1.57738163e-003 3.74024559e-004 -2.49605929e-003 -6.16284180e-003
    -5.93664031e-003 -4.75074165e-004 2.10155658e-002 2.00467557e-002
    1.05336634e-003 5.63485688e-003 5.36140753e-003 2.41251825e-003
    -2.82487995e-003 1.32231461e-003 -7.34874886e-003 -6.84153894e-003
    -6.05748640e-003 7.05745988e-005 3.03042703e-003 -9.71804315e-004
    -1.16031757e-003 -4.40534856e-003 -5.41162537e-003 -2.31772056e-003
    1.06413662e-002 8.73370282e-003 -3.53787164e-003 5.14050713e-004
    5.24607347e-003 2.89246533e-003 1.61559787e-003 3.51324235e-003
    2.68038455e-003 -6.99465396e-003 -4.35246853e-003 2.30949279e-003
    3.11958441e-003 -6.57816126e-004 -6.30748749e-004 -1.66931259e-003
    -1.28533039e-003 -1.31890888e-003 -3.69684375e-003 -2.06900411e-003
    1.08009845e-003 1.35810291e-002 1.86521858e-002 1.56189818e-002
    9.88132879e-003 7.69014237e-003 5.55490516e-003 -5.08698495e-003
    -1.26162246e-002 -2.46735988e-003 3.11279786e-003 -2.30085963e-004
    -6.34588010e-004 -2.05956632e-003 -1.98298087e-003 2.77849589e-003
    1.23915551e-002 8.57134815e-003 -2.65942165e-003 3.38836364e-003
    4.92319278e-003 4.96032648e-003 1.09382020e-003 5.38965745e-004
    -3.68279777e-003 -9.90399998e-003 -5.17760264e-003 -4.99984855e-003
    -4.71443520e-004 -3.70041141e-003 -2.95992731e-003 -8.68565257e-005
    1.76074111e-003 5.11191180e-003 1.10954186e-003 5.41704125e-004
    2.76113837e-003 7.64197996e-003 1.27166370e-002 1.26741128e-002
    7.05023576e-003 -7.65701043e-005 -7.89896818e-004 -2.91831326e-003
    -2.50536925e-003 -1.53088977e-003 -6.11001335e-004 -1.15412753e-003
    -3.02447169e-003 -1.72657426e-003 -2.42176116e-003 -5.39058959e-003
    -1.08784316e-002 -8.74564704e-003 1.03677460e-003 4.55224933e-003
    8.03981069e-003 1.24206031e-002 1.38347829e-002 1.46482522e-002
    8.29280727e-003 -3.85651365e-003 -1.94288511e-003 1.19475590e-003
    1.87094079e-003 1.93629460e-003 -1.97049696e-003 -3.26366187e-003
    -6.58447621e-003 -9.29763913e-003 -1.01069035e-002 -7.53520848e-003
    7.02494988e-004 -2.30214369e-004 3.37345991e-003 1.89391300e-002
    2.66600568e-002 2.95343641e-002 1.79846603e-002 3.62425926e-003
    -6.85487594e-003 -6.63656322e-003 -4.16086335e-003 -4.34278417e-003
    -2.33792234e-003 -2.57600821e-003 -1.62671658e-003 -3.98184266e-003
    -7.56636169e-003 -6.61204988e-003 -2.93842633e-004 1.60237704e-003
    1.89170439e-003 5.55817084e-003 9.47618019e-003 2.77703803e-004
    -1.30283169e-003 -6.27343496e-003 -3.78516968e-003 -4.75791236e-003
    -7.90496706e-004 -3.41458037e-003 -5.67536335e-003 -9.62738506e-003
    -5.90388384e-003 -1.23370783e-002 -1.18551450e-002 -8.35951604e-003
    -3.75457015e-003 -6.11874158e-004 2.53875344e-003 1.01757785e-002
    1.61027126e-002 1.09589398e-002 -3.11342301e-003 -6.59157662e-003
    -1.21161225e-003 -4.42813290e-003 -3.03274696e-003 -5.06225042e-003
    -4.39565815e-003 -7.14761438e-003 -7.26863462e-003 -5.39393304e-003
    1.43992519e-002 1.54483262e-002 -4.05932125e-003 1.47466979e-003
    3.33730388e-003 1.48548151e-003 -5.61989145e-003 -5.30360499e-003
    -5.42777730e-003 -3.29084764e-003 -9.86260734e-003 -6.48142537e-003
    -2.30539916e-003 -2.13060412e-003 -3.90634453e-003 -6.73946552e-003
    -6.00367365e-003 -2.58189510e-003 2.04382725e-002 1.90805066e-002
    -8.25894007e-004 4.59203869e-003 2.26970552e-003 7.05817482e-004
    -4.07770788e-003 -2.74154474e-003 -3.61537444e-003 -5.64917643e-003
    1.20152731e-003 -3.46774887e-003 6.53957773e-004 -4.88931965e-003
    -2.75498675e-003 -6.39436767e-003 -6.95623271e-003 -6.99676201e-003
    1.54698920e-002 1.74809750e-002 -4.26874915e-003 -2.05526664e-003
    -2.43077124e-003 3.42773646e-003 -5.61166089e-003 -1.82036974e-003
    -3.94414365e-003 1.63557753e-003 -7.22099515e-003 -5.41160489e-003
    -1.53197115e-003 -4.56641102e-003 -3.33224074e-003 -5.65127889e-003
    -6.01134310e-003 -6.72580628e-003 1.73027311e-002 1.67926606e-002
    1.77289546e-003 1.95758906e-003 -2.38477695e-003 2.62595667e-003
    -8.43530614e-003 2.76855542e-003 3.78901442e-003 -3.19765043e-003
    -1.16559714e-002 -2.52378033e-003 4.03569400e-004 -9.25219792e-004
    -6.61955797e-004 -4.04704409e-003 -1.62741332e-003 1.14216469e-003
    7.88980443e-003 7.01317191e-003 -9.62232996e-004 4.06529754e-003
    4.85332962e-003 3.21800984e-003 1.44858414e-003 1.30353880e-003
    -1.31034700e-003 -3.95520916e-003 5.88801413e-006 -5.09160664e-003
    -1.47679204e-003 -3.96506861e-003 -3.37027851e-003 -2.02481169e-003
    5.70899574e-004 4.64579277e-003 1.54996081e-003 2.03859620e-003
    5.36474213e-003 6.17912598e-003 4.94478783e-003 4.74692881e-003
    3.01137497e-003 -8.35046594e-005 2.82270066e-003 3.89523478e-003
    -7.37267546e-003 -5.34708553e-004 -1.15456118e-003 -3.70340166e-003
    -1.14918617e-003 -6.10731216e-003 -7.32186600e-004 -2.97504640e-003
    1.06171649e-002 1.07685206e-002 -9.17885860e-004 8.30083969e-004
    -4.32437658e-003 -3.70128662e-003 -7.29112420e-003 3.97276686e-004
    6.97853835e-003 -6.17714424e-004 -3.25720781e-003 -2.19698390e-003
    -6.84714993e-004 -4.59016534e-003 7.78405811e-004 -7.30011705e-003
    -7.87102152e-004 -2.04822444e-003 2.29231827e-003 5.07885916e-003
    4.07000259e-003 -1.11926704e-004 -5.27395960e-003 -1.11388592e-002
    -9.47594817e-004 -2.75320234e-003 6.70710637e-004 2.00275122e-003
    3.14052380e-003 -5.52055752e-003 -2.39882502e-003 -3.98704456e-003
    -3.39966500e-003 -2.98313401e-003 -2.42628250e-003 -2.11606780e-003
    -2.89047044e-003 -2.97859870e-003 3.64739285e-003 6.17333408e-003
    3.30557954e-003 2.91618682e-003 7.97654130e-003 3.19159660e-003
    1.56441191e-003 5.95985819e-003 -2.85674032e-004 -5.17976051e-003
    1.44370380e-004 -3.96346487e-003 -4.19678865e-003 -7.45049026e-003
    -5.25666028e-003 -1.02622751e-002 -4.81702201e-003 -4.69623785e-003
    -3.61716794e-003 4.64479490e-005 7.33953482e-003 7.06611527e-003
    7.95825385e-003 6.64866576e-003 -3.71874473e-003 -2.77482951e-003
    4.03356832e-003 -1.14753912e-003 -9.31375034e-005 -3.72246280e-003
    1.14976172e-003 -5.71369193e-003 -4.74660844e-003 -2.05865339e-003
    9.92202433e-004 1.54306227e-003 2.19531171e-003 1.73039257e-003
    2.30945880e-004 -1.47957588e-003 2.41765310e-003 -1.35508250e-003
    -9.78300464e-004 8.28447100e-003 6.61915867e-003 2.04172480e-004
    -9.13147698e-004 -5.83435968e-003 4.57142451e-004 -4.91121225e-003
    -4.87704622e-003 -7.08874408e-003 1.46567007e-003 -2.31553568e-003
    -2.59292359e-003 -4.26248909e-004 3.77985742e-003 7.11745676e-003
    6.45172130e-003 3.69158457e-003 6.62172586e-003 7.38442969e-003
    2.27196608e-003 -5.37254149e-003 1.22886733e-003 -4.47040237e-003
    -1.23712176e-003 -4.96021425e-003 -4.72577987e-003 -5.26279397e-003
    6.55358844e-003 6.27879146e-003 -2.91607878e-003 -2.79344199e-003
    -3.55512695e-003 1.47951057e-003 -1.53496326e-003 -2.00007489e-004
    -2.58461293e-003 7.45408252e-005 1.38040085e-003 -5.32035949e-003
    -4.58381232e-003 -6.28999947e-003 -3.78063857e-003 -3.44643020e-003
    -3.99711635e-003 -7.40920380e-003 8.60203989e-003 7.64628826e-003
    1.00061658e-003 4.02892503e-004 -3.26252659e-003 4.10065055e-003
    -1.17523654e-003 3.58971232e-003 3.31308809e-003 3.37175070e-003
    1.96359819e-003 -8.79983418e-003 -1.63818849e-003 -6.74167648e-004
    -7.66247453e-004 2.23673414e-003 2.67252279e-003 -1.71718292e-003
    -1.75774517e-003 -1.71006517e-003 -8.97022837e-004 2.25721532e-003
    2.01029179e-004 -2.54484592e-003 3.11660906e-003 2.51950277e-003
    -6.91034482e-004 2.75239232e-003 2.86939344e-003 -5.59201138e-003
    -5.79106109e-003 -3.54315550e-003 -2.77025811e-003 -1.18954584e-003
    -8.83398054e-004 -5.91171812e-003 2.07109773e-003 -3.73871124e-004
    -1.47648191e-003 1.17550546e-003 4.79443879e-005 6.69161044e-003
    6.04051340e-004 8.63577798e-003 4.96936776e-003 3.43923876e-003
    -1.01368583e-003 -2.56875670e-003 -2.13330798e-003 -4.91665909e-003
    -1.64096942e-003 -4.29412024e-003 -2.38279812e-003 -6.58947369e-003
    5.39230090e-003 5.46506420e-003 -1.25205133e-003 -1.18266646e-004
    -7.21642887e-003 -8.54444690e-004 -4.57715569e-003 1.96199818e-003
    6.82821171e-003 8.94733239e-004 8.32912410e-005 -3.77128762e-003
    -1.36886595e-003 -5.42829139e-003 -1.20021941e-004 -8.01737420e-003
    -5.20591717e-003 -6.75255386e-003 7.29219709e-003 9.26550012e-003
    8.14178638e-005 -1.71319488e-003 -8.07355717e-003 -6.32631779e-003
    -4.11703113e-005 -2.35065795e-003 -1.02724950e-003 1.48988666e-003
    -1.46703864e-003 1.71607279e-003 -4.46366472e-003 -4.77719912e-003
    -4.20477008e-003 -4.62111132e-003 -5.84091153e-003 -9.44238156e-003
    5.45066409e-003 3.35589191e-003 -2.53642094e-003 -3.06423707e-003
    -5.87113947e-003 1.71127263e-003 1.77344377e-003 1.11171473e-002
    7.26373307e-003 -1.96615257e-003 -3.58678808e-004 1.00166863e-003
    -2.80617946e-003 -3.33432411e-003 -2.34329351e-003 -6.92933053e-003
    -8.15807842e-003 -8.83521233e-003 1.11889597e-002 1.04011819e-002
    1.98819116e-003 -5.14319073e-003 -6.57925056e-003 -4.96351672e-003
    -2.79335515e-003 4.26987745e-003 -1.63361896e-003 -3.34798219e-003
    1.78355607e-003 -2.85843224e-003 -2.27019237e-003 -5.79618011e-003
    -1.47972070e-003 -7.16824550e-003 -5.39522199e-003 -3.15594929e-003
    7.02674035e-003 8.77558812e-003 -7.94397929e-005 -2.21067062e-003
    -3.71022453e-003 4.78753325e-004 3.99687840e-003 -2.87300558e-003
    -2.62125628e-003 3.42062418e-003 3.83347971e-003 -4.05305764e-003
    -2.83344043e-003 -5.58777666e-003 -1.60648255e-003 -5.04033780e-003
    -3.15041374e-003 -3.20500531e-003 8.70836806e-003 7.72349583e-003
    -9.77957970e-004 -1.62216998e-003 1.10333473e-004 6.40828442e-003
    6.02463214e-003 2.80842534e-003 6.85921824e-003 6.64247246e-003
    1.36321643e-004 -7.70208484e-004 -1.61058875e-003 -4.28628409e-003
    -2.27484619e-003 -3.03943316e-003 -4.78809094e-003 -5.26924944e-003
    6.10033842e-003 7.32880831e-003 3.18497047e-003 -3.54443071e-003
    -2.08112015e-003 -2.02397560e-003 -5.99084375e-003 1.97582343e-003
    -4.31444170e-003 -2.66601844e-003 1.88912300e-003 -5.10615855e-003
    -1.91128487e-003 6.53848401e-004 1.20641365e-004 1.65897873e-004
    6.39301375e-004 -3.71146621e-003 6.09618332e-003 9.00556147e-003
    4.43665870e-003 -1.82552426e-003 -2.08134088e-003 -3.22576874e-004
    -4.93666250e-003 1.73919834e-003 1.59713172e-003 4.70035290e-003
    -1.10223528e-003 -7.29089603e-003 -1.66740047e-003 -6.71401503e-004
    -8.24639981e-004 1.75375072e-003 7.55625544e-004 -3.14435409e-003
    -1.46257151e-002 -1.27735510e-002 -2.85661803e-003 -1.96002051e-003
    2.11864433e-004 2.36712932e-003 5.24438219e-003 5.14728250e-003
    3.50470236e-003 1.28035457e-003 -1.23563278e-002 -4.09110542e-003
    -2.97403266e-003 -2.73339637e-003 -2.97605293e-003 -1.39094808e-003
    -2.49543285e-004 -4.15752735e-003 -1.46830939e-002 -1.78357773e-002
    -6.77613029e-003 -3.00778751e-003 -5.00008056e-004 7.21488614e-003
    2.14220863e-003 1.04285507e-002 1.28738657e-002 -4.58868779e-003
    1.01949396e-002 -6.09297957e-003 -1.73199270e-003 -4.43797512e-003
    -3.52666387e-003 -3.66043625e-003 -5.92950219e-003 -3.78575362e-003
    -1.37343891e-002 -1.37789762e-002 -4.34331130e-003 -7.49942614e-004
    2.15470768e-003 1.17170997e-002 1.53472079e-002 1.47474632e-002
    1.80221293e-002 1.80036668e-002 2.81815510e-003 -2.88010249e-003
    -9.42077721e-004 -2.34387256e-003 -3.30524938e-003 -4.02507419e-003
    -4.27227421e-003 -6.27742009e-003 -1.88274197e-002 -1.92541648e-002
    -7.24067912e-003 -1.40785391e-003 2.51193810e-003 1.49191907e-002
    1.91460550e-002 2.17958689e-002 2.71602385e-002 1.74466744e-002
    -1.38366856e-002 -1.51799247e-003 -5.12127439e-003 -4.37483704e-003
    -5.51885786e-003 -5.35594672e-003 -6.12570671e-003 -7.04884296e-003
    -6.39483193e-003 -8.57407786e-003 -5.22507122e-003 -5.37552405e-003
    -3.80983134e-003 2.00255378e-003 -2.15818197e-003 1.02307945e-002
    1.49995126e-002 -5.32485871e-003 -3.91239254e-003 -2.10813666e-003
    -5.27681271e-003 -3.21260188e-003 -3.37785739e-003 -5.65135432e-003
    -7.06664054e-003 -6.72899140e-003 3.21850763e-003 6.40129729e-004
    1.67507981e-003 -5.62742166e-003 -5.64398384e-003 -6.34705555e-003
    -8.76970217e-003 2.81951320e-003 4.13542660e-003 -2.28008651e-003
    -4.79388563e-003 -3.64860264e-003 -5.10017248e-003 -4.81065037e-003
    -6.06896216e-003 -6.16054283e-003 -6.57494972e-003 -9.26118717e-003
    -1.13529265e-002 -1.22509031e-002 -5.93650201e-003 -3.33461305e-003
    -7.40055111e-004 1.39289647e-002 1.59696676e-002 2.46059094e-002
    2.87636165e-002 9.97794233e-003 -3.33047519e-003 -6.65719528e-003
    -8.08463059e-003 -6.14285842e-003 -5.98676782e-003 -6.88777631e-003
    -6.23249216e-003 -5.56859607e-003 -1.33691833e-003 -1.94474729e-003
    1.04182435e-003 -9.87512642e-004 -3.02076759e-003 5.90203749e-003
    1.21719735e-002 2.10501999e-002 2.65139993e-002 4.40693600e-003
    2.66572298e-003 -2.81929551e-003 -3.00592068e-003 -3.50206671e-003
    -1.69774541e-003 -1.53731613e-003 -3.41031025e-003 -3.95104615e-003
    1.48769305e-003 1.88425556e-003 5.67010744e-003 -1.86623086e-003
    -1.71994045e-003 -3.36494856e-003 -1.00086313e-002 2.49442202e-003
    1.82271108e-003 5.10344398e-004 7.72833964e-003 -4.59184870e-003
    -2.62287492e-003 -6.76451426e-004 -6.80391560e-004 4.10712935e-004
    3.56617442e-004 -1.98193872e-003 -9.28848144e-003 -6.56264555e-003
    8.17029912e-004 -2.39361776e-003 -2.43174424e-003 -1.40212895e-003
    -5.26860682e-003 3.08546470e-003 2.47348170e-003 8.55594315e-003
    -3.37139121e-003 -8.42385087e-003 -5.32603497e-003 -4.91087046e-003
    -2.91514164e-003 -4.33983700e-003 -1.13353727e-003 -9.12717776e-004
    -5.33344864e-004 -3.57116398e-004 2.08386686e-003 -2.78014224e-004
    -2.11521215e-003 -6.40762085e-003 4.90900548e-003 1.58701353e-002
    2.32582297e-002 -9.77317570e-004 -9.35645890e-004 -8.55907425e-003
    -2.03996617e-003 -3.96535778e-003 -2.83091445e-003 -4.23520850e-003
    -2.80137849e-003 -2.34438085e-005 -1.15231136e-002 -9.50506516e-003
    3.13783926e-003 1.89343654e-003 -1.54411944e-003 8.47174204e-004
    9.98100825e-003 1.92836281e-002 1.52769648e-002 6.73589762e-003
    1.31803099e-002 2.81776811e-005 3.58981872e-003 -3.19782249e-003
    -4.65849601e-003 -4.05796384e-003 -6.97682146e-003 -4.00241697e-003
    -1.46359755e-002 -1.65024456e-002 -5.94190834e-003 -4.69374092e-004
    -1.39939493e-005 6.15297211e-003 1.30876629e-002 1.80597715e-002
    1.96604747e-002 2.14286018e-002 9.37305763e-003 9.80158895e-003
    4.54219198e-003 -6.79752033e-004 -3.71072185e-003 -2.52942811e-003
    -6.38219947e-003 -6.91502541e-003 -2.34474074e-002 -2.39260886e-002
    -1.01437634e-002 -9.09454015e-004 8.07497767e-004 1.41273048e-002
    2.10399702e-002 2.72529554e-002 3.17962468e-002 1.99961029e-002
    6.82080397e-004 -2.11586081e-003 4.31199995e-004 -4.84976918e-003
    -4.69818711e-003 -2.68560508e-003 -6.71609398e-003 -4.71693883e-003
    -7.51159713e-003 -7.98614789e-003 -6.32447470e-003 -6.94254180e-003
    -3.35477130e-003 2.12997384e-003 -2.86860159e-003 -1.75704353e-003
    -2.28342786e-003 -5.56051789e-004 7.21063279e-003 3.95716866e-003
    3.34574422e-003 -2.59153848e-003 -4.09980305e-003 -2.53899582e-003
    -7.16385432e-003 -4.08187648e-003 -1.79957170e-002 -1.88065786e-002
    -8.37837812e-003 -5.53883333e-003 -1.97814684e-003 2.73755798e-003
    5.25275618e-003 3.76976188e-003 4.65487270e-003 6.31948421e-003
    1.95371592e-003 7.50425039e-004 -2.25788099e-003 -2.77448166e-003
    -4.58999258e-003 -3.56519409e-003 -4.56282124e-003 -7.03671342e-003
    -2.31795795e-002 -2.28341352e-002 -8.36979784e-003 -4.25008358e-003
    -9.77189397e-004 1.07641956e-002 1.68594513e-002 2.54007261e-002
    3.18236612e-002 1.35700339e-002 -3.03410296e-003 -5.98671753e-003
    -5.89423859e-003 -5.23242680e-003 -4.06225584e-003 -5.44256158e-003
    -4.09508310e-003 -6.18426129e-003 -1.22679342e-002 -1.28422081e-002
    -3.62765114e-003 -2.39130785e-003 2.61172652e-003 9.65630636e-003
    1.99741218e-002 2.66252514e-002 2.99764946e-002 9.90806241e-003
    -4.16077813e-003 -2.70649238e-004 -2.08649132e-003 -3.45480628e-003
    -4.94560786e-003 -3.61532019e-003 -5.21788374e-003 -4.62064939e-003
    -2.23336201e-002 -2.45856121e-002 -9.91868228e-003 -4.38553235e-003
    -1.83920155e-003 3.40090226e-003 6.24923129e-003 4.96529695e-003
    7.15524191e-003 -5.36398124e-003 -1.50152519e-002 -6.45903824e-003
    -6.66222442e-003 -5.67041803e-003 -1.45857874e-003 -2.58752401e-003
    -3.58571275e-003 -4.76257363e-003 -1.53791886e-002 -1.78324003e-002
    -1.95335224e-003 4.98155970e-003 7.92576186e-003 8.73699412e-003
    6.33215299e-003 1.57793965e-002 1.85532235e-002 -3.38969147e-003
    -8.00394081e-003 -9.29608103e-003 -6.50050025e-003 -4.72357217e-003
    -3.21253831e-003 -5.15325414e-003 -5.23100421e-003 -5.87583520e-003
    -1.48839541e-002 -1.49057936e-002 -3.36411945e-003 1.06213719e-003
    2.24541151e-003 -3.63615179e-003 1.33110918e-002 2.53372770e-002
    2.80505978e-002 5.18552167e-003 -7.44161988e-003 -8.05050507e-003
    -5.99115388e-003 -4.11290070e-003 -6.54083258e-003 -7.07929069e-003
    -8.66489299e-003 -5.26974862e-003 -1.81889907e-002 -1.85050573e-002
    -3.73664498e-003 -6.50194997e-005 4.16867115e-004 2.22079270e-003
    1.43904341e-002 2.66348477e-002 2.20441297e-002 2.96208286e-003
    -1.55206621e-002 -7.65566062e-003 -6.71054609e-003 -3.58539913e-003
    -2.01944122e-003 -3.76421050e-003 -3.87867773e-003 -6.46461500e-003
    -1.68349501e-002 -1.65550709e-002 7.05656479e-004 5.21774031e-003
    6.47664675e-003 1.59241841e-003 8.86075664e-003 2.06195526e-002
    2.05745138e-002 -4.22226405e-003 -7.47064780e-003 -9.24992841e-003
    -6.08144980e-003 -4.17839084e-003 -5.68829151e-003 -7.53254769e-003
    -6.73917914e-003 -7.76076457e-003 -2.07743403e-002 -1.88737437e-002
    -5.27987373e-004 -1.46043755e-003 -8.50247394e-004 2.71826377e-003
    1.94026418e-002 2.96706911e-002 2.85309516e-002 1.34313526e-003
    5.80561953e-003 -3.49982292e-003 -3.74318945e-004 -2.56194524e-003
    -1.23310322e-003 -6.86400337e-004 -4.22528293e-003 -4.53055883e-003
    1.27157765e-002 1.33542763e-002 -3.42277577e-003 -4.64259041e-003
    -2.53435457e-004 4.00929479e-003 -4.57301876e-003 -1.14941481e-003
    -1.23993238e-003 4.93684784e-003 9.69808921e-003 -1.25495798e-003
    1.75121671e-003 -5.08594385e-004 -1.82620040e-003 5.71898941e-004
    -2.51276116e-003 -8.53629492e-004 4.57079476e-003 3.96945048e-003
    -2.38297810e-003 -2.07145675e-003 4.29721986e-004 4.42080805e-003
    -9.43222374e-004 -1.93086115e-003 -4.23112139e-003 8.71414598e-003
    -2.60149757e-003 -5.26701286e-003 -4.79619717e-003 -2.01179180e-003
    -1.23318261e-003 -2.98765092e-003 -2.46401713e-003 -5.01420489e-003
    1.14628104e-002 1.23915607e-002 -4.71775420e-003 -4.74978285e-003
    -7.98326079e-003 6.48707908e-004 -6.29737927e-003 9.22170526e-004
    1.60375133e-003 -2.74470728e-003 3.31414258e-003 -8.60968884e-003
    -6.97074272e-003 -1.22045912e-003 7.10911350e-004 -1.97003153e-003
    -4.30185162e-003 -3.94674251e-003 4.43099439e-003 4.34577186e-003
    -3.57428356e-003 -2.71838834e-003 -3.72420205e-003 8.71212222e-003
    -2.73354328e-003 2.45730137e-003 3.84983257e-003 -2.86433147e-004
    6.95016561e-003 1.84281392e-003 -8.45107890e-004 -2.15890422e-003
    -1.96135254e-003 -2.35757092e-003 -1.20031554e-003 -9.32233350e-004
    -6.88743638e-003 -7.94018060e-003 -1.58494886e-003 1.16927593e-004
    1.17135083e-003 6.34224899e-003 3.08735436e-003 4.04235208e-003
    5.64734975e-004 5.03040804e-003 -1.60815881e-003 4.03173675e-004
    -3.25847720e-003 -3.80682410e-003 3.15775489e-003 -1.40851107e-003
    2.27662222e-003 2.29249243e-003 5.78038720e-003 4.99618473e-003
    8.31762888e-003 1.26291336e-002 1.30664958e-002 1.52112758e-002
    1.07473554e-002 9.43177287e-003 1.14655308e-002 8.33012350e-003
    -5.86402544e-004 -4.38904343e-003 -6.17738534e-003 -3.51424306e-003
    4.27425693e-004 -6.06142730e-003 -4.47177235e-003 -5.97987138e-003
    -7.51430634e-003 -7.15119997e-003 -1.97191970e-004 -4.16412309e-004
    -1.07641902e-003 6.91241585e-003 -2.48437840e-003 -9.51401016e-005
    1.74652704e-003 -3.02633131e-003 -3.44582251e-003 -3.81056452e-003
    -6.27529388e-003 -6.38230983e-003 -7.90637103e-004 -6.02047984e-003
    -2.02019839e-003 -3.69138294e-003 1.26623269e-003 2.18823436e-003
    5.94119681e-003 9.34867933e-003 4.17510280e-003 8.67821462e-003
    -1.06509996e-003 -5.32815699e-004 1.91158918e-003 -4.31861682e-003
    -2.48219306e-003 -3.97887640e-003 -5.23694279e-003 -2.34790822e-003
    8.40121182e-004 -3.14889126e-003 3.29965865e-003 4.15009155e-004
    1.59768417e-004 -8.13878374e-004 6.99070934e-003 8.23298655e-003
    6.45467779e-003 5.68538625e-003 7.11692125e-003 1.52849760e-002
    1.44903846e-002 7.64597533e-003 5.84073225e-003 -5.65425493e-003
    -5.23769204e-003 -2.98532238e-003 -3.77683667e-003 -6.36127871e-003
    7.06579187e-004 -2.73197610e-003 -9.23383050e-003 -7.96459988e-003
    2.44650827e-003 6.19351864e-004 4.11467190e-004 6.80433912e-003
    1.86467469e-002 2.82005165e-002 2.51062028e-002 1.36086680e-002
    -5.95666002e-003 -4.61633923e-003 -5.72121423e-003 -7.75154680e-003
    -5.03605744e-003 -6.39880309e-003 -5.23159327e-003 -2.88406992e-003
    -3.41141014e-004 -2.45016156e-004 1.60216691e-003 1.98799837e-003
    -9.18407051e-004 1.64794025e-003 -8.24480318e-003 -2.79816706e-003
    -3.37026082e-003 -3.56705324e-003 1.06665795e-003 -2.06770073e-003
    -4.36353590e-003 -7.48237176e-003 -4.66622971e-003 -6.67327363e-003
    -7.89020956e-003 -4.96261287e-003 -7.46434834e-003 -8.88921600e-003
    -6.89954683e-003 -4.83560702e-003 -2.06614239e-003 3.12698248e-004
    -6.85424311e-003 -2.62086024e-003 1.72815507e-003 3.78344278e-003
    1.22208078e-003 -5.98081667e-003 -9.51472553e-004 -5.20598609e-004
    7.62815296e-004 -2.99638463e-003 -1.14287587e-003 -3.65523086e-003
    3.94182047e-003 4.79897298e-003 -2.88354349e-003 -3.86835076e-003
    -7.07684224e-003 -5.83478795e-005 -3.59382131e-003 2.56273733e-003
    2.68201903e-003 3.08468682e-003 1.09386339e-003 -6.73894724e-003
    -9.36290948e-004 1.05685228e-003 4.05651564e-003 -8.36181687e-004
    -4.06254549e-003 -4.87142568e-003 1.53528352e-003 3.10349301e-003
    -4.26805485e-003 -3.49720567e-003 -4.04705945e-003 7.38742901e-003
    2.35971552e-003 1.02369934e-002 6.79605873e-003 6.10790076e-003
    9.47794353e-004 -9.88406595e-003 2.58388813e-003 1.55431603e-003
    3.22221429e-003 -1.14163756e-003 4.02625510e-003 1.05840014e-003
    1.03308149e-002 1.15788421e-002 -3.43488483e-003 -7.12939724e-003
    -7.25443475e-003 -2.61139660e-003 -2.67168088e-003 7.14807911e-003
    -5.58350701e-003 1.15533627e-003 3.15196533e-003 -1.08380793e-002
    8.68489267e-004 1.98930758e-003 4.27641813e-003 -8.18517001e-004
    -6.64550986e-004 -1.39613322e-003 7.09518697e-003 6.43255096e-003
    -3.92073346e-003 -4.17332118e-003 -4.55456693e-003 3.28065827e-003
    3.50540970e-003 9.29511338e-003 5.37331856e-004 5.46176592e-003
    3.41329002e-003 -3.26503464e-003 -2.05192878e-003 -9.39606340e-004
    1.70256826e-003 -3.08356294e-003 -5.04862238e-003 -6.39835047e-003
    -1.27118612e-002 -1.23094944e-002 -1.40226597e-003 -4.74977889e-004
    -1.14099483e-003 6.82841660e-003 2.08728504e-003 8.48957989e-003
    9.47069749e-003 7.58285215e-003 4.18967148e-003 -1.61491195e-003
    -2.00317940e-003 -1.74053537e-003 1.18034345e-003 -8.34374048e-004
    2.76396051e-004 -3.95424291e-003 -7.55711365e-003 -6.14590337e-003
    5.13593107e-003 6.99707819e-003 4.83909436e-003 6.66177971e-003
    2.25650636e-003 6.43355586e-003 9.80011281e-003 8.03998206e-003
    -3.66786931e-004 -8.04673135e-003 -6.07211026e-004 -1.24873605e-003
    9.22837760e-004 -4.74697957e-003 -3.17939860e-003 -3.47560761e-003
    -7.63066905e-003 -8.55295081e-003 -3.32163484e-003 -8.03997740e-004
    -6.26236550e-004 2.11651693e-003 4.74387826e-003 1.14320023e-002
    6.15327992e-003 5.84204867e-003 -1.40687928e-003 -1.18714443e-003
    3.49223352e-004 -3.15930624e-003 -1.78368308e-003 -6.66670362e-003
    -2.11027940e-003 -2.97007081e-003 -6.75972737e-003 -6.69629592e-003
    2.40322086e-003 1.77791785e-003 2.01203348e-003 4.37098090e-003
    2.02080049e-003 8.51437729e-003 1.73590351e-002 6.37043593e-003
    1.05237486e-002 -2.20056390e-003 -2.37560179e-003 -4.13935212e-003
    -1.80908805e-003 -1.36620190e-003 -1.52137002e-003 -3.12866643e-003
    -2.26879236e-003 -2.16642604e-003 1.71184260e-003 2.74041295e-003
    8.99305276e-004 4.97858878e-003 -4.16222867e-003 2.90007703e-003
    6.76101958e-003 1.47114126e-002 1.25723276e-002 4.13241889e-003
    1.24352332e-003 -2.96542724e-003 4.67771861e-005 -1.90637435e-003
    -3.40886321e-003 -4.16717306e-003 -4.80282959e-003 -7.81665836e-003
    -8.66616424e-003 -5.58701018e-003 7.43229815e-004 6.14905497e-003
    -9.41033754e-003 4.99114045e-004 6.15221076e-003 1.53431715e-002
    -4.13398491e-004 2.51212594e-004 -2.87917675e-003 -5.22494363e-003
    -3.42493015e-003 -6.60286751e-003 -3.71464598e-003 -4.76091448e-003
    -8.22159555e-003 -9.18656215e-003 2.34662998e-003 2.62706279e-004
    -3.11979488e-003 7.85337389e-003 -2.87370943e-003 3.64186149e-003
    1.43778557e-002 1.04339756e-002 4.72260453e-003 -1.80710328e-003
    -4.97925002e-003 -4.96289041e-003 -3.67206149e-003 -8.19890667e-003
    -3.83372512e-003 -6.71434915e-003 -6.02518953e-003 -7.23811937e-003
    -7.90832564e-003 -2.97491904e-003 -2.32440885e-003 1.01713631e-002
    -8.19642097e-003 3.43415397e-003 1.69258751e-002 1.09444484e-002
    9.07233823e-003 -4.45606327e-003 3.69206094e-003 1.92215398e-003
    5.20729227e-003 5.25884621e-004 3.47434916e-003 1.11960818e-003
    9.41296667e-003 9.89115145e-003 -3.16944392e-003 -4.91156802e-003
    -6.38616225e-003 -3.18636163e-003 -9.69833753e-004 5.66034252e-003
    -5.77303302e-003 5.86564047e-003 9.09350533e-003 -2.43052118e-003
    2.80866586e-003 2.28817388e-003 5.99226123e-003 1.38707610e-003
    6.95549999e-004 -1.32196685e-004 6.81852223e-003 6.05405541e-003
    -2.56333477e-003 -3.92205454e-003 -3.33239790e-003 2.12204712e-003
    2.06297589e-003 5.48146432e-003 -3.30801914e-003 8.54642037e-003
    9.02354158e-003 -2.03105761e-003 2.71284883e-003 -1.23110518e-003
    -8.72475735e-004 -2.97261216e-003 -1.25960365e-003 -6.25123549e-003
    3.50928423e-003 3.40989465e-003 -7.41848536e-003 -5.22607518e-003
    -6.40155375e-003 1.84488454e-004 3.58361914e-003 2.93688150e-003
    -3.31156771e-004 8.96706712e-003 5.18035144e-003 -2.37264787e-003
    1.26654189e-003 -1.53172540e-003 9.36869474e-004 -1.81072368e-003
    1.76147255e-003 -5.72532229e-003 -3.38884955e-003 -3.60281370e-003
    -5.49087161e-003 -3.03358329e-003 -3.77893727e-003 1.57937268e-003
    1.03393523e-003 3.79333575e-003 1.13407243e-003 5.80178062e-003
    5.75926341e-003 -1.20932923e-003 2.92192074e-003 -6.29290298e-004
    5.54224150e-003 -2.40743300e-003 -1.26621104e-003 -1.76592998e-003
    3.93180089e-004 2.95260252e-004 -3.33552738e-003 -1.16829632e-003
    -5.05223114e-004 -3.16018675e-004 -3.19158164e-004 4.87857964e-003
    -1.25567254e-003 8.45959783e-003 -3.74675263e-004 2.42168433e-003
    6.25229720e-003 -2.51905969e-003 3.56666371e-003 -5.79863135e-003
    -2.03866931e-003 -2.58560525e-003 -1.24610798e-003 -2.81523285e-003
    -3.72802722e-003 -1.58286036e-003 -3.04376730e-003 -3.16908117e-003
    -6.27970416e-003 -5.93517434e-005 8.45118426e-003 3.98128945e-003
    1.53322443e-002 -5.10718720e-003 3.78114101e-003 -1.00657041e-003
    3.09539190e-003 -2.45744758e-003 4.49967280e-004 -2.47861887e-003
    -5.78376977e-003 -5.51974121e-003 -2.78289593e-003 -7.72361702e-004
    -1.80746289e-003 -9.84584331e-004 -3.16336984e-003 2.28256267e-003
    2.68918229e-003 1.72792245e-002 1.17663955e-002 -2.27850047e-004
    5.12222527e-003 6.87861524e-004 6.15044776e-003 -1.25884358e-003
    -2.10883445e-003 -2.69723497e-003 -1.50309829e-003 -3.52707249e-003
    -7.22751860e-003 -4.04052110e-003 -2.27116630e-003 -9.49534820e-004
    -2.21496145e-003 5.27040567e-003 6.75130635e-003 1.22553278e-002
    4.58557392e-003 1.66535517e-003 5.26303833e-004 -2.72568455e-003
    2.07277923e-003 -4.84589161e-003 -2.56904354e-003 -3.20440321e-003
    -2.33951374e-003 -3.85286193e-003 -2.50077574e-003 -1.28998188e-003
    -3.48311616e-003 2.46425788e-003 -6.63788756e-003 -2.30560522e-003
    7.59803690e-003 9.82825365e-003 1.38293412e-002 -1.46796473e-003
    -6.19633775e-003 -2.59599136e-003 -2.25549869e-004 -7.64793111e-003
    1.00571824e-005 -4.11746185e-003 -1.58378424e-003 -1.42276418e-004
    -5.64579573e-003 3.56486789e-003 -5.81194727e-005 1.07980259e-002
    -6.84653688e-003 1.84917345e-003 1.28349913e-002 1.83507521e-002
    1.03651593e-002 -2.68463977e-003 -9.24138352e-004 -7.67953752e-004
    3.32598435e-003 -1.02091639e-003 -1.65061851e-003 -3.29564814e-003
    -2.55048135e-003 -4.04873118e-003 -8.43722653e-003 -4.39720927e-003
    -2.69395718e-003 3.10457632e-004 -8.78050108e-004 1.32032321e-003
    3.36342747e-003 1.23698348e-002 1.30792400e-002 -7.72981532e-003
    -6.16153469e-003 -2.54355371e-003 9.80725745e-004 -4.77899611e-003
    -1.73445384e-003 -8.32372624e-003 -1.04365824e-002 -1.04752062e-002
    -9.94835701e-003 -1.58183929e-003 -2.03731121e-003 6.00919651e-004
    -4.30945400e-003 -1.10745034e-003 -2.74292612e-003 1.57881770e-002
    1.39078246e-002 -1.42637966e-003 8.53793928e-004 -8.00316280e-004
    -1.41908065e-003 -2.91764364e-003 -1.44463696e-003 -4.75360500e-003
    -2.74068210e-003 -3.10925744e-003 -2.75463890e-003 -8.35240935e-004
    -3.65376286e-003 4.77561960e-003 5.39274793e-003 6.81550335e-003
    4.02149325e-003 1.57476496e-002 9.40815546e-003 -2.56956462e-003
    9.67249707e-006 -1.29371896e-004 -1.98446540e-003 -9.11390351e-004
    3.62665043e-003 -3.10325669e-003 -1.01354420e-002 -9.99054406e-003
    -2.30272999e-003 3.94004979e-004 -2.76619103e-003 1.34384690e-003
    -2.41618298e-004 2.29172478e-003 3.81537969e-003 9.37742367e-003
    1.04646059e-002 2.08815886e-003 3.12753371e-003 1.89443270e-003
    5.87140734e-004 -2.52491067e-004 -1.36140618e-003 -4.25664335e-003
    -2.07463652e-003 -3.41439690e-003 -2.07939697e-003 -4.73476714e-003
    -4.21452615e-003 -5.55900275e-004 -2.57782784e-004 -3.09806294e-003
    2.79350160e-003 9.72550455e-003 1.10698789e-002 -2.13359483e-003
    9.97156720e-004 3.18713812e-003 3.05294059e-003 -3.40087252e-004
    1.15079433e-003 -4.86098183e-003 -9.85863525e-003 -1.12782437e-002
    -2.90364865e-003 -1.53222273e-003 -4.80020279e-003 -6.35757111e-004
    -2.73410790e-003 -3.39134620e-003 5.83432848e-004 1.22233545e-002
    8.03359970e-003 -4.74012224e-003 -6.52592280e-005 -9.82802827e-004
    -3.12634860e-004 -7.20380573e-004 8.03177187e-004 -1.78717449e-003
    -8.81090760e-003 -9.02424008e-003 -1.89377635e-003 -6.12902921e-004
    -2.49594823e-003 -8.72914272e-004 -2.74078734e-003 2.12784065e-003
    2.16261647e-003 7.21712178e-003 6.36354089e-003 -2.54996354e-004
    1.55118504e-003 -5.32098406e-004 3.36029870e-003 7.03931320e-004
    -9.32701107e-004 -2.58990610e-003 -5.11069642e-003 -5.77886729e-003
    -4.34254017e-003 -3.06600961e-003 -2.29483657e-003 1.21396675e-003
    -1.64524274e-004 9.54674091e-003 6.66151987e-003 6.79648248e-003
    1.16864592e-002 -3.26580484e-003 1.89445703e-003 2.64335470e-003
    6.75844541e-003 -2.63399561e-003 1.24290702e-003 -4.51226300e-003
    -4.41494025e-003 -4.00414178e-003 -2.33324105e-003 -2.27521919e-003
    -4.11229115e-003 -1.66130357e-003 -2.06641317e-003 6.28889713e-004
    -2.43054936e-003 9.73520894e-003 4.53788089e-003 4.71632043e-003
    4.98603377e-003 3.96025367e-003 1.15340790e-002 -2.08324241e-003
    1.18560146e-003 -5.09626092e-003 5.26756747e-003 6.09905040e-003
    -2.55317683e-003 -3.94587126e-003 -3.73685756e-003 1.94615033e-003
    1.95213920e-003 4.57671098e-003 -3.48386914e-003 5.28201088e-003
    3.71272676e-003 -2.64294306e-003 4.43050114e-004 -4.28364670e-004
    1.89783494e-003 5.62335481e-004 -1.36610679e-003 -2.42060889e-003
    1.51090568e-003 1.68088393e-003 -5.36494609e-003 -3.39018926e-003
    -2.12444481e-003 5.00800379e-004 6.95320778e-004 2.76955962e-003
    3.05497553e-003 6.72510266e-003 8.35519377e-003 -4.85833362e-003
    -1.24951696e-003 -1.94777572e-003 -9.02546279e-004 -4.13093204e-003
    -3.25602526e-003 -6.71261270e-003 -1.22287674e-002 -1.27665550e-002
    -8.25671759e-003 -2.33767251e-003 -5.21320058e-003 -3.49833816e-003
    -3.76446242e-003 -1.99909345e-003 -5.38563682e-003 1.03990668e-002
    1.12423645e-002 4.37681703e-003 2.92465836e-003 4.83751297e-003
    3.98087734e-003 4.54169553e-004 1.71105828e-004 -2.56112800e-003
    1.05115594e-002 1.05348155e-002 -3.13023571e-003 -4.66889003e-003
    -4.05296870e-003 7.40886375e-004 9.43636696e-004 2.73173035e-004
    -3.98890115e-003 1.09392731e-002 6.68978365e-003 2.27509742e-003
    -4.31448803e-004 6.59893325e-004 -4.26608650e-003 -3.88126285e-003
    -3.27517861e-003 -4.78632189e-003 -8.71615391e-003 -9.39481705e-003
    -7.00781075e-003 -4.31218138e-003 -8.94237775e-003 -7.32264528e-003
    -1.94156100e-003 -3.01528163e-003 -4.71397256e-003 7.53340032e-003
    1.08206244e-002 6.97834464e-003 5.52250771e-003 2.45804433e-003
    3.92233441e-003 1.07285893e-003 -7.70184270e-004 -2.15444341e-003
    2.57009151e-003 1.58960035e-003 -2.19392939e-003 -3.70914955e-003
    -2.97736912e-003 -3.67830065e-003 -1.70983979e-003 -2.11470714e-003
    -1.09465109e-004 3.98235302e-003 8.55091121e-003 3.70182819e-003
    1.80968200e-003 1.36710831e-003 8.42204317e-004 -1.86625472e-003
    -3.50589544e-004 -5.80397854e-003 -9.49318148e-003 -9.19995643e-003
    -2.69316998e-003 -3.34022986e-003 -3.66134034e-003 -2.06904369e-003
    -2.45218258e-003 -2.64709420e-003 -1.61344104e-003 8.41083284e-003
    2.59133172e-003 3.81222041e-003 5.47430757e-003 -1.79641717e-003
    2.31195847e-003 -1.52655167e-003 -6.92806265e-004 -1.06808182e-003
    7.05037359e-003 5.68447914e-003 -1.63314259e-003 -2.53534736e-003
    -4.54923278e-003 -2.18579266e-003 -3.86931049e-003 7.78579793e-004
    -2.39443453e-003 -3.46724479e-003 9.85451415e-003 -1.13799679e-003
    2.12345016e-003 -4.93910210e-003 -1.82249607e-003 -1.82404544e-003
    -1.45288731e-003 -6.51823310e-003 -6.53026439e-003 -5.37674734e-003
    -4.05708514e-003 -9.77386371e-004 -2.02858169e-003 2.82536086e-004
    -2.78016040e-003 1.92177098e-003 -3.67066497e-003 4.67855344e-003
    5.23318443e-003 4.70444735e-004 2.32473272e-003 1.68187893e-003
    1.79715292e-003 -4.97345719e-003 -2.45631859e-003 -5.60558122e-003
    -9.05145891e-003 -9.72832553e-003 -2.93515041e-003 -3.21869529e-003
    -2.72400049e-003 3.17759987e-004 -2.22198316e-003 1.86300866e-004
    -2.94642244e-003 5.32479864e-003 1.61061250e-002 4.84891143e-003
    6.64008316e-003 3.24566523e-003 5.03916200e-003 -2.92631937e-003
    -1.64801639e-003 -5.07426634e-003 8.77831504e-003 8.32822919e-003
    -4.14373819e-003 -3.30786849e-003 -3.26104322e-003 2.44278880e-003
    -7.73800886e-004 2.33477354e-003 -4.72868606e-003 1.37171727e-002
    1.42265121e-002 -3.83502746e-004 -5.08431578e-004 -2.27729836e-003
    -4.45645535e-003 -3.66730453e-003 -4.67616506e-003 -6.19600993e-003
    -1.06222592e-002 -1.20731443e-002 -6.37400849e-003 -3.16239032e-003
    -3.25992401e-003 3.75915552e-003 -1.73139176e-003 3.02306260e-003
    -4.78107948e-003 1.04340594e-002 1.68948006e-002 3.04261269e-003
    1.93626399e-003 -3.14025790e-003 -4.62769717e-003 -3.97597067e-003
    -4.85645561e-003 -4.72223759e-003 2.70720734e-003 2.27211299e-003
    -6.97615650e-003 -3.28066549e-003 -3.34176049e-003 9.05846246e-003
    -2.14522635e-003 5.21213887e-003 -2.15202896e-003 1.60089023e-002
    1.81274991e-002 3.10698664e-003 1.70779589e-003 2.79450696e-003
    1.94194145e-003 1.32859545e-003 -8.91767035e-004 -3.82671203e-003
    1.06638633e-002 1.11193601e-002 -2.90732482e-003 -3.44228232e-003
    -5.01065748e-003 -1.41533057e-003 -1.37059973e-003 -2.40470166e-003
    -6.97671575e-003 1.61813758e-002 1.21922856e-002 1.73391902e-003
    -4.71223146e-004 5.58703759e-005 -4.73271171e-003 -2.58164457e-003
    -2.77506420e-003 -4.26462339e-003 -1.11292005e-002 -1.17848115e-002
    -4.77151619e-003 -4.37343773e-003 -7.23028183e-003 -7.37283239e-003
    -5.78573858e-003 -5.08305337e-003 -3.70288035e-003 1.33934468e-002
    1.18567571e-002 -2.47522112e-004 2.87567801e-003 -3.81327840e-003
    -3.01878084e-003 -1.54260721e-003 -3.16965743e-003 -4.33025649e-003
    7.10216770e-003 7.61436904e-003 -2.52315495e-003 -1.44987635e-003
    -3.98576446e-003 2.43773428e-003 -3.52664758e-003 -1.93261576e-003
    -4.71937645e-004 1.04953703e-002 8.69860593e-003 -1.30416080e-003
    -7.40630203e-004 -6.14563422e-003 -8.63199495e-003 -3.52212065e-003
    -3.24880867e-003 -6.85294997e-003 -1.22222332e-002 -1.07296174e-002
    -2.30372953e-003 -1.92870235e-003 -5.71755553e-003 -2.01010611e-003
    -3.80069925e-003 -3.80070577e-003 -6.28958282e-004 6.80809608e-003
    -5.96873090e-003 -4.06617951e-003 1.02291146e-004 -3.77804367e-003
    1.34431280e-003 -1.26940291e-003 -8.24441726e-004 -7.82487157e-004
    1.19549017e-002 1.17566558e-002 3.58369056e-004 1.62214696e-004
    -2.49270536e-003 1.53244310e-003 -9.49215086e-004 4.20308555e-004
    -2.40141270e-003 -7.68976379e-003 4.03629988e-003 -9.43059288e-003
    -1.28298998e-003 -6.78547844e-003 1.64485350e-003 -1.48650084e-003
    -2.75695533e-003 -4.40507336e-003 -3.20470356e-003 -4.03615832e-003
    -1.69796427e-003 1.30803545e-003 3.62278632e-004 2.56129517e-003
    -1.65568967e-003 1.80073851e-003 -4.89734625e-003 4.56365524e-003
    -4.83613834e-003 -6.19312236e-003 -3.00931185e-003 -3.38807912e-003
    -1.22649036e-003 -3.04727745e-003 -1.58681034e-003 1.02814904e-003
    8.25640652e-003 1.18069081e-002 4.12578741e-003 1.08960387e-003
    -2.59554200e-003 1.27528247e-003 -1.13018474e-003 -1.26279762e-003
    -3.04730958e-003 -5.04173338e-003 -2.00206740e-003 -1.01765664e-002
    -4.02397290e-003 -5.59866801e-003 2.22083996e-003 -3.84545163e-003
    -3.92677775e-003 -1.89609744e-003 2.10171589e-003 6.02265587e-003
    5.01019880e-003 1.59036601e-003 -4.69023915e-004 6.04685571e-004
    3.36028083e-004 9.13333148e-004 -5.12952311e-003 1.15698553e-003
    1.89538747e-002 -4.77794884e-003 -6.38700149e-004 -4.68121888e-003
    -2.73974263e-003 -5.23182238e-003 -3.89823806e-003 -4.90047084e-003
    -1.63158365e-002 -1.65243354e-002 -5.28497295e-003 -2.53430149e-003
    -1.56257465e-003 9.11014713e-003 -6.95094757e-004 5.92455268e-003
    -3.30725522e-003 2.10180245e-002 2.17189062e-002 2.04701605e-003
    3.78604559e-003 -2.10569450e-003 -1.72127236e-003 -4.60529514e-003
    -2.70503829e-003 -1.80741097e-003 -8.59670516e-004 -1.32203382e-003
    -5.53206028e-003 -3.24463286e-003 -1.93550636e-003 9.88942944e-003
    -1.51195447e-003 3.99415754e-003 -1.11375668e-003 2.23811790e-002
    -7.37080991e-004 -7.08019454e-003 -2.47370475e-003 -5.85176842e-003
    -1.25957443e-003 -4.83777048e-003 -3.82773113e-003 -3.13310092e-003
    -1.30725913e-002 -1.16937924e-002 -2.33579450e-003 -2.34173541e-003
    -1.21504627e-003 4.83639911e-003 -9.40322701e-004 9.04452114e-004
    -2.79849838e-003 2.72822520e-003 -5.00005856e-003 -5.25679765e-003
    -1.70154934e-004 -2.50962120e-003 2.09115300e-004 -2.17400584e-003
    -1.46197143e-003 -1.97108719e-003 -1.15103798e-003 -3.37054254e-003
    -5.52675361e-003 -3.72340856e-003 -5.51884819e-004 5.54323522e-003
    -2.23143678e-003 -2.71154637e-003 -3.53693776e-003 -3.63333547e-003
    1.34404777e-002 2.69322493e-003 7.35660689e-003 -1.49121950e-003
    1.79692183e-003 -1.87927706e-003 -2.52785347e-003 -2.21114303e-003
    8.11864715e-003 8.32972210e-003 -2.03425018e-003 7.27191044e-004
    -6.26633118e-004 5.77525701e-003 -3.01795290e-003 -6.32135896e-004
    2.47249450e-003 1.34647721e-002 4.34553577e-003 -4.35745023e-004
    3.97897558e-003 -3.13586276e-003 -3.97782400e-003 -3.32719763e-003
    -2.49717128e-003 -6.05603168e-003 -7.28065101e-003 -3.54846637e-003
    -1.58617296e-003 7.82380230e-004 -3.40369204e-003 4.24472662e-003
    1.87753362e-003 4.50390577e-003 2.26175645e-003 5.57907019e-003
    -7.61634111e-003 -1.86544086e-003 2.87281116e-003 8.56238650e-004
    1.67265628e-003 -8.27287091e-004 -2.36692047e-003 -1.25996256e-003
    6.88560866e-003 6.46071136e-003 -4.43379022e-003 -2.00661877e-003
    3.91397916e-004 2.97885272e-004 -2.22142180e-003 -1.48719945e-003
    -2.79446947e-003 -7.38606602e-003 -1.00457175e-002 -4.13659215e-003
    1.17101322e-003 -1.54738175e-003 3.59819992e-003 -4.70656855e-003
    -3.70744942e-003 -6.15801988e-003 1.26037048e-003 2.65256176e-003
    -5.18563576e-003 -1.27949065e-003 -2.27665994e-003 1.59755431e-003
    -8.94963974e-004 3.39896907e-003 3.14319332e-004 -9.01215337e-003
    4.85989352e-004 -5.44497604e-003 -5.05251577e-003 -5.24734566e-003
    -3.41816060e-003 -5.70243597e-003 -2.08309502e-003 -9.47036315e-004
    1.61994398e-002 1.94936637e-002 3.77232581e-003 -5.49168908e-004
    -2.34846631e-003 1.08507788e-003 -5.70731878e-004 -2.20970530e-003
    -1.06147979e-003 8.52254685e-004 3.44737899e-003 -5.88324759e-003
    -3.73879587e-003 -6.17130054e-003 -1.36292074e-003 -5.33604482e-003
    -2.62265606e-003 -1.63493550e-003 2.67248182e-003 7.69526046e-003
    3.63379577e-003 1.01592229e-003 -9.43665742e-004 -1.81471556e-003
    8.75552651e-004 3.47072259e-004 -2.92031607e-003 4.85945912e-003
    -6.36707759e-003 -4.33248421e-003 -2.08506803e-003 -6.98683551e-003
    -8.98654852e-003 -9.31800809e-003 -6.97399117e-003 -6.05890015e-003
    1.95809454e-002 2.02255324e-002 -1.73275985e-004 -2.74046906e-003
    -4.63093817e-003 -3.13067855e-003 -3.22786695e-003 -3.15649481e-003
    -1.93979708e-003 -6.41369075e-003 -1.19756977e-003 -6.09755609e-003
    -3.66638065e-003 -5.79769583e-003 -7.91190285e-003 -8.31057504e-003
    -6.36473577e-003 -8.28350987e-003 4.92601003e-003 5.39294444e-003
    -2.62460345e-003 -1.15458551e-003 -5.50683402e-003 -2.31397478e-003
    -1.23554061e-003 -5.58846456e-004 -5.18203760e-003 1.78758331e-004
    -5.03303076e-004 -6.20953972e-003 -3.32649215e-003 -4.41960059e-003
    3.46961524e-003 -3.74052022e-003 -2.51759519e-003 -2.62409309e-003
    -1.71825790e-003 2.84326519e-003 -1.97550296e-004 -1.39011696e-004
    -1.84784457e-003 9.07058362e-004 -1.85885944e-003 -1.19077461e-003
    -2.76932889e-003 1.04326138e-003 -5.14474837e-003 -5.86790824e-003
    -1.17183849e-003 -1.86653656e-003 2.36450811e-003 -2.36209668e-003
    -5.53030230e-004 -1.37250812e-003 7.76215876e-003 5.40861813e-003
    -2.83247139e-003 -9.51328955e-004 -1.53508445e-003 1.13746629e-003
    -2.87827826e-003 -4.03050939e-003 -4.00248449e-003 -3.65417427e-003
    -4.46524937e-003 -5.82353165e-003 -5.15920622e-003 -5.18538943e-003
    -5.25530521e-003 -6.74137613e-003 -4.23210673e-003 -5.94059657e-003
    -8.88583832e-004 -3.33026255e-004 -4.36152751e-003 -1.40846963e-003
    -6.97531318e-003 1.57157297e-003 -2.51366850e-003 -4.34448430e-003
    -6.21776050e-003 -4.03982028e-003 6.13377616e-003 -5.35654137e-003
    -1.94969797e-003 -4.25859680e-003 1.47943594e-003 -1.05029503e-002
    -5.76179661e-003 -6.93278294e-003 1.37338545e-002 9.11323726e-003
    -5.06578712e-003 -2.51734792e-003 -7.15686893e-003 3.04373517e-003
    -3.03704920e-003 -3.55682219e-003 -5.85991377e-003 6.17201673e-003
    -1.03801591e-002 -2.25580833e-003 2.06702229e-004 1.72755646e-003
    3.69864772e-003 -1.45338499e-003 -1.78856915e-003 -7.00000965e-004
    9.11629386e-003 8.79522134e-003 -2.19161529e-003 -1.64711871e-003
    -1.39950064e-003 -1.37505378e-003 -1.65805290e-003 -2.45678402e-003
    -3.99359083e-003 -1.04592172e-002 -3.44780181e-003 -1.37434423e-003
    5.20344001e-005 7.66696117e-004 2.06998922e-003 -3.33752809e-003
    -2.90800445e-003 -3.73977842e-003 5.90150058e-003 6.40221313e-003
    -3.91287636e-003 -7.54306908e-004 -1.95144326e-003 -6.59416022e-004
    8.59760446e-004 1.85046706e-003 -2.30824295e-003 -3.66425677e-003
    7.44813681e-003 -2.82300636e-003 1.17184012e-003 -1.24571344e-003
    9.99060925e-004 -7.30620418e-003 -4.85286443e-003 -4.26070159e-003
    6.12625293e-003 6.36318652e-003 -2.95795430e-003 -3.74783715e-003
    -4.76973038e-003 -2.39270064e-003 -3.43809556e-003 -3.72014241e-003
    -5.35095902e-003 5.94263570e-003 1.60242151e-002 -3.96664580e-003
    -8.11185339e-004 -2.05580681e-003 5.29100245e-004 -4.33638552e-003
    -1.97863951e-003 2.74278573e-004 9.15158819e-003 9.56200901e-003
    -3.19036003e-003 -4.46782541e-003 -5.34126535e-003 -6.60082605e-003
    -4.39599017e-003 -4.95956140e-003 -6.04572892e-003 1.38393268e-002
    -6.56577479e-003 -1.56490225e-003 1.00440357e-003 -3.67065915e-003
    -5.68191055e-003 -5.34540042e-003 -5.65776741e-003 -5.43566048e-003
    2.35079303e-002 2.35351883e-002 -4.87203448e-004 2.20007496e-004
    -3.36766266e-003 1.72433109e-004 -3.23324581e-003 -3.47059430e-003
    -2.59014289e-003 -6.68446440e-003 -5.56477113e-003 -2.90967221e-003
    7.73214386e-004 -4.01022797e-003 -5.47089754e-003 -5.99123491e-003
    -5.56179183e-003 -6.58322312e-003 6.30825711e-003 6.09329902e-003
    -4.00309078e-003 1.03564071e-003 -5.95146371e-003 3.84670304e-004
    -1.40839757e-003 -9.30055976e-005 -4.46647173e-003 -5.15776686e-003
    -8.03960487e-003 1.40405109e-003 7.14045367e-004 -5.44234505e-003
    3.43151996e-003 -4.53342032e-003 -3.82592971e-003 -5.60004124e-003
    2.63415985e-002 2.60389764e-002 -4.73859394e-003 -1.83687010e-003
    -1.16766093e-003 -3.99566581e-003 -3.66164302e-003 -6.33903919e-003
    -2.90661748e-003 -8.36717058e-003 -1.50485532e-002 -3.37841245e-003
    -1.07969553e-003 -6.95044221e-003 -2.88672070e-003 -6.80754334e-003
    -5.03686676e-003 -8.25959817e-003 2.84358952e-003 7.15677859e-004
    -5.95454825e-003 -2.98599061e-003 -4.40399814e-003 -3.09009268e-003
    -5.28441463e-003 -3.96208232e-003 -5.65728731e-003 -1.54718785e-002
    -6.85063016e-004 -5.59538137e-003 -3.57560092e-003 -4.46452573e-003
    -4.10852954e-003 -5.71228843e-003 -4.48995316e-003 -4.93248040e-003
    -3.70763522e-003 -5.00369631e-003 -4.11113817e-003 -9.60082223e-004
    -6.60793018e-003 1.34189078e-003 -1.02024619e-003 -1.57917477e-003
    -3.51653900e-003 4.35542082e-004 5.98790916e-003 -4.70622489e-003
    -3.95531440e-003 -4.79421392e-003 -2.15537078e-003 -9.57784243e-003
    -5.92665467e-003 -4.38024290e-003 1.71848107e-002 1.61479451e-002
    -3.69192939e-003 2.89610412e-004 -4.60206484e-003 6.45824056e-003
    -5.79621585e-004 6.83395047e-005 -1.87518646e-003 7.79265072e-003
    -1.19660115e-002 -6.12872606e-003 -6.97892951e-003 -8.17593373e-003
    -4.83714696e-003 -8.27378221e-003 -5.54693816e-003 -7.09304493e-003
    -1.19141419e-003 -3.18162167e-003 -3.81964771e-003 -8.91029078e-004
    -4.85612126e-003 -3.00450879e-003 -4.21905704e-003 -2.23818026e-003
    -3.83409741e-003 -1.20631130e-002 1.29076000e-003 -7.15425797e-003
    -9.22966190e-003 -8.60400777e-003 -6.92083826e-003 -9.44500417e-003
    -5.05549833e-003 -6.18522381e-003 1.92280617e-002 2.08253097e-002
    6.15895915e-005 3.44369002e-003 -3.37648694e-003 3.97984590e-003
    -1.37142197e-003 2.10020691e-003 6.71029324e-004 2.74458318e-003
    8.03040341e-003 -2.09045620e-003 -1.27509760e-003 -3.74385179e-003
    -1.86260766e-003 -1.01576205e-002 -6.23566331e-003 -3.70357209e-003
    1.37431137e-002 1.39510166e-002 -1.69279450e-003 -9.45443462e-004
    -2.84916093e-003 1.29012251e-003 -1.87268027e-003 -2.03300687e-003
    -3.17052356e-003 8.22805241e-003 1.52174095e-002 5.84448571e-004
    -3.84526676e-004 -2.75075785e-003 -2.33863859e-004 -7.33405631e-003
    -3.56481923e-003 1.95375105e-004 6.49653142e-003 6.84705283e-003
    -2.36924249e-003 -3.19214351e-003 -3.68604483e-003 -3.96288745e-003
    -3.33204260e-003 -4.74554440e-003 -4.58012428e-003 1.30064962e-002
    -9.68375430e-003 -7.15081021e-003 -6.58116071e-003 -6.01303019e-003
    -7.66789168e-003 -8.75040889e-003 -5.59791690e-003 -5.44422027e-003
    1.68944374e-002 1.90050453e-002 4.98758582e-003 3.71486438e-003
    -2.17138859e-003 2.20316043e-003 -6.54063479e-004 1.72447867e-003
    -4.73357708e-004 -8.66593421e-003 -8.53364414e-004 -4.01460426e-003
    -3.32337711e-003 -4.85110609e-003 -3.42927664e-003 -6.78294664e-003
    -2.57557863e-003 -4.31275088e-003 6.00556144e-003 6.94421446e-003
    1.55029912e-003 3.22564185e-004 -3.59748350e-003 2.23023380e-004
    -3.20873689e-003 -9.10995528e-004 -3.06926528e-003 -1.51499396e-003
    -7.45761266e-004 1.11130031e-003 7.78994989e-004 -5.00503974e-003
    2.51531391e-003 -2.31124740e-003 -2.71029398e-003 -4.79192287e-003
    1.57706682e-002 1.60445515e-002 -3.55329318e-003 -2.37584021e-003
    -7.00073957e-004 -3.19471094e-003 -3.40503966e-003 -2.15960550e-003
    -5.03089686e-004 -2.15318264e-003 -1.17338244e-002 -3.53609002e-003
    -3.65519011e-003 -7.84625113e-003 -1.43521454e-003 -5.03988517e-003
    -4.09725122e-003 -5.88781526e-003 4.45511704e-003 2.02942267e-003
    -7.58045353e-003 -4.58145840e-003 -4.25784662e-003 -4.41857381e-003
    -6.31847978e-003 -4.19930508e-003 -4.48923884e-003 -1.36587219e-002
    5.11947460e-003 -3.44839832e-003 -5.91229647e-004 -4.85294219e-003
    -6.17332617e-003 -4.06572036e-003 -3.36603681e-003 -3.84588004e-003
    1.14070559e-002 1.22969477e-002 -8.70763732e-004 7.87599129e-004
    -1.35266746e-003 3.15748295e-003 -1.07050047e-003 4.72856080e-003
    -1.38878109e-004 3.37402988e-003 1.35836117e-002 -1.91416522e-003
    -3.23345861e-003 -7.69093446e-003 -1.42006110e-003 -5.17139770e-003
    -1.56716397e-003 -1.28987245e-003 3.17312591e-003 2.22338689e-003
    -5.08295977e-003 -2.11585755e-003 -3.22101847e-003 -8.47406976e-004
    -4.37143398e-003 -1.97174679e-003 -2.16796808e-003 1.20351696e-002
    -9.51141771e-003 -4.14739829e-003 -6.51934510e-003 -8.89489334e-003
    -5.46604535e-003 -7.22022168e-003 -5.17345825e-003 -4.44492232e-003
    3.04579292e-003 1.01977203e-003 -3.56769166e-003 -1.66609755e-003
    -2.66349176e-003 -2.86162063e-003 -5.45652770e-003 -3.63321626e-003
    -3.99156054e-003 -1.03373434e-002 2.61309237e-004 -4.65908460e-003
    -5.96830994e-003 -7.03933276e-003 -4.37348383e-003 -7.01483851e-003
    -4.76552686e-003 -3.16962483e-003 1.63010322e-002 1.70967672e-002
    2.06688279e-003 4.28294251e-003 -6.67311426e-004 3.71218077e-003
    -2.46037822e-003 5.57237399e-005 -3.92049900e-004 9.32708150e-004
    1.53081110e-002 2.90132593e-004 -8.29798810e-004 -6.30862173e-003
    -7.82502873e-004 -5.46610588e-003 -2.25846330e-003 -1.48778537e-003
    3.93400295e-003 2.31406651e-003 -3.56570445e-003 -2.48025433e-004
    -2.91983760e-003 -1.55170274e-003 -3.23376688e-003 -3.33584845e-003
    -5.32170432e-003 1.59450676e-002 3.68511979e-003 -1.17382442e-003
    1.97560131e-003 -3.20930631e-005 3.90601181e-003 -4.44100704e-003
    -2.79622688e-003 -1.33752113e-003 1.07369442e-002 1.11315958e-002
    -2.37361272e-003 6.01058081e-003 6.97139767e-004 2.12746765e-003
    -1.81488681e-003 -3.29729356e-003 -5.21502807e-004 4.72792564e-003
    -6.42503751e-003 -7.04741664e-003 -6.07250119e-003 -5.82228787e-003
    -3.91663052e-003 -6.39300188e-003 -5.69814537e-003 -4.99027874e-003
    1.16954278e-002 1.38793420e-002 2.39144894e-003 3.65333725e-003
    -1.76182133e-003 1.47445512e-003 -2.39200331e-003 9.49663925e-004
    -5.51868288e-004 -4.48524673e-003 -2.37626140e-003 -5.87403262e-003
    -3.88687453e-003 -5.14748879e-003 4.35216498e-005 -5.37503138e-003
    -1.11371360e-003 -4.27359017e-003 7.46990135e-003 9.37483553e-003
    2.22337680e-004 1.01069501e-003 -2.56595225e-003 1.04558910e-003
    -3.96730797e-003 1.36272248e-003 -2.54201796e-003 -3.05782515e-003
    3.02557251e-004 -2.22453638e-003 -4.17942792e-004 -7.60578318e-004
    8.63604806e-003 -4.99864109e-003 -7.25944852e-003 -6.45182747e-003
    1.02592828e-002 9.57294181e-003 -2.86695897e-003 1.79798098e-003
    -4.80115239e-004 3.37697013e-004 -4.68893023e-003 -3.18482728e-003
    3.08130193e-003 4.01985971e-003 7.16851093e-003 8.12708022e-005
    5.64444053e-004 -5.76623715e-004 1.18064098e-002 -2.71457830e-003
    -7.98138033e-004 -4.11680201e-003 7.66519736e-003 7.83178210e-003
    -3.96730006e-003 1.22423272e-003 -2.03752471e-003 1.19683007e-003
    -4.49735159e-003 1.14259764e-003 1.76788121e-003 6.65744720e-003
    3.05842073e-003 -3.49810068e-003 -4.59178537e-003 -4.98055108e-003
    -7.49025447e-003 -4.94202180e-003 -3.20863095e-003 -4.43304749e-003
    4.05077310e-003 5.68593899e-003 -1.30196486e-003 2.09698104e-003
    -1.09421357e-003 7.19931349e-003 1.29629101e-003 6.78591523e-003
    -1.00864971e-003 3.35253123e-003 1.16691757e-002 -1.79565675e-003
    -3.92145151e-003 -4.32244129e-003 8.73809448e-004 -2.53417622e-003
    -2.89131509e-004 5.90501528e-004 -4.74244263e-003 -5.24818385e-003
    -2.51966808e-003 4.72171349e-004 -2.47946545e-003 2.61431606e-003
    3.37649573e-004 1.08131161e-003 -2.52607721e-003 1.00055579e-002
    3.68665322e-003 -8.03639367e-003 -7.31472438e-003 -6.52387040e-003
    -1.63697486e-003 -7.50924833e-003 -4.50302055e-003 -5.50324889e-003
    1.25319827e-002 1.52525837e-002 -3.13342502e-003 1.19220233e-003
    -1.77886768e-003 8.90857354e-003 -1.19014527e-003 2.42762291e-003
    -1.49942562e-003 6.06724666e-003 1.32835042e-002 -3.46485712e-003
    -7.00419943e-004 1.38040446e-003 7.05053331e-003 -1.42954185e-003
    1.41245290e-003 -2.27906322e-003 2.28371052e-003 8.16083746e-004
    -2.47963215e-003 6.38851838e-004 -4.78540175e-003 2.14313506e-003
    -1.22528628e-003 4.81117424e-003 2.31563952e-003 1.38694961e-002
    1.81305427e-002 -2.70686625e-003 -1.08448928e-003 -2.80779297e-003
    3.37423547e-003 -3.26124183e-003 -7.03215250e-004 -4.19146119e-004
    -8.00190214e-003 -8.56842380e-003 -2.80835479e-003 -1.12637710e-004
    -2.25831917e-003 2.54254614e-004 9.77534452e-004 -4.90597915e-004
    -3.52214719e-003 1.89403072e-002 4.45318129e-003 -7.12745544e-003
    1.72911037e-003 1.26057057e-004 5.14135417e-003 -2.83109397e-003
    4.59251954e-004 -3.03882104e-003 -8.89872143e-004 -1.82633259e-004
    -3.33200581e-003 2.81682075e-003 -1.10719190e-003 1.08502957e-003
    -1.04182574e-003 -9.13820753e-004 -1.08616994e-004 6.32928498e-003
    1.55791063e-002 -3.11564235e-003 6.09459449e-003 -5.32545208e-004
    3.35135264e-003 -2.59672012e-003 9.43794148e-004 -3.03831906e-003
    -1.43950386e-002 -1.44669060e-002 -2.80422741e-003 1.36832998e-003
    -3.70690553e-003 3.49646958e-004 -3.03378125e-004 2.30361125e-003
    -3.36302887e-003 1.63436085e-002 8.65613855e-003 -8.08815099e-003
    5.64030325e-003 -4.86108521e-003 7.07249111e-003 3.26737319e-003
    1.38717005e-002 -2.67083029e-004 -6.01240341e-003 -5.75193996e-003
    -3.88857952e-005 2.60210037e-003 -3.07841925e-003 -4.79099690e-004
    6.57921541e-004 1.46380579e-003 -4.45824768e-003 9.53011774e-003
    4.53909067e-003 -6.17858069e-003 3.72394687e-003 1.01052667e-003
    8.22319277e-003 -3.59734125e-003 -7.10854656e-004 -4.90879640e-003
    4.87927021e-003 4.77846805e-003 -3.13409744e-003 8.87296395e-004
    -2.06030160e-003 -9.45951033e-004 -2.37111165e-003 1.61804390e-004
    4.50805249e-003 7.79470755e-003 6.29983889e-003 -7.33015768e-004
    5.44860726e-003 2.04121810e-003 7.21069984e-003 -2.70749978e-003
    1.48542237e-003 -2.71359901e-003 -1.50601170e-003 -9.13061725e-004
    -1.09163311e-003 1.85596291e-003 -2.57584406e-003 1.04203145e-003
    -2.10466795e-003 5.96683007e-004 4.06845286e-003 7.55963847e-003
    -4.20389464e-003 -7.39151845e-003 4.68589412e-003 7.06946128e-004
    1.01871612e-002 9.92250163e-004 1.02809872e-002 -1.46646355e-003
    -1.92148087e-003 -8.93999764e-004 4.39827534e-004 -1.50244695e-003
    -5.17751183e-003 -3.09630670e-003 2.62896356e-004 7.50927487e-004
    8.74924299e-004 -3.02133802e-003 -2.75504659e-003 -3.51643353e-003
    5.69281401e-003 4.03124699e-003 4.13713977e-003 -5.29365661e-003
    4.56109596e-003 -3.21716839e-003 -3.76222015e-004 -1.92747416e-003
    3.26549671e-005 -1.28830841e-003 -4.75756032e-003 1.60899875e-003
    -1.04736816e-003 -1.75857393e-004 2.21119192e-003 -3.33125214e-003
    9.09579452e-003 -2.50932155e-003 -1.69625110e-003 -5.98364882e-003
    -2.53068050e-003 -5.19785658e-003 -2.29354622e-003 -4.27902816e-003
    1.35069974e-002 1.30576873e-002 -5.38129359e-003 -1.73185172e-003
    -4.31090244e-004 1.43316458e-003 -2.27528554e-003 -9.39260295e-004
    2.96318089e-004 9.87053197e-003 4.48886305e-003 5.44557523e-004
    5.30316448e-003 -8.97764286e-004 7.07340892e-003 -5.20711874e-005
    1.28695590e-003 -1.28844788e-003 1.72631140e-003 -7.16269133e-004
    -5.78372600e-003 -5.01879537e-003 -5.76103944e-003 -9.78917349e-003
    -5.00857923e-003 -1.15948438e-003 2.56563188e-003 5.19541884e-003
    1.55822635e-002 4.80839796e-003 5.15703345e-003 -5.24967443e-004
    6.15095894e-004 -2.39399006e-003 -2.62726587e-003 -4.51350119e-003
    9.74522252e-003 5.59539301e-003 -1.20617254e-002 -8.50308407e-003
    -5.34111401e-003 -2.69193877e-003 -3.32638272e-003 -1.07411353e-003
    -9.14318487e-004 1.31212063e-002 9.09852050e-003 7.09412014e-003
    8.62892624e-003 3.26799811e-003 9.29641165e-003 7.21088669e-004
    -2.91511812e-003 -2.77339411e-003 1.33759128e-002 8.33103526e-003
    -1.11997686e-002 -8.17960594e-003 -7.45553989e-003 -5.97069925e-003
    -3.80791700e-003 7.76054978e-004 -5.68423653e-004 1.05725760e-002
    4.35350370e-003 -8.78916529e-004 7.50445155e-003 -1.20594364e-003
    6.71853253e-004 -9.59599274e-004 -3.11447983e-003 -2.34028627e-003
    -8.04637000e-003 -9.84230079e-003 -5.85475191e-003 -2.49264855e-003
    -4.96836845e-003 -3.02646775e-003 -2.49171536e-003 1.62748771e-003
    -6.02939806e-004 5.54211205e-003 2.03056703e-003 -1.62481109e-003
    7.76470918e-003 -5.21028275e-003 3.15947435e-003 1.64967380e-004
    7.30813295e-003 1.88385067e-003 -4.00776137e-003 -4.46836278e-003
    -3.20002041e-003 -9.88651416e-004 -2.15735519e-003 3.97903234e-004
    4.10330063e-003 5.01482049e-003 -1.46901922e-003 4.74004867e-003
    9.44608077e-003 -1.24515372e-003 2.93315481e-003 1.83575728e-003
    5.38766943e-003 -2.59852107e-003 -4.20802413e-003 -3.91923403e-003
    5.56056388e-003 2.31328141e-003 -1.07356142e-002 -4.83986223e-003
    -4.57003294e-003 -3.88019742e-003 -5.17286547e-003 9.66195657e-004
    -2.17943918e-003 1.41656939e-002 1.39842648e-002 -2.10278807e-003
    2.63040210e-003 -3.03522364e-004 6.41149888e-003 -7.78317731e-003
    -1.98893761e-003 -3.55473720e-004 1.10170711e-002 1.41543010e-002
    -8.49592406e-003 -4.81299823e-003 -3.84469680e-003 -1.11288973e-003
    -2.74983677e-003 4.86432854e-003 -1.37429719e-003 1.95653383e-002
    -7.17821531e-005 -1.65134657e-003 4.78843506e-003 -8.99380539e-004
    3.90910869e-003 2.43825582e-003 8.06863140e-003 2.34429515e-003
    -1.09944884e-002 -1.09303165e-002 -1.26464269e-003 -2.74311029e-003
    -3.10725742e-003 -2.50614947e-004 2.02440540e-003 2.52384041e-003
    -1.18887459e-004 4.02938022e-004 7.27388659e-004 -2.37822300e-003
    4.97923139e-003 1.43454026e-003 1.54538691e-004 -5.66102378e-003
    1.14687812e-003 -3.04297986e-003 -2.41805566e-003 -2.01054011e-003
    -2.08223891e-003 -3.00221564e-003 -4.90174070e-003 -1.21505000e-003
    -2.22954014e-003 -6.32384210e-004 -1.94481225e-003 8.00415117e-004
    2.23576650e-002 1.33713067e-003 4.74846829e-003 -7.99218600e-004
    5.23481006e-003 -7.14058150e-003 -4.66897665e-003 9.29984089e-004
    6.08674018e-003 8.65542516e-003 -5.39435260e-003 -4.79103019e-003
    -4.14238125e-003 1.83647766e-003 4.15827613e-004 2.28393055e-003
    -4.42200946e-003 2.27991492e-002 2.31675971e-002 8.29050876e-003
    1.14820404e-002 4.13821824e-003 7.91615155e-003 -6.51107263e-003
    -6.50345162e-003 -2.07816134e-003 8.68054386e-003 8.49738531e-003
    -3.72890919e-003 -3.91432364e-003 -4.82998090e-003 -2.97093706e-004
    -3.36582563e-003 -3.59291164e-003 -9.86125041e-003 2.21032444e-002
    1.19100269e-002 4.20737080e-003 3.08758020e-003 1.75268773e-003
    1.36998412e-003 -2.15279078e-003 -7.77723326e-004 -4.87391837e-003
    8.86171311e-003 5.90380374e-003 -9.98702832e-003 -2.31234357e-003
    -3.48651502e-003 9.96242306e-006 -2.02989532e-003 5.18660992e-004
    -8.90060270e-004 1.04275439e-002 4.48700832e-003 7.33177294e-004
    2.09632725e-003 2.00124201e-003 3.67748551e-003 -2.61394936e-003
    -4.48739715e-003 -6.70303777e-003 1.20147066e-002 1.03891855e-002
    -1.04697067e-002 -4.82623419e-003 -8.93437583e-003 -5.28494362e-004
    8.88236566e-004 4.19960497e-003 5.26567455e-004 5.94900781e-003
    8.42760038e-003 -5.21118939e-003 -3.24021815e-003 -1.05085340e-003
    4.46607266e-003 -4.28380957e-003 5.70072734e-004 -5.03718853e-003
    9.06621199e-003 7.20845303e-003 -9.09915846e-003 -3.91649191e-005
    -6.84137084e-003 -2.29923963e-003 -5.22811431e-003 -1.48649409e-003
    -2.07475480e-003 7.99221545e-003 1.51621243e-002 -3.78900953e-003
    -5.18257869e-003 -1.39969843e-003 4.35213279e-003 1.08048366e-003
    1.42127823e-003 -4.91869962e-003 1.85106397e-002 1.80676579e-002
    -6.35151286e-003 1.77092897e-003 -3.75119317e-003 3.40596610e-003
    -2.26025330e-003 2.01043044e-003 2.06154375e-003 1.68874096e-002
    -3.13768093e-003 -4.64158831e-003 -3.95699590e-003 -3.29557573e-003
    -2.51772767e-003 -3.52395768e-003 -3.34534049e-003 -4.72952193e-003
    4.31889016e-003 3.95955285e-003 -8.80803820e-003 -4.48682951e-003
    -5.52557269e-003 -1.46472928e-004 -3.72207933e-003 1.49658357e-003
    -1.21281156e-003 1.13361969e-003 -1.58412126e-003 -5.97178144e-003
    -4.69134375e-003 -4.13391460e-003 -1.18453149e-003 -7.57738622e-003
    -3.02796229e-003 -5.64223556e-005 1.37405610e-002 1.63366552e-002
    -6.24710787e-003 -4.22518281e-003 -6.39356440e-003 -1.65028300e-003
    -4.72800806e-003 1.34270045e-003 -1.46740384e-003 -1.62941089e-003
    7.35332211e-003 2.01855507e-003 -2.82839662e-003 3.74762272e-003
    4.35275957e-003 5.02306561e-004 -2.23929458e-003 -4.82766004e-003
    1.46666663e-002 1.29233804e-002 -6.17715996e-003 -9.17024736e-004
    -1.19447871e-003 2.62594433e-003 -2.00286694e-003 6.11927477e-004
    -3.32884653e-003 9.63402726e-003 1.29809948e-002 1.58109199e-002
    1.88233051e-002 2.29706969e-002 1.73077099e-002 1.16392709e-002
    3.72398784e-003 2.22341414e-003 2.23459471e-002 2.00700331e-002
    -8.58718809e-003 -6.21864758e-003 -5.66202728e-003 -7.82806543e-004
    -6.37637160e-004 -1.66942726e-003 -4.73957229e-003 8.68654158e-003
    -6.18049502e-003 -4.17609280e-003 -3.92412022e-003 -6.46773586e-003
    -7.23193120e-003 -1.01638725e-002 -8.20557401e-003 -9.31089919e-004
    -2.32895673e-003 -1.23198715e-003 -6.30335975e-003 -4.39867144e-003
    -4.61689662e-003 -2.76078354e-003 -2.78360373e-003 -2.31402251e-003
    -5.00458898e-003 -5.13091404e-003 6.35743979e-003 5.54365711e-003
    1.00799082e-002 7.58962287e-003 1.77988457e-003 -3.31571209e-003
    -2.92106788e-003 -1.70618831e-003 5.40128094e-004 -2.27472186e-003
    -5.10932039e-003 -4.78385156e-003 -4.94851731e-003 -3.37803201e-003
    -3.07643460e-003 -5.49702812e-003 -7.62763247e-003 1.19052257e-003
    7.24540371e-003 1.15503334e-002 1.81626659e-002 2.03802250e-002
    1.21055441e-002 5.73802786e-003 -1.13055087e-003 3.59707233e-003
    8.33669852e-004 -2.77309795e-003 -7.16907298e-003 -7.59243546e-003
    -7.28903385e-003 -3.70405591e-003 -6.75663236e-004 -4.33032168e-003
    -7.56740896e-003 -1.11861830e-003 1.51345171e-002 2.26827655e-002
    3.02920863e-002 3.18460427e-002 3.24553475e-002 1.37324901e-002
    6.15854608e-003 7.93127902e-003 5.42532839e-003 1.62176625e-003
    -7.12467544e-003 -6.69780420e-003 -5.08675724e-003 -3.12487129e-003
    1.22331156e-004 -2.14327755e-003 -6.20922307e-003 1.06375413e-002
    -3.89204337e-003 -8.77312571e-003 -8.03326257e-003 -6.27354207e-003
    -1.86345505e-003 -4.78575425e-003 9.34161711e-004 -2.51423731e-003
    -5.63590147e-004 -4.69367282e-004 -6.35115150e-003 -3.58153344e-003
    -4.11005877e-003 -1.33923185e-003 -5.12098614e-003 -2.33246572e-003
    -6.64984109e-003 -3.56185297e-003 1.52987766e-003 -3.96987144e-003
    -2.90679326e-003 4.04763501e-003 9.01981164e-003 6.04323950e-003
    4.39600972e-003 6.67819171e-004 3.07120057e-003 1.76660507e-003
    -2.12415471e-003 -6.31942821e-004 -2.60113366e-003 -5.60582266e-004
    -3.91670736e-003 -9.00114130e-004 -5.97148808e-003 1.06674526e-003
    1.61805805e-002 4.51228349e-003 1.59722306e-002 1.87947452e-002
    6.26813155e-003 1.67611917e-003 2.33865832e-003 -6.67048618e-004
    -1.42144941e-004 -8.09350982e-004 -6.50263252e-003 -5.32246800e-003
    -4.83510969e-003 -5.82504366e-003 -4.82107745e-003 -5.29699912e-003
    -7.56021496e-003 1.29897604e-002 1.48327481e-002 1.80662293e-002
    2.23131943e-002 2.74655279e-002 2.52649169e-002 1.96544416e-002
    8.09543859e-003 6.52097678e-003 3.12414765e-003 1.13487057e-003
    -6.32114417e-004 -1.30633160e-003 -1.80458813e-003 -5.79897035e-003
    -1.92475866e-003 -6.29535993e-004 -4.98207193e-003 1.05150407e-002
    -3.23340716e-003 8.96462006e-004 2.79702619e-003 1.07741440e-002
    6.13961322e-003 2.86645372e-003 -1.31115760e-003 -3.16067599e-003
    -9.63881426e-003 -1.08672678e-002 -4.30549681e-003 -2.73105898e-003
    -4.36939439e-003 -3.13179125e-003 -3.68748535e-003 -4.39853594e-003
    -7.38825276e-003 -7.31091155e-003 2.49972125e-003 1.01495050e-002
    2.38781925e-002 2.99692936e-002 1.92165952e-002 3.66446422e-003
    2.93456047e-004 -1.91736454e-003 -7.07034906e-003 -1.05253840e-002
    -8.56566522e-003 -9.04465094e-003 -1.02639413e-002 -6.67161169e-003
    -3.87447095e-003 -4.74735815e-003 -7.83430226e-003 -4.95102443e-003
    3.07098101e-003 8.04546755e-003 2.33846903e-002 3.08217239e-002
    1.91991571e-002 1.02651287e-002 1.33216253e-003 3.83540144e-004
    -1.26142893e-002 -1.54840481e-002 -3.66164697e-003 -4.19270853e-003
    -6.03160774e-003 -6.12131972e-003 -2.55777547e-003 -3.88891296e-003
    -5.17248409e-003 -5.03840810e-003 3.06631252e-003 2.19762139e-002
    3.70977856e-002 3.85921337e-002 3.61971930e-002 1.24065718e-002
    4.45137871e-003 -4.10766428e-004 -1.80259123e-002 -2.03477144e-002
    -9.33730416e-003 -1.02157323e-002 -1.12030059e-002 -4.95361909e-003
    -2.53557204e-003 3.63219297e-004 3.33395205e-004 -1.04771433e-002
    2.87402258e-003 1.35641638e-002 2.65651718e-002 2.84224004e-002
    2.37169024e-002 7.30298366e-003 -2.70617916e-003 4.19140980e-003
    -1.28232623e-002 -1.83200445e-002 -9.81381536e-003 -8.26893002e-003
    -9.94587038e-003 -6.32824376e-003 -2.61708954e-003 -3.85225378e-003
    -5.43577317e-003 -3.09944805e-003 1.44445291e-003 1.09348837e-002
    2.94441581e-002 2.72968058e-002 2.66261715e-002 1.00118956e-002
    1.94729760e-003 3.86728067e-003 -5.18293492e-003 -8.93056393e-003
    -7.72748096e-003 -5.74480649e-003 -5.77819580e-003 -3.39609897e-003
    -1.69366272e-003 -3.06015601e-003 -4.81492560e-003 -1.50660658e-003
    -8.57871119e-003 1.42529830e-002 2.86107454e-002 3.24474461e-002
    2.80808862e-002 5.79964789e-003 9.43774357e-004 -6.82302052e-004
    -1.59713253e-002 -2.08350308e-002 -1.21197002e-002 -9.35850199e-003
    -9.44766589e-003 -6.66671712e-003 -2.86761206e-004 1.93219585e-003
    9.63551516e-004 -1.23904487e-002 -1.20687140e-002 4.27639810e-003
    1.72806401e-002 1.83510911e-002 1.64253172e-002 6.40047109e-003
    -3.16826408e-005 1.52145280e-003 -1.27544310e-002 -1.39273647e-002
    -6.31752051e-003 -4.48215753e-003 -5.33113303e-003 -3.49050341e-003
    7.54429202e-005 -5.49614546e-004 -3.48065025e-003 -8.70797317e-003
    -1.00120706e-004 3.26518877e-003 2.09122710e-002 2.44129859e-002
    1.08416928e-002 2.17294926e-003 -4.40640084e-004 2.62501789e-003
    -6.19468698e-003 -8.44409317e-003 -7.67755602e-003 -4.85143624e-003
    -7.34967785e-003 -7.39613129e-003 -5.80385327e-003 -6.19609747e-003
    -7.01632723e-003 1.26864202e-003 3.03390692e-003 4.16471390e-003
    2.39278246e-002 2.42809337e-002 1.68385878e-002 6.14904333e-003
    -2.16789660e-003 9.12814576e-004 -9.77480225e-003 -1.02526061e-002
    -3.54034128e-003 -3.28348204e-003 -6.46666251e-003 -6.24596374e-003
    -4.23160614e-003 -5.38285170e-003 -6.29141415e-003 1.28941191e-003
    -4.89752041e-003 -3.03130597e-004 2.47889142e-002 2.60320492e-002
    2.06961501e-002 4.33044741e-003 3.38488212e-003 6.26338087e-003
    -8.83255445e-004 -3.01287929e-003 -3.87473335e-003 -4.06330964e-003
    -5.07253921e-003 -1.65134028e-003 -4.73298226e-003 -5.83449472e-003
    -5.82948513e-003 -3.23281856e-003 -3.91742168e-003 -3.26055684e-004
    1.80463791e-002 1.85187533e-002 1.95796471e-002 8.06934480e-003
    1.51494972e-003 1.51551876e-003 -5.63809229e-003 -7.57466489e-003
    -4.08102991e-003 -5.20569785e-003 -6.90854341e-003 -2.29141908e-003
    -2.82935658e-003 -3.59011046e-003 -5.48611442e-003 -5.43590775e-003
    4.14611120e-003 6.72799582e-003 2.47742254e-002 2.81932205e-002
    2.52019595e-002 8.99800472e-003 -6.12397344e-005 1.74196705e-003
    -4.77534160e-003 -6.45227311e-003 -3.15343379e-003 -3.81822465e-003
    -4.85568540e-003 -2.42605968e-003 -1.12906017e-003 -5.44461934e-003
    -1.59130234e-003 2.20014784e-003 1.64050586e-003 1.06640421e-002
    2.85275914e-002 3.28301191e-002 2.68437117e-002 5.87709760e-003
    1.68472552e-003 -4.28991567e-004 -1.39523884e-002 -1.62660964e-002
    -7.08308071e-003 -6.75615249e-003 -8.23274814e-003 -6.29087817e-003
    -3.65549768e-003 -1.99782895e-003 3.43082147e-003 -2.33874074e-003
    -3.13611072e-003 -6.16286276e-003 1.02948816e-002 1.79880988e-002
    1.79532636e-002 1.16586580e-003 -1.97200314e-003 -1.45596359e-003
    -1.95412803e-003 -2.61841947e-003 -3.08334013e-003 -6.21293299e-003
    -5.91843948e-003 -2.93156621e-003 -2.83606886e-003 -3.33996164e-003
    -3.32450075e-003 -2.64225295e-003 -7.49336975e-003 -7.76198646e-003
    6.56019989e-003 8.80393572e-003 1.02031827e-002 -4.41026787e-004
    6.30521565e-004 1.84013823e-003 -7.74400076e-003 -7.46865477e-003
    -3.99893476e-003 -6.95478544e-003 -4.46606521e-003 -4.88611264e-003
    -3.92729742e-003 -3.97308636e-003 -1.80429837e-003 -5.31782955e-003
    4.95863496e-004 9.52218100e-003 1.94074195e-002 2.65714917e-002
    2.31946688e-002 5.03629865e-003 5.62796136e-003 -1.91426696e-003
    7.86526536e-004 2.86944909e-004 -1.74269918e-003 -3.19714076e-003
    -4.86359512e-003 -4.72412212e-003 -1.64502853e-004 5.36937593e-003
    6.19497523e-003 -1.44869764e-003 -5.44362655e-003 -5.73600084e-003
    6.62649469e-003 9.71366931e-003 7.60563463e-003 3.44410469e-003
    1.58382836e-003 1.62178825e-003 8.98999069e-003 9.00850352e-003
    3.07089998e-003 1.95801747e-003 2.92714103e-004 -1.99871790e-003
    1.26148667e-003 3.95431090e-003 1.29808229e-003 1.38366842e-004
    -8.18658061e-003 -6.87786285e-003 5.49272355e-003 4.44776285e-003
    2.32038088e-003 -6.86043501e-003 8.60574073e-004 -1.84473384e-003
    4.59333463e-003 8.03712569e-003 1.58728886e-004 -2.53517320e-003
    -2.97742337e-003 -5.42390335e-004 -1.39445066e-003 2.24743868e-004
    -8.70939868e-004 -7.64781469e-003 -1.06981974e-002 -1.18178939e-002
    -5.08116558e-003 -4.68680961e-003 -8.68276879e-003 -9.78846941e-003
    -5.83492499e-003 -6.41064486e-003 8.75152554e-003 1.29608950e-002
    3.38210678e-003 1.71030202e-004 -1.57064619e-003 -1.59502582e-004
    -1.35849079e-003 -1.81704003e-004 -2.63309642e-003 -1.13062523e-002
    4.84997407e-003 6.78092195e-003 2.32612845e-002 2.56745014e-002
    2.46806182e-002 7.24831410e-003 8.99130479e-003 6.57017669e-003
    9.25309956e-003 9.73161031e-003 -1.28518313e-003 -2.01989617e-003
    -3.03655188e-003 1.44622219e-003 -1.11629069e-003 -4.67705168e-003
    -1.81433198e-003 7.16748647e-003 8.21389840e-004 -2.80126603e-003
    1.56091107e-002 1.62129551e-002 2.15961765e-002 5.73983323e-003
    4.01816517e-003 1.87400484e-003 1.36353506e-003 -1.62264495e-003
    -4.62595653e-003 -4.04023938e-003 -3.78586166e-003 1.05981526e-004
    2.41845919e-004 -3.59525927e-003 -3.54090962e-003 1.43158133e-003
    -4.52092849e-003 1.34559663e-003 8.70534591e-003 1.21111041e-002
    1.51646640e-002 -5.00315847e-003 -3.87644931e-003 -1.22072548e-003
    2.70002265e-003 2.03290512e-003 -5.91999013e-003 -4.64668404e-003
    -6.17971644e-003 -4.67440207e-003 -4.87909932e-003 -5.82482386e-003
    -7.03849085e-003 -3.39215808e-003 8.72844248e-004 -5.72408829e-003
    4.15213918e-003 2.80933827e-003 5.49254939e-003 -7.42757507e-003
    -5.36408368e-003 -8.60239659e-003 -2.15652003e-003 -4.84383013e-003
    -8.34459439e-003 -5.57509065e-003 -7.58705335e-003 -1.45535730e-003
    -4.66327881e-003 -9.09794215e-003 -1.03089912e-002 3.54082999e-003
    5.53358300e-003 -5.04996767e-003 1.03546074e-002 1.04293916e-002
    1.58831440e-002 4.35397774e-003 2.54010968e-003 1.18574523e-003
    4.36540134e-003 1.35274616e-003 -3.41629400e-003 -2.91615655e-003
    -3.53315030e-003 -2.29292875e-003 7.70561805e-004 -2.20168498e-003
    -6.44936634e-004 7.70844053e-003 -5.07795252e-003 -6.05971459e-003
    7.31890043e-003 4.42421529e-003 7.61805801e-003 -1.35349703e-003
    5.85621642e-003 2.91466573e-003 1.02422358e-002 1.01009523e-002
    -1.95063383e-003 -1.42054982e-003 -2.04216712e-003 -3.93174263e-003
    9.22781182e-004 -2.47143535e-003 -5.29962475e-004 6.26004883e-004
    3.74224246e-003 -2.15210626e-003 7.11997924e-003 -2.29822658e-003
    1.52891234e-003 -2.25060736e-003 -1.11201976e-003 -7.46018440e-003
    5.06519154e-003 3.04597104e-003 -6.09992445e-003 -1.53042807e-003
    -3.83861060e-003 -7.69353239e-004 -2.45839474e-003 -7.34397490e-003
    -4.36208677e-003 9.02070478e-003 2.51164520e-003 1.68938946e-003
    8.89613014e-003 -5.69519005e-004 6.63115876e-004 2.60028406e-003
    6.31385250e-003 -1.36206427e-003 1.39056640e-002 1.30676758e-002
    -5.16467774e-003 -2.68833339e-003 -2.85919709e-003 -3.72786354e-003
    -5.11668809e-003 -5.40127745e-003 -1.32909324e-003 6.84618903e-003
    -6.83107134e-003 -5.39626367e-003 3.10181919e-003 -1.10126240e-003
    -4.53913165e-003 -8.25250894e-003 1.50322029e-003 -2.62102066e-003
    1.00517804e-002 1.08605921e-002 -2.20324215e-003 -1.48302224e-003
    -2.42711720e-003 1.37319192e-004 9.03634704e-004 -1.53308065e-004
    -3.17698321e-003 -3.88620631e-003 -6.78236131e-003 -5.92321530e-003
    -3.20443581e-003 -5.08714328e-003 -1.04764439e-002 -9.35042836e-003
    -6.29180158e-003 -5.06439852e-003 1.47583820e-002 1.69735625e-002
    -1.24607919e-004 -1.02720712e-003 -1.94268301e-003 2.47955834e-003
    1.42696872e-003 4.93245141e-004 -4.78607789e-003 -8.51343758e-003
    1.64943580e-002 3.38766957e-003 5.65961376e-003 3.98781337e-003
    1.64709997e-003 -3.47600924e-003 -1.44824560e-003 -3.15779843e-003
    1.47648426e-002 1.29623944e-002 -8.19538813e-003 -7.03213876e-003
    -6.69448404e-003 -7.69517664e-003 -4.01435327e-003 -3.74139682e-003
    -2.52350257e-003 1.70577094e-002 2.17514932e-002 7.11262226e-003
    2.79826601e-003 -1.18562346e-003 -3.04185995e-003 -4.64533595e-003
    -9.66695137e-003 -8.54123384e-003 1.31875314e-002 1.19217485e-002
    -1.18651232e-002 -6.98310696e-003 -7.40572624e-003 -3.28163127e-003
    -4.19866992e-003 -5.08710695e-003 -6.79820403e-003 2.00255550e-002
    7.64681865e-003 2.38141627e-003 5.08562569e-003 5.30294795e-003
    7.40334997e-003 -4.49775159e-003 -2.23063072e-003 1.97192698e-004
    1.60711333e-002 1.51064591e-002 -1.36264018e-003 -2.28210213e-003
    -2.75920192e-003 1.00066711e-003 -8.60265980e-004 -1.18616445e-003
    -4.63861832e-003 5.93570806e-003 1.07659753e-002 -3.77789070e-003
    3.59986303e-003 2.15773750e-003 2.13338248e-003 -8.47793836e-003
    -6.83013769e-003 -7.28747342e-003 2.98816804e-003 3.72690149e-003
    -3.44343786e-003 -1.63787801e-003 -2.54274695e-003 1.00043995e-004
    -1.09457003e-003 -3.28962528e-003 -6.87468564e-003 1.17662689e-002
    -7.94553431e-004 -6.78512687e-003 -2.40437826e-003 -3.58453440e-003
    -7.62284826e-003 -4.06740978e-003 -4.02285997e-003 -4.04532347e-003
    1.12210903e-002 1.22674191e-002 -1.20739815e-005 3.72189004e-003
    -2.13023042e-003 4.48344788e-003 -6.85965817e-004 2.65603373e-003
    -1.14464643e-003 3.27056414e-003 6.03922876e-003 -8.74591433e-003
    -6.38743863e-004 -2.64386460e-003 -2.62775738e-003 -3.38970940e-003
    -6.13750238e-003 -9.38762818e-003 7.18548661e-003 1.03742387e-002
    -3.21847131e-003 1.10988854e-003 -1.80814147e-003 7.84284319e-004
    3.33928270e-004 8.93677643e-004 -4.21358226e-003 7.82846380e-003
    8.93662218e-003 -8.11200240e-004 3.99138639e-003 -2.63432553e-003
    2.14435672e-003 -5.93278650e-003 -4.94170934e-003 -8.61875713e-003
    4.23767790e-003 4.07299353e-003 -3.68061126e-003 -7.32766712e-005
    3.91750393e-004 3.00745969e-003 -1.52926659e-004 -2.14149430e-003
    -2.88388622e-003 1.13351317e-002 9.00589488e-003 4.54942277e-003
    1.01714451e-002 3.37411952e-003 5.35841798e-003 2.70207250e-003
    3.47939483e-003 6.69124493e-005 1.52197443e-002 1.48591995e-002
    -3.79098486e-003 -1.51227310e-003 1.31387240e-003 8.72894423e-004
    -3.15390382e-004 9.22524254e-004 4.03355923e-004 9.77688748e-003
    7.26339594e-003 -1.79691706e-003 -7.26328522e-004 -1.52533979e-003
    3.71891703e-003 -5.92685305e-003 -5.73159102e-003 -7.65937800e-003
    -8.36054329e-004 4.05139290e-003 -2.96337414e-003 -1.35096489e-003
    -3.20561288e-004 -7.06088380e-004 2.03524571e-004 8.49977805e-005
    -5.03058638e-003 6.68985350e-003 1.59253553e-002 3.94004490e-003
    3.89999291e-003 4.18715470e-004 4.00720257e-003 -1.15954434e-003
    -4.94232750e-004 1.05072325e-003 6.12223381e-003 6.91492716e-003
    -6.52054744e-003 1.62119279e-004 -2.32748716e-004 -5.59780421e-003
    1.55081332e-004 3.65049555e-003 -1.45716802e-003 1.48527687e-002
    1.94268692e-002 2.46012188e-003 4.54873918e-003 1.63900200e-003
    -3.91440524e-004 -1.61246397e-003 -1.92358391e-003 -1.31040148e-003
    8.70371424e-003 7.46153342e-003 -4.69997106e-003 -2.07551243e-003
    -2.00562854e-003 -2.87799630e-003 -1.67671498e-003 -4.97977424e-004
    -1.96220796e-003 1.59012601e-002 2.23453529e-002 5.76972542e-003
    2.58448534e-003 -3.22889024e-003 -2.36897101e-003 -3.31256073e-003
    -1.09746493e-002 -7.55189871e-003 6.28930191e-003 4.38805111e-003
    -9.88457911e-003 -1.27489062e-003 -3.37281567e-003 -2.68111308e-003
    -3.36845894e-003 -3.65439313e-003 -1.72679371e-003 2.01612208e-002
    1.18747298e-002 -1.29073649e-003 1.46035932e-003 -3.61995585e-003
    -6.20402116e-003 -4.15248051e-003 -6.05137786e-003 6.15641882e-004
    5.83671317e-005 2.86620721e-004 -3.09646921e-003 3.95841664e-003
    6.63614541e-004 -3.15443845e-003 -4.48619190e-004 2.05796910e-003
    3.11839074e-004 1.33694820e-002 1.06053995e-002 2.16830475e-003
    4.27808845e-003 -1.28222408e-003 5.27502829e-003 -4.08581970e-003
    -1.12282559e-002 -7.60638574e-003 3.59613122e-003 4.31580702e-003
    -2.43792636e-003 9.75934509e-003 3.14507633e-003 7.91591447e-005
    1.03537471e-003 2.49768142e-003 3.49297072e-003 1.56841669e-002
    1.40700559e-003 -6.97254343e-003 -4.20255587e-003 -5.00068767e-003
    -6.70964830e-003 -6.09668111e-003 -5.67264715e-003 -4.15641628e-003
    1.11674406e-002 1.30535299e-002 -3.25286342e-003 2.62541859e-003
    -1.26883038e-003 5.45940641e-003 2.45426828e-003 4.97588003e-003
    5.94026363e-003 5.04622189e-003 3.87506164e-003 -9.27862525e-003
    -5.24258334e-003 -5.50036924e-003 -1.63847802e-003 -1.82935421e-003
    -3.38499341e-003 -3.76351457e-003 7.95556046e-003 1.08667798e-002
    -4.31885663e-003 6.87444292e-004 -2.24292185e-003 -1.33987167e-003
    1.47697679e-003 4.54071956e-003 1.53835420e-003 7.82733969e-003
    2.84655462e-003 -4.71334532e-003 -7.51828775e-003 -3.45701771e-003
    -1.39109301e-003 -5.05719706e-003 -4.16220573e-004 -3.30601516e-003
    1.79172978e-002 1.71186943e-002 -7.83783267e-004 6.37829653e-004
    -5.48708194e-004 8.57618172e-004 6.53786166e-003 3.71050346e-003
    4.52759350e-003 6.79731043e-003 1.25815731e-003 -6.96247164e-003
    -1.04535902e-002 -8.47405382e-003 -5.47779305e-003 -9.74755827e-003
    -5.85264573e-003 -3.49271600e-003 3.69657041e-003 2.87461840e-003
    -7.11150141e-003 -3.85516236e-004 -3.19268112e-003 -4.09528986e-003
    -1.06999173e-003 6.30093366e-003 1.43343059e-003 5.78130502e-003
    2.95737828e-003 -4.31360351e-003 -2.19656550e-003 -3.10981274e-003
    5.92492567e-003 -1.21786143e-003 -2.96989339e-003 -2.03525624e-003
    4.39162320e-003 6.64733956e-003 -5.07086690e-004 -8.19039356e-004
    -3.10636684e-003 -2.10918044e-003 1.07699144e-003 2.91249529e-003
    1.69558392e-004 3.87292006e-003 1.21414373e-002 -2.30987812e-003
    -6.86598767e-004 -1.46247772e-003 -3.26636982e-005 -2.24830047e-003
    -5.83012705e-004 1.84957730e-003 1.24214562e-002 1.13427835e-002
    6.21831059e-005 4.00857348e-003 2.80377478e-003 -4.68191894e-004
    1.06109271e-003 1.71882706e-003 -6.09170995e-004 1.43829212e-002
    1.87888544e-003 -8.66190996e-003 -6.26068143e-003 -6.86454633e-003
    -5.90848783e-003 -1.06552066e-002 -8.49519484e-003 -1.62057357e-003
    4.68609529e-003 8.94543424e-004 -6.86754240e-004 -4.01829107e-004
    -5.73737361e-003 -4.93920175e-003 -3.41423484e-003 4.20283945e-003
    5.66127058e-003 5.45265200e-003 1.21042049e-002 -8.82901810e-003
    8.92565760e-004 2.46974453e-003 4.15020669e-003 -1.59730925e-003
    -1.03487051e-003 7.25058652e-003 1.85986403e-002 1.89777818e-002
    6.47766329e-003 1.02819540e-002 3.91575135e-003 5.54173533e-003
    7.87151570e-004 1.99126406e-003 8.43836088e-003 1.50301280e-002
    -6.45916094e-004 -6.30383985e-003 -2.29752599e-003 -7.14703463e-003
    -6.03622943e-003 -8.01162887e-003 -6.65204693e-003 -2.09894241e-003
    -1.21554071e-002 -1.15955286e-002 -1.38155615e-003 2.07576435e-003
    7.68389204e-004 -2.80659436e-003 -2.42843898e-003 -1.58729733e-006
    -3.15694459e-004 3.18028848e-003 1.41611660e-003 9.69891669e-004
    7.46928295e-003 1.09560490e-002 2.35130675e-002 -1.88268209e-003
    -9.14968830e-003 -9.95548442e-003 -1.51054673e-002 -1.24863386e-002
    -2.74439179e-003 3.06681427e-003 5.42750233e-004 -2.17161956e-003
    -1.11782947e-003 1.40773132e-004 3.26277106e-003 5.90025866e-003
    -4.66673076e-003 -6.29035756e-003 1.76154834e-003 6.80953730e-003
    1.32844169e-002 2.91300216e-003 -1.10887981e-003 5.64722723e-005
    1.27549190e-003 -1.37921830e-003 1.44459307e-003 2.69873720e-003
    -2.45675119e-003 -2.81653949e-003 -2.69085728e-003 6.05661713e-004
    1.94581528e-003 -2.72370339e-003 5.45231393e-004 6.11219788e-003
    2.45888568e-002 4.28297333e-002 4.19282094e-002 2.99913939e-002
    9.15636029e-003 3.24769923e-003 -3.20876483e-003 -3.68669326e-003
    3.11576016e-003 -9.71292087e-004 -1.12627028e-003 -2.67897802e-003
    -2.96024373e-003 -1.23541497e-004 1.55208120e-003 2.33962550e-003
    -1.05015922e+000</SVMDetector></HOG_Detector>
</opencv_storage>
