<?xml version="1.0"?>
<opencv_storage>
<my_svm type_id="opencv-ml-svm">
  <svm_type>C_SVC</svm_type>
  <kernel><type>LINEAR</type></kernel>
  <C>1.0000000000000000e-002</C>
  <term_criteria><epsilon>1.1920928955078125e-007</epsilon>
    <iterations>2147483647</iterations></term_criteria>
  <var_all>9504</var_all>
  <var_count>9504</var_count>
  <class_count>2</class_count>
  <class_labels type_id="opencv-matrix">
    <rows>1</rows>
    <cols>2</cols>
    <dt>i</dt>
    <data>
      -1 1</data></class_labels>
  <sv_total>1</sv_total>
  <support_vectors>
    <_>
      -1.94905244e-003 -2.24942490e-002 -2.54952274e-002
      -2.06267647e-002 -2.19285656e-002 -1.29441712e-002
      -2.14636559e-003 5.57512278e-004 -1.09717427e-002 -1.21437665e-002
      7.81605020e-003 1.85514241e-002 1.58450734e-002 1.41530847e-002
      1.09731089e-002 2.23290529e-002 3.09070274e-002 1.55235566e-002
      -6.19193679e-003 -1.82474907e-002 -3.21072787e-002
      -2.22169291e-002 -2.44679525e-002 -8.22219439e-003 3.62621504e-003
      4.95087123e-003 -1.87919650e-003 4.37512482e-003 1.20042413e-002
      1.86904781e-002 6.63261907e-003 1.11296363e-002 2.14584433e-002
      2.90607996e-002 1.40619865e-002 -7.69368489e-004 1.38813176e-003
      -3.15991160e-003 -1.21537857e-002 -1.92051083e-002
      -1.46253314e-002 1.36834616e-003 1.56783650e-003 2.04753666e-003
      -8.28699733e-004 2.01090565e-003 8.83618463e-003 1.21784201e-002
      7.10848859e-003 8.65447149e-003 2.37172964e-004 1.33907627e-002
      1.77667551e-002 9.32463072e-003 -1.44936154e-002 -5.97655773e-003
      -8.99224542e-003 -7.44480593e-003 -1.66889746e-002 2.09726277e-003
      5.49453683e-003 2.09263712e-002 1.98514969e-003 1.16403550e-002
      1.84425451e-002 2.73070037e-002 1.41234472e-002 3.89211904e-003
      7.11877132e-003 1.98445860e-002 1.25804218e-002 -1.35899857e-002
      -1.00415992e-002 -2.60668863e-002 -2.99460907e-002
      -2.77306400e-002 -2.22032927e-002 -8.84313136e-003
      -5.65326121e-003 -7.04826834e-003 4.52184398e-003 -1.93669205e-003
      -1.22749910e-003 6.14497019e-003 1.48927700e-002 7.29302177e-003
      1.30965048e-002 2.90126372e-002 1.19226407e-002 -3.47031979e-004
      -1.40481647e-002 -2.20135916e-002 -2.29817182e-002
      -2.60879602e-002 2.99300067e-003 5.55928843e-003 8.61260481e-003
      1.93333849e-002 3.45197949e-003 -1.19981579e-002 -4.97919042e-004
      -9.14554950e-003 1.39473967e-004 -1.64422859e-002 1.04260128e-002
      1.68329682e-002 4.71108267e-003 -3.59569181e-004 -1.16462531e-002
      -1.69585515e-002 -7.87585042e-003 -1.20200645e-002
      -5.25240088e-003 7.70231523e-003 1.21310372e-002 8.41340981e-003
      -6.67288376e-004 7.00099976e-004 -1.22549094e-003 5.37035847e-003
      1.39100403e-002 1.05949445e-002 1.35464454e-002 1.43455798e-002
      2.01853346e-002 -1.97572610e-003 8.81886855e-003 3.49795842e-003
      -5.88415330e-003 -1.00362431e-002 1.56536531e-002 2.79007107e-002
      2.26787850e-002 2.35538967e-002 -6.97867665e-003 -8.90408363e-003
      -1.43527482e-002 -1.06129525e-002 1.69207323e-002 4.03456064e-003
      1.86117999e-002 1.25431325e-002 1.43482406e-002 1.00507932e-002
      -1.41522679e-002 -1.42097501e-002 -1.76734421e-002
      -1.47017669e-002 7.64926802e-003 5.56433387e-003 1.52517930e-002
      2.05619875e-002 -4.19859216e-003 -1.07943937e-002 4.67716530e-003
      -5.26978681e-003 -1.39781572e-002 -8.84398352e-003 1.05673745e-002
      1.74533837e-002 7.61663960e-003 -6.37362432e-003 -7.88598321e-003
      -2.19405182e-002 -1.09971864e-002 -4.48994013e-003 1.87966377e-002
      1.20823039e-002 1.67883206e-002 2.83670356e-003 1.95836416e-003
      -8.04208219e-003 -3.11341812e-003 -1.78777780e-002
      -2.59918422e-002 -9.56358388e-003 -1.03989504e-002 7.94608332e-003
      -4.51134006e-003 -6.32854877e-003 -4.99089574e-003 3.50403902e-003
      -1.28912693e-003 2.56276922e-003 1.78402476e-002 2.83664949e-002
      2.18950566e-002 3.36000770e-002 -3.64678283e-003 -7.98271410e-003
      6.85857981e-003 -1.51427375e-004 5.56338765e-003 3.48404259e-003
      2.56717149e-002 1.97354350e-002 1.69594288e-002 4.62333392e-003
      1.52239751e-003 -1.45754754e-003 4.42904280e-003 6.46412419e-003
      2.60542240e-002 2.05575470e-002 1.34531986e-002 1.77540425e-002
      -2.18575867e-003 -1.38950842e-002 -6.20055571e-003
      -1.39733972e-002 -7.13565154e-003 -9.91118606e-003 2.19573034e-004
      1.44567071e-002 1.89807583e-002 -5.59565006e-003 8.50867573e-003
      -9.77165881e-004 3.28534003e-003 1.58612821e-002 2.88007911e-002
      1.70327649e-002 1.97282117e-002 3.45383771e-003 1.10028759e-002
      -4.07284312e-003 3.38060287e-004 -1.26826996e-002 -1.82441473e-002
      -3.38949589e-003 -6.87241601e-003 7.21669244e-003 -4.83264728e-003
      5.60647296e-003 1.02762617e-002 1.83067601e-002 6.59599667e-003
      7.84010254e-003 1.13522410e-002 5.88809431e-004 -2.33051181e-003
      -4.01571067e-003 -1.72266979e-002 -1.81759503e-002
      -7.01681571e-003 -1.05375042e-002 -5.54418704e-003 4.10831533e-003
      -1.17841223e-003 4.70575964e-004 7.26113655e-003 3.23889847e-003
      1.11953830e-002 -9.97609895e-005 -8.88441503e-003 -1.49007735e-003
      2.99998932e-002 2.43471675e-002 2.07372103e-002 8.22089706e-003
      6.36542635e-003 -4.76649636e-003 -8.78054556e-003 -2.22175959e-002
      -1.41714020e-002 -1.20626083e-002 -1.11132227e-002 1.30939623e-002
      3.15538701e-003 2.59754877e-003 -1.43629767e-003 -1.57112826e-003
      -3.98545014e-003 -1.00978781e-002 1.37724848e-002 1.47326998e-002
      2.22478667e-003 -1.81836989e-002 -1.49646541e-002 -1.27961142e-002
      -5.31353336e-003 -1.81318540e-002 -2.42029577e-002
      -1.57985860e-003 1.99109991e-003 9.95332375e-003 1.43482292e-003
      -3.77705763e-003 1.93207583e-003 8.74193199e-003 1.43490185e-003
      -2.60435999e-003 -2.82943295e-003 -3.88129638e-003
      -7.06082396e-003 -1.05612399e-003 3.85736348e-004 -1.24089757e-003
      -1.51790620e-003 -3.85583215e-003 4.25040675e-003 1.27714016e-002
      1.08066117e-002 1.21524539e-002 8.23730882e-003 4.29970026e-003
      1.58479363e-002 9.76570044e-003 -5.01303421e-003 -4.35946822e-005
      5.05508017e-003 -4.80041280e-003 -3.55369295e-003 -1.78281274e-002
      1.17874693e-003 -1.54258078e-003 -2.12556459e-002 -2.03387178e-002
      -8.14479683e-003 1.30735291e-002 1.87068749e-002 1.94641259e-002
      7.58089731e-003 1.57029442e-002 -1.55743696e-002 -1.05050663e-002
      -1.10971667e-002 -1.82261020e-002 -8.27683881e-003
      -4.46368195e-003 3.75635130e-003 -1.06144715e-002 -4.19389829e-003
      7.65890768e-003 1.03712128e-002 7.28107872e-004 4.07132786e-003
      1.44863417e-002 1.38642220e-002 2.11305376e-002 1.73023157e-002
      5.22875134e-003 -1.21197919e-003 -1.31047806e-002 -1.80009883e-002
      -2.31311526e-002 -4.70311195e-003 -5.30296890e-003 6.66002184e-003
      -8.08658544e-003 -8.22059438e-003 1.80552881e-002 -1.02858176e-003
      -2.78321328e-003 5.49602322e-003 1.68247502e-002 1.40650384e-002
      1.00866733e-002 1.91872269e-002 1.42592853e-002 1.80477556e-002
      -6.03107316e-003 -2.57776324e-002 -3.51632293e-003
      -5.02504688e-003 -9.31966491e-003 3.81266279e-003 -1.43313026e-002
      -2.94561032e-003 -6.47914410e-003 -1.68555807e-002
      -2.02828739e-002 -1.40196388e-003 1.77001394e-002 9.40498244e-003
      1.12511124e-002 6.27797376e-003 1.97701175e-002 1.44707384e-002
      4.22369037e-003 -2.98830983e-003 3.49989044e-003 -4.06579114e-003
      -7.55540142e-003 7.45350681e-003 3.81196220e-003 -7.25919614e-003
      -9.78189148e-003 6.12476468e-003 -8.75073578e-003 9.89009067e-003
      3.00688595e-002 1.11904535e-002 -1.18789147e-003 3.89134791e-003
      1.39619624e-002 1.42777488e-002 -1.16027007e-002 -1.67327523e-002
      -2.19769273e-002 -2.99963285e-004 -9.43175983e-003 5.01790037e-003
      -5.29832020e-003 -6.29447540e-003 3.03810026e-004 -1.04311798e-002
      -1.67647228e-002 4.04130289e-004 1.38805890e-002 1.40708545e-002
      5.30705275e-003 7.85230100e-003 2.90074050e-002 2.19990220e-002
      6.12278702e-003 6.63826475e-003 -5.93446475e-003 3.88261327e-003
      -8.75711814e-003 -3.94391420e-004 1.20594045e-002 -1.28425993e-002
      -1.17060430e-002 -1.00038238e-002 -1.16679128e-002
      -1.81046734e-003 2.72893142e-002 1.45554487e-002 1.96210258e-002
      1.64460577e-002 2.58536767e-002 -5.29153831e-003 -1.21295650e-003
      -6.60894811e-003 -1.50612220e-002 -1.04228146e-002
      -1.56518389e-002 -6.16404554e-003 1.64158945e-003 -1.52630936e-002
      -1.97237320e-002 2.59677123e-004 -9.81079694e-003 -1.14421324e-004
      2.36807913e-002 1.56169077e-002 4.88770101e-003 4.60009836e-003
      4.39135544e-003 2.92586628e-003 -4.78543900e-003 -1.50828278e-002
      -1.84261911e-002 -2.45961989e-003 -1.25900551e-003 1.91983592e-003
      -4.98033408e-003 -9.55029856e-003 -6.22985791e-003
      -6.55015977e-003 -9.27841524e-004 -8.01790785e-003 1.53118018e-002
      1.32846171e-002 1.88289471e-002 1.74758136e-002 1.26588065e-002
      -8.20163824e-003 2.74865888e-003 1.23010781e-002 -4.24614316e-003
      -2.36649555e-003 -1.30550750e-002 -8.63452815e-003 7.85830338e-003
      -1.84141528e-002 -1.21406913e-002 -1.39805963e-002
      -9.19553917e-003 8.04701180e-004 2.53772698e-002 1.59687977e-002
      1.70510691e-002 2.72138277e-003 7.94687122e-003 9.16245393e-003
      1.06791807e-002 1.42597202e-002 1.53000411e-002 1.45856850e-002
      3.81355151e-003 5.19036176e-003 2.13238597e-003 -6.71533775e-003
      -3.33784497e-003 -1.82872936e-002 -2.14994280e-003
      -5.54082729e-003 1.14328833e-002 9.28108674e-003 1.10084480e-002
      5.70925605e-003 7.19638728e-003 -1.73105870e-003 -1.59683432e-002
      -2.09440049e-002 -1.61753576e-002 -9.76639241e-003
      -1.95471030e-002 -8.67529307e-003 -1.21169193e-002
      -7.88522325e-003 -3.74104595e-003 -6.69336063e-004 8.80272035e-003
      -2.48080981e-003 2.43698619e-003 2.13939487e-003 3.47695057e-003
      1.03090266e-002 5.57848904e-003 2.24177772e-003 -6.60508685e-003
      -2.55672936e-003 -4.12860606e-003 -1.52483704e-002
      -1.42205367e-002 1.79227383e-003 -5.59394062e-003 -9.90986172e-003
      -1.38523541e-002 1.54706091e-003 1.11982152e-002 1.07842619e-002
      7.33654620e-003 8.54445994e-003 5.30132698e-003 1.10663045e-002
      -3.07787303e-003 1.24035804e-002 -9.23976675e-003 -6.20986009e-003
      1.70563944e-002 6.49585808e-003 -1.13138771e-002 -9.57264332e-004
      -6.20375527e-003 8.24466627e-003 -3.38004623e-003 -1.22725293e-002
      1.25078624e-002 2.64896266e-003 9.17419791e-003 4.23744367e-003
      -1.39264553e-003 1.63772376e-003 1.22886605e-003 2.24683480e-003
      -1.15310261e-002 -1.68335550e-002 3.34215001e-003 1.01857530e-002
      -6.33703126e-003 9.88438819e-003 2.68613314e-003 3.00001097e-003
      1.12712779e-003 8.17637239e-003 2.03114767e-002 1.24500282e-002
      1.26890028e-002 2.67765182e-003 4.29395121e-003 1.34688281e-002
      -3.51285533e-004 7.68329343e-003 -5.22845471e-003 -4.29929094e-003
      -4.04911069e-003 -1.40252495e-002 -1.80705208e-002
      -1.43278753e-002 -1.58723705e-002 -1.62505936e-002
      -1.99132934e-002 -4.30941954e-003 -4.01996775e-003 1.28132273e-002
      1.11495024e-002 1.47477873e-002 1.03040989e-002 1.62668973e-002
      2.04412639e-002 1.79965105e-002 3.35069722e-003 8.00670777e-003
      -1.17398542e-003 4.71050013e-003 -3.50924954e-003 -5.77604631e-003
      -1.31580727e-002 -1.37235494e-002 -5.93951810e-003 1.02699511e-002
      7.75740389e-003 9.04598832e-003 2.15611067e-002 1.98241621e-002
      3.34403664e-002 3.02746501e-002 2.55806483e-002 1.26969330e-002
      -6.65909238e-003 -2.57604588e-002 -1.76831037e-002
      -7.87413958e-003 -1.26929237e-002 -9.38622979e-004
      -1.45291677e-003 2.71062064e-003 -6.47562090e-003 3.16633988e-004
      1.20475199e-002 3.85655835e-003 9.64369718e-003 9.48631298e-003
      1.40281962e-002 1.86535362e-002 1.84610132e-002 1.12686269e-002
      -2.27931095e-003 -1.09343706e-002 -1.36956358e-002
      -6.10848004e-003 -1.17975231e-002 7.52232154e-004 8.85791890e-003
      -2.35044467e-003 2.07689661e-003 1.29257543e-002 9.56983399e-003
      -1.04427934e-002 5.05693071e-003 2.14381609e-002 3.09421178e-002
      1.91930179e-002 2.29064953e-002 1.01568261e-002 1.85381190e-003
      1.28518548e-002 -5.50138252e-003 3.56893381e-003 -5.77589218e-003
      -3.19240498e-003 -6.68930821e-004 2.75203492e-003 1.12325111e-002
      5.70016913e-003 8.66415165e-003 -1.53203018e-003 2.21927417e-003
      1.58988958e-004 9.75416042e-003 3.58473044e-003 4.21996694e-003
      1.17367851e-002 7.13622663e-003 1.32016791e-002 -6.54972950e-003
      1.94186810e-003 -8.97970982e-003 -1.65176927e-003 -8.87624081e-003
      1.48382941e-002 2.21743435e-002 2.03203019e-002 1.68693438e-002
      1.98169332e-002 1.74447354e-002 3.51715740e-003 1.21423579e-003
      -1.17596565e-003 -1.56491261e-003 8.16973764e-003 -1.04254177e-002
      -8.75483640e-003 -1.63498167e-002 -5.41290361e-003
      -1.30192554e-002 -1.65537558e-002 -2.60659796e-003
      -1.36160944e-003 -6.61970000e-004 1.03778671e-003 -1.13473239e-003
      -1.80737432e-002 -1.21311853e-002 1.44845355e-004 -5.06912498e-003
      -1.14977676e-002 -2.86339899e-003 1.45669039e-002 -2.08736910e-003
      -4.44864249e-003 -1.84110980e-002 -1.53132144e-003
      -1.15674566e-002 -8.40107352e-003 -4.80874022e-003 1.20539935e-002
      6.54288614e-003 4.36243368e-003 2.03010021e-003 5.68884285e-003
      4.55088075e-003 -5.80565631e-003 -2.65998021e-002 -2.20906176e-002
      -2.28220574e-003 7.56454701e-003 3.48049187e-004 5.90544380e-003
      -3.57545610e-003 -6.88296510e-003 -1.18365167e-002
      -5.57047036e-003 -1.80572141e-002 -8.43378715e-003
      -5.62051032e-003 1.97687047e-003 6.64395886e-003 1.58730578e-002
      9.94052645e-003 -1.24974959e-002 -1.48915900e-002 -4.59183427e-003
      2.47637695e-003 1.17667941e-002 -1.94104319e-003 7.55317742e-003
      1.85227245e-002 -8.38330481e-004 3.32238758e-003 2.19515245e-002
      2.12526992e-002 4.29034047e-003 8.51070695e-003 1.79827493e-002
      2.90678814e-002 1.39955990e-002 2.67795782e-004 8.24840739e-004
      8.42544541e-004 5.09501295e-003 1.47491340e-002 -1.18848002e-002
      -2.45722886e-002 -2.75982618e-002 -2.23551765e-002
      -1.43706258e-002 -1.65493246e-002 -1.44050196e-002
      -7.70882471e-003 -5.54474955e-003 -2.27023233e-002
      -1.33538041e-002 -1.26790525e-002 -3.56799434e-003 4.19535255e-003
      -1.68298241e-002 -3.38482633e-002 -2.11414937e-002
      -1.45575041e-002 -7.04325503e-004 2.32238160e-003 -1.28566362e-002
      -6.94770180e-003 -8.52193311e-003 2.37437268e-003 1.18228979e-002
      6.02427218e-003 -1.74404832e-003 -7.16004428e-003 7.36218318e-003
      1.54077634e-002 8.40649568e-003 5.12751238e-003 -5.52318478e-003
      -2.61606649e-003 1.88409362e-003 1.13620539e-003 -1.36330808e-002
      -1.17012234e-002 1.20290555e-003 -6.61774888e-004 -3.29727004e-003
      -1.08192666e-002 -1.91162527e-003 1.03599345e-002 -9.11444833e-004
      -9.41617321e-003 8.78170505e-003 3.14404070e-002 1.01418719e-002
      -4.07924689e-003 1.17121534e-002 7.89228734e-003 5.34230052e-003
      -1.22724362e-002 -8.56703799e-003 4.64274734e-003 -9.86293308e-005
      -3.60494712e-003 1.67893071e-003 4.27381555e-003 -5.53621259e-003
      -1.07757351e-003 -1.96686517e-002 -2.98190359e-002 1.12855737e-003
      2.26761010e-002 1.21081024e-002 6.16523670e-003 1.93881337e-002
      7.16354372e-003 1.19752642e-002 -5.54458611e-003 -1.41995028e-002
      8.91125854e-003 -6.46075839e-003 -1.27765108e-002 -8.56991019e-003
      -3.78909078e-003 -7.35084526e-003 -5.50658163e-003
      -1.79287959e-002 -1.88915357e-002 -4.99401940e-003 1.49887595e-002
      3.15473508e-003 -7.29928585e-003 -1.23754027e-003 -1.36878586e-003
      4.58133360e-003 -1.28842816e-002 -4.53353906e-003 1.35105215e-002
      5.98097080e-003 4.63543972e-003 1.66859794e-002 1.18376482e-002
      1.35979173e-003 -1.78168993e-003 -2.69834865e-002 -2.94383820e-002
      -1.33616747e-002 1.08744809e-002 3.26495878e-002 1.30788106e-002
      1.64019689e-002 8.45511071e-003 1.02098631e-002 -8.27752799e-003
      -1.18472911e-002 -5.74259413e-003 1.56677049e-003 -1.10967606e-002
      -6.83006411e-003 -1.28830457e-002 -8.67961720e-003
      -6.06778823e-003 -8.14532023e-003 -1.19479466e-002
      -5.28500555e-003 1.05745532e-002 2.62179598e-003 3.89354955e-003
      3.95045849e-004 1.93600729e-003 -3.10795032e-003 -5.04907919e-003
      -1.79250799e-002 9.64106526e-003 1.38783716e-002 1.07415151e-002
      4.74746712e-003 4.00380976e-003 -1.14223536e-003 1.43400691e-002
      2.65383534e-003 -3.91311338e-003 -5.86059503e-003 1.00013539e-002
      1.86328962e-003 -5.99027006e-003 2.74751568e-003 -4.30210354e-003
      7.92053994e-003 -1.36129698e-002 8.02856311e-003 -3.16325529e-003
      -7.15073477e-003 9.14499350e-003 1.05479481e-002 1.23754423e-002
      9.16395523e-003 3.75649706e-003 -6.04665838e-003 -2.36625671e-002
      -1.20707387e-002 1.25157079e-002 3.36530455e-003 9.37886816e-003
      9.59075894e-003 2.08311025e-002 3.62580013e-003 1.13544418e-002
      -5.86729206e-004 1.44751836e-002 1.16303610e-003 1.75614674e-002
      1.48640964e-002 9.44774505e-003 1.00693125e-002 1.43208923e-002
      -1.18660908e-002 -1.78073458e-002 -1.49135236e-002
      -3.33564356e-004 -3.11918813e-003 -6.16924313e-004 1.14731099e-002
      5.30811492e-003 1.35831274e-002 2.61655636e-003 -1.34020243e-002
      -5.22248307e-003 7.51095498e-003 -2.37528700e-003 7.32125249e-003
      1.71752542e-003 4.80519608e-003 9.64263827e-003 1.10537556e-004
      -4.01628949e-003 -7.84850772e-003 5.13312407e-003 4.84379428e-003
      7.71639450e-003 1.62279028e-002 3.64850217e-004 1.79256741e-002
      -6.09362870e-003 5.10599045e-003 -2.49577593e-003 -6.39065029e-003
      -1.16047226e-002 1.24101201e-002 1.57182273e-002 1.50548955e-002
      7.86963198e-003 -2.16679964e-002 -1.97691098e-002 -1.16069838e-002
      -6.19079219e-003 -6.36944489e-004 8.26834585e-004 2.08808817e-002
      1.71209313e-002 1.58843696e-002 -6.72955939e-004 -5.38596231e-003
      5.75670041e-004 6.47061132e-003 7.51002040e-003 1.25901308e-002
      -1.72901480e-003 6.73936564e-004 6.52287481e-003 -2.40909792e-002
      -1.36472443e-002 -2.28469726e-003 3.69706075e-003 -1.13555277e-002
      -1.63735298e-003 1.76705942e-002 -2.30854307e-003 -3.12668068e-004
      -4.48116614e-003 2.05003843e-003 -8.04862939e-003 -5.94841223e-003
      -1.16813218e-003 1.14883911e-002 1.22557627e-002 6.81700464e-003
      -2.88326596e-003 -1.23990467e-002 -1.25803491e-002 1.22966024e-003
      -2.92054610e-003 -2.18984690e-002 2.90771760e-003 7.34491553e-003
      -6.59763487e-003 -1.36996172e-002 -3.18382704e-003
      -1.06999110e-002 -1.36200795e-002 -1.16313994e-002 7.34621717e-004
      3.12957936e-003 1.96229182e-002 1.07561601e-002 1.41769145e-002
      -6.24560844e-003 -3.25728417e-003 1.26068080e-002 4.82672080e-003
      4.15603770e-003 2.95242388e-003 2.40648594e-002 1.72702670e-002
      4.78698919e-003 -4.81978897e-003 -6.38896879e-003 -9.53608379e-003
      -1.50810247e-002 6.03431696e-003 1.95374829e-003 7.24386843e-003
      3.94635834e-003 1.33788818e-002 -1.43531617e-002 -1.81031716e-003
      1.98689406e-003 9.27707471e-004 1.08429568e-003 -4.58889361e-003
      9.33069363e-003 1.35217085e-002 1.18752606e-002 -5.96532831e-003
      -6.00898638e-003 -6.35235291e-003 1.55609602e-003 8.77804589e-003
      1.25963008e-002 1.58016887e-002 9.39654931e-003 6.49746042e-003
      1.10070556e-002 -6.01446303e-003 9.60663985e-003 7.85626937e-003
      -1.70088047e-003 -4.31100512e-003 -7.70331419e-004
      -5.46028791e-003 -1.73792765e-002 -1.39352782e-002 1.44037267e-003
      -5.92625374e-003 -1.25072757e-002 1.04885679e-002 -3.55444732e-003
      -3.41385254e-003 5.78020513e-003 1.26806917e-002 1.46494154e-003
      -6.06864691e-003 -4.52346355e-003 -6.64950674e-003
      -1.23769399e-002 -1.07606342e-002 -2.31200713e-004
      -4.32015222e-004 -4.88951337e-003 -8.39210395e-003 1.43528236e-002
      -7.15331116e-004 -1.63300745e-002 -1.87077804e-003 1.54098356e-002
      1.40403816e-002 7.83625618e-003 1.42094912e-002 -1.28385320e-004
      5.24064014e-003 5.12745045e-003 -8.65207892e-003 -1.25973476e-002
      -1.83498971e-002 4.58644796e-003 1.51117770e-002 6.61083637e-003
      8.49199016e-003 -8.62885732e-003 -7.26514775e-003 -1.34400316e-002
      -3.73347267e-003 1.29421856e-002 3.41191655e-003 8.97772610e-003
      -4.59248666e-003 6.04998553e-003 1.47563012e-004 2.79410114e-003
      -4.36141994e-003 -1.99995339e-002 -1.00998310e-002 8.38223379e-003
      1.45650059e-002 2.89561041e-003 -1.26472185e-003 4.28098021e-003
      -5.92283159e-003 -2.26616058e-002 1.23774295e-003 1.43525691e-003
      5.01102768e-003 3.22491373e-003 2.40793265e-002 1.25168543e-002
      1.40585303e-002 8.60446133e-003 8.00744072e-003 -1.05560403e-002
      -9.72346403e-003 1.26146590e-002 1.91506688e-002 1.98507216e-002
      2.76563112e-002 -1.53304162e-002 -2.90968008e-002 -4.60905805e-002
      -1.68520603e-002 -1.06282195e-003 -5.37441811e-004 5.59613109e-003
      1.69869792e-002 2.43994892e-002 1.18082482e-002 5.32779051e-003
      6.57528685e-003 -7.47406809e-003 -2.72847619e-003 1.29756322e-002
      2.39240602e-002 9.43893287e-003 8.78271088e-003 -3.90415080e-002
      -4.26819287e-002 -3.18811573e-002 -1.97131801e-002
      -5.42093068e-003 -1.82704255e-003 9.99375992e-003 -2.36120401e-003
      7.67115504e-003 1.96608417e-002 3.02905170e-003 -2.79204687e-004
      -9.14061908e-003 -2.25620857e-003 5.76114235e-003 1.14533985e-002
      6.10203110e-003 -5.77977719e-003 -2.44969968e-002 -4.30156142e-002
      -3.09905000e-002 -3.30177769e-002 -8.69588170e-004 3.39941168e-003
      1.29463905e-002 -1.88767549e-003 -1.00051342e-002 1.68705974e-002
      -2.68477201e-003 -2.68774922e-003 -4.77864500e-003 8.79839528e-003
      -2.60214461e-003 4.32232424e-004 8.18881579e-003 -2.84932717e-003
      -2.14939658e-002 -5.90896569e-002 -5.49725965e-002
      -9.80448071e-003 4.87125944e-003 3.86099098e-004 1.87591650e-002
      2.51780488e-002 2.07534153e-002 1.85705628e-002 2.89282203e-003
      9.71604697e-003 -4.64677345e-003 -1.92173873e-003 1.02701271e-002
      1.00139668e-002 1.13955066e-002 7.43172271e-003 -5.34649240e-003
      -2.03888603e-002 -2.24956423e-002 4.50940849e-003 1.73870251e-002
      1.59336347e-002 2.94738710e-002 3.11704911e-002 1.03805745e-002
      2.38352045e-002 1.09776445e-002 9.01545025e-003 -3.09154950e-003
      6.29079947e-003 5.85117552e-004 3.82487476e-003 1.51109910e-002
      1.89258754e-002 -3.67161930e-002 -5.41592985e-002 -4.21419479e-002
      -4.41443175e-002 -9.14237276e-003 -1.26209315e-002
      -7.32767908e-003 -1.19787939e-002 -3.01899854e-002
      -3.20894015e-003 -1.71231348e-002 -1.28791509e-002
      -1.57291200e-002 1.86805497e-003 -9.66069009e-003 -1.29311271e-002
      -1.15274237e-002 -1.32200522e-002 -2.34509837e-002
      -3.87557484e-002 -2.96581294e-002 -3.49852927e-002
      -9.62685607e-003 -9.15676169e-003 -1.53550683e-002
      -1.21500967e-002 -2.41807867e-002 -1.63872652e-002
      -2.43100487e-002 -1.79667529e-002 -2.17147749e-002 9.11685079e-003
      -8.50777980e-003 5.27843973e-003 -8.50582961e-003 -1.84516627e-002
      -1.63054038e-002 -2.53745019e-002 -1.28617771e-002
      -1.17130773e-002 7.26743601e-003 6.35069422e-003 1.04650063e-002
      6.44934364e-003 -2.04295409e-003 1.94025245e-002 8.05457402e-003
      1.10722715e-002 8.56348034e-003 1.75850261e-002 8.82934139e-004
      6.55167364e-003 1.37237944e-002 4.73244954e-003 -1.87548362e-002
      -1.59094427e-002 -2.33755889e-003 -7.56669370e-003 1.66490655e-002
      2.06794553e-002 9.32919327e-003 1.11199562e-002 1.40200248e-002
      2.12567393e-002 1.69903915e-002 2.05506496e-002 1.93014722e-002
      3.25998813e-002 2.10216194e-002 2.94151623e-002 2.01242603e-002
      -1.69206169e-002 -3.28198709e-002 -3.75056639e-002
      -2.41829492e-002 -1.63884778e-002 3.11498297e-003 -9.10289586e-003
      -1.54393241e-002 -1.24406312e-002 -1.98109038e-002
      -1.25380447e-002 -2.29034796e-002 -1.82017684e-002
      -1.29604321e-002 6.39565382e-003 -6.10466255e-003 3.19120620e-004
      -2.32793856e-002 -3.39412130e-002 -2.26340853e-002
      -2.20676120e-002 -1.04868952e-002 8.18864035e-004 7.72612402e-003
      -1.74260256e-003 -1.57010299e-003 -9.40959156e-003
      -5.04063256e-003 -1.20143751e-002 -3.17938253e-002
      -1.06489630e-002 -1.78652778e-002 -1.21493544e-003
      -1.51882991e-002 -1.91932004e-002 -4.48872112e-002
      -3.53307836e-002 -2.41851415e-002 -2.09775027e-002
      -1.32230145e-003 7.09376717e-003 2.98020206e-002 2.99352780e-002
      1.82475019e-002 1.10482788e-002 2.05915384e-002 1.25248479e-002
      1.23347677e-002 1.37352403e-002 1.41640948e-002 2.62982007e-002
      2.66721640e-002 1.84041243e-002 -5.44734905e-003 -2.52593644e-002
      -2.85963193e-002 -2.45165434e-002 1.00509934e-002 1.83381382e-002
      3.05873565e-002 3.42540704e-002 2.92559285e-002 1.32130682e-002
      2.75018681e-002 1.73367877e-002 1.48960184e-002 1.51903089e-002
      7.75309373e-003 1.95746943e-002 7.59330764e-003 -9.98266623e-004
      -3.21962722e-002 -3.83056253e-002 -5.37266303e-003
      -1.49193704e-002 -9.18191113e-003 4.94802790e-003 9.30509903e-003
      -1.15965062e-003 1.41125894e-003 -5.28970361e-003 4.18798532e-003
      -1.04146572e-002 -1.96559932e-002 1.20753970e-003 -6.40458986e-003
      5.07958792e-003 -1.45349065e-002 -2.61093359e-002 -3.48790661e-002
      -2.26758178e-002 -4.19810181e-003 -1.59688108e-002
      -1.96753200e-002 -6.55956613e-003 1.49121555e-002 -7.74832536e-003
      -4.09149053e-003 -7.34294346e-003 9.05697327e-003 3.01197451e-003
      -3.45226168e-003 1.38103878e-002 1.11721084e-003 3.40288086e-003
      -1.69890057e-002 -3.08097173e-002 -1.48331020e-002
      -5.13846660e-003 -2.03309152e-002 -2.36113416e-003 2.05000080e-002
      1.89985875e-002 2.47019455e-002 2.52335817e-002 2.13047117e-002
      1.45385936e-002 2.16091350e-002 1.43681141e-002 1.11827664e-002
      2.03150213e-002 1.33998897e-002 5.69705339e-003 -9.19721741e-003
      -2.02483758e-002 -4.21366990e-002 -2.56548636e-002
      -1.23836230e-002 1.16537968e-002 1.50770759e-002 1.83389001e-002
      1.67454891e-002 6.85104867e-003 9.74153075e-003 8.88446625e-003
      1.65082086e-002 9.04812571e-003 2.26614857e-003 2.05402467e-002
      7.28565094e-004 5.73584298e-003 -2.17762962e-002 -4.08906639e-002
      -4.64504473e-002 -1.91332176e-002 1.40946014e-002 4.52252384e-003
      -1.35858636e-002 -1.53860971e-002 3.92466690e-003 -6.83049858e-003
      3.51726892e-003 -2.69341952e-004 1.31401047e-002 5.37167676e-003
      -1.07974969e-002 6.82870974e-004 -4.73520439e-003 -3.09849647e-003
      -1.03879860e-002 -1.37215555e-002 -2.81197135e-003 9.24026314e-003
      1.89279392e-002 1.33572202e-002 -1.38085959e-002 -1.84851363e-002
      -7.46912556e-003 -6.15292508e-003 -1.61205404e-004 1.31725799e-002
      1.46470368e-002 1.82782824e-003 9.69253597e-004 2.07820348e-003
      -1.66960284e-002 -1.05105732e-002 4.35970505e-005 -5.38645126e-003
      -5.06099453e-003 1.95372733e-003 8.22284073e-003 2.63493489e-002
      1.07893357e-002 9.14630853e-003 1.37909558e-002 -4.82699834e-003
      1.43185249e-002 1.43526942e-002 1.64048150e-002 5.59628010e-003
      -4.22589388e-003 3.46141006e-003 -1.28458366e-002 -6.42154459e-003
      -2.27615461e-002 -3.59306261e-002 -4.41792645e-002
      -1.37114469e-002 1.09119173e-002 2.32193172e-002 6.92864764e-004
      -5.55698713e-003 7.73871271e-003 -7.23136077e-003 1.32733546e-002
      1.90404151e-002 1.77986789e-002 1.19457976e-003 -9.85002611e-003
      -1.52358022e-002 -3.11814211e-002 -1.76585969e-002
      -2.73252409e-002 -2.27226727e-002 -4.35169153e-002
      -4.32409579e-003 1.20815681e-002 2.30079680e-003 -1.58361793e-002
      -1.19498624e-002 -3.48411663e-003 -1.40716387e-002
      -1.44663649e-002 -5.44144819e-003 3.27707664e-003 -5.74699137e-004
      1.59648224e-003 1.70566258e-003 -2.21145037e-003 -4.14648047e-003
      3.18881148e-003 -9.11605253e-004 -9.02095810e-003 1.75964704e-003
      9.01777390e-003 -2.79445900e-003 -1.09234480e-002 -1.36758108e-002
      -3.17449652e-004 -1.39529854e-002 -7.82527681e-003
      -5.06580947e-003 1.65627636e-002 4.82730893e-003 5.84635558e-003
      -2.86308001e-003 3.60306003e-003 4.68706107e-003 2.13652104e-003
      -9.40603483e-003 -7.30327936e-003 4.93498705e-003 2.16615526e-003
      -2.67417659e-003 -1.90366581e-002 -1.81498844e-002 9.18257982e-004
      -1.37470020e-002 2.08761729e-003 5.03178407e-003 3.97697138e-003
      -2.65922281e-003 3.49052530e-003 -3.32624512e-003 -1.22121945e-002
      -6.43675774e-003 -1.54057611e-002 -1.21453470e-002
      -2.62960568e-002 -1.70349158e-004 6.01941859e-003 2.83160107e-003
      -2.17835512e-002 -1.25568891e-002 -1.00133894e-002
      -1.65957790e-002 -3.64721543e-003 1.11817103e-003 6.14647893e-003
      8.96967668e-003 1.99919734e-002 1.14454469e-002 1.17150052e-002
      7.12860189e-003 -7.54687283e-003 -1.58645008e-002 -6.64258795e-003
      -6.95471605e-003 2.16424535e-003 -7.69128138e-003 -1.14523694e-002
      -1.39847305e-002 -4.75677056e-003 -1.06962863e-002
      -3.12890345e-003 -1.25271326e-003 1.12533197e-002 -1.66393612e-002
      -5.10345725e-003 -4.66781249e-003 -6.04756700e-004 1.04224226e-002
      -5.16754691e-004 -1.04146469e-002 -6.81887055e-003
      -2.63028801e-003 -3.00919102e-003 8.69497657e-003 -8.67653079e-003
      -6.66078366e-003 3.28844460e-003 1.17479088e-002 1.06069604e-002
      1.01841316e-002 1.20928790e-002 2.00527487e-003 9.32670571e-003
      1.64355244e-002 1.09943124e-002 1.27904499e-002 1.17828101e-002
      9.68497712e-003 1.22244600e-002 -5.59925707e-003 -9.33653302e-003
      -2.79700453e-003 -2.07775179e-002 -2.18252242e-002
      -2.46237125e-002 -2.16168612e-002 -2.45126095e-002
      -6.17186446e-003 2.35042506e-004 -6.04588166e-003 1.72391604e-003
      3.39139649e-003 -6.10555476e-003 3.15197790e-003 -4.99396445e-003
      -1.18879220e-002 -2.43637478e-003 -1.84418764e-002
      -9.92819574e-003 1.38168386e-003 -7.65618123e-003 -5.23015996e-003
      -4.83709248e-003 -5.37102530e-003 -5.82142174e-003 1.33668026e-002
      -2.13339087e-003 -1.81017548e-003 5.93432086e-003 7.42709963e-003
      3.77787370e-003 -4.94245952e-003 3.63528309e-003 1.60654895e-002
      1.74384937e-002 -1.07795438e-002 -1.70694310e-002 7.85323232e-003
      -3.87104298e-003 -1.09491637e-002 -2.55717011e-003 7.04146503e-003
      -6.51732041e-003 -1.94954174e-003 -9.79395770e-003
      -5.42872259e-003 -8.61082412e-003 7.36525981e-003 4.28841030e-003
      -1.48559699e-003 -1.11254770e-003 -1.02570420e-003 1.58644300e-002
      -2.51265652e-002 -7.75081059e-003 1.15833171e-002 1.73367728e-002
      1.90238524e-002 2.00376175e-002 1.33886766e-002 3.87971336e-003
      7.68063357e-003 -1.62007324e-002 -1.93134286e-002 -6.92787813e-003
      1.27830543e-002 3.79956104e-002 2.38899030e-002 1.79840457e-002
      1.27902534e-002 2.56999750e-002 -1.13997255e-002 -1.88124832e-002
      -8.43933597e-003 -9.24813841e-003 -7.49867782e-003
      -2.02859920e-002 -1.37855625e-002 -5.49435522e-003
      -5.93611784e-003 -1.98493544e-002 -1.16939424e-002
      -1.50708752e-002 -2.31665163e-003 3.67280957e-003 -1.34152435e-002
      -1.15032475e-002 -4.33773175e-003 8.17535818e-003 -1.77686308e-002
      -1.16518028e-002 2.30328902e-003 1.24382991e-002 1.56523399e-002
      8.86297901e-004 1.97276636e-003 -7.17768259e-003 -5.51089877e-003
      -1.88855622e-002 -2.04472281e-002 -8.38838969e-005 2.20183916e-002
      2.84861438e-002 1.25833200e-002 8.52856599e-003 1.44373020e-003
      1.70450024e-002 -1.30401673e-002 -7.44669791e-003 -1.19826505e-002
      -2.01425403e-002 -6.95045819e-005 -8.89948162e-004 1.30060287e-002
      7.15056388e-003 2.87038088e-003 -8.60767439e-003 -1.50172263e-002
      -1.31077105e-002 -5.91970934e-003 -7.97002669e-003
      -6.34273514e-003 1.12365494e-002 1.60350669e-002 2.33178562e-003
      -2.72242841e-003 -6.45983685e-003 4.45420947e-003 -2.42762845e-002
      1.96853513e-003 3.81067139e-003 1.26189403e-002 8.12835712e-003
      2.92087556e-003 -5.38155390e-003 -1.04253795e-002 -1.75703876e-002
      -1.22304223e-002 -4.80482168e-003 -2.81661702e-003 9.64844879e-003
      1.73254497e-002 1.26510384e-002 1.54275168e-003 -4.04648809e-003
      -6.43591164e-003 -2.27425992e-002 -1.29432394e-003 3.84851662e-003
      8.93584639e-003 1.40609723e-002 9.94412974e-003 -5.57970675e-003
      1.08716125e-002 1.57815870e-002 7.48010119e-003 3.10911844e-003
      -3.85863124e-003 1.77355018e-002 1.27661396e-002 6.77787652e-003
      -3.86783085e-003 -5.76691981e-003 4.63560829e-003 -1.71474889e-002
      1.94028416e-003 5.09468094e-003 3.34589113e-003 2.72239046e-003
      7.23511539e-003 -1.94258485e-002 -9.13437735e-003 5.92726143e-003
      -8.47890694e-003 3.51973297e-003 4.28429060e-003 1.82376336e-002
      1.07886503e-002 5.81144867e-003 4.90061473e-003 -6.09226059e-003
      -5.08047501e-003 -9.95253026e-003 -8.19017703e-004 5.28150983e-003
      4.79420740e-003 9.54821473e-004 -3.13460780e-003 -1.24950781e-002
      -6.04251586e-003 -2.92186090e-003 -1.21221365e-002
      -1.82087310e-002 -1.24083059e-002 7.23888772e-003 3.38578247e-003
      -3.82513413e-003 -2.82383105e-003 1.21619890e-003 -6.08930783e-003
      5.92761207e-003 1.24538876e-002 -1.68555276e-003 9.37073026e-003
      -1.75880105e-003 -1.96211808e-003 -1.49007095e-002
      -6.47321763e-003 -1.08293840e-003 -1.17237698e-002
      -1.97313260e-002 -4.22713725e-004 -4.07775678e-003
      -1.06932484e-002 -8.23788252e-003 -1.08950830e-003
      -7.44850654e-003 5.39455190e-003 1.94753055e-003 1.13419425e-002
      2.28551915e-003 7.50379823e-003 4.50431090e-003 5.26959309e-003
      -1.88257378e-002 -1.13875149e-002 5.92660205e-003 2.38087890e-003
      2.77349818e-003 -6.42696628e-003 -3.90748522e-004 -2.48704781e-003
      -4.49920353e-003 5.16092917e-003 -2.66184681e-003 2.17403693e-004
      2.53583826e-002 1.82489101e-002 -2.57604319e-004 7.35075725e-003
      -1.27589405e-002 -6.08833786e-003 -2.22959965e-002
      -5.26599493e-003 6.73171412e-003 -2.80966191e-003 -1.01691782e-002
      -3.12906248e-003 -1.59740895e-002 -4.36115917e-003
      -4.80855862e-003 -1.32906027e-002 7.54827401e-003 -9.35015443e-004
      -4.89464216e-003 2.30063975e-004 4.39890381e-003 -3.14128865e-003
      -3.87414312e-003 -4.96779801e-004 3.14720138e-003 3.56071722e-003
      3.82930809e-003 3.46745182e-005 -1.36518423e-002 3.23950220e-003
      -9.31382645e-003 -5.84216416e-003 -2.00204644e-003
      -3.91925592e-003 7.21090613e-003 -7.51931919e-003 -2.41532009e-002
      -1.91847850e-002 -2.24030595e-002 -2.67497357e-002
      -5.95889986e-003 2.47323071e-003 4.21354547e-003 2.70186225e-003
      -1.24489740e-002 -5.86905936e-003 -1.12836137e-002 8.31581932e-003
      5.04009891e-003 8.40983633e-003 7.67737627e-003 5.47809247e-003
      1.72620043e-002 1.99347269e-003 9.53569077e-003 -7.05752056e-003
      -7.99484644e-003 -2.49798130e-003 -1.53673850e-002
      -7.61110149e-003 -8.52318201e-003 5.83602302e-003 1.40447794e-002
      9.55155399e-003 -1.05967768e-003 4.87182243e-003 -6.60356227e-003
      8.55014566e-003 1.16211968e-002 9.78059688e-006 9.59268492e-003
      -6.77909062e-004 -2.06225161e-002 -4.47084457e-002
      -3.80995870e-002 -4.82449196e-002 -3.11200041e-002
      -1.82847120e-002 -1.11035286e-002 3.86596541e-003 6.12213835e-003
      1.07356133e-002 5.68414433e-003 1.33841056e-002 1.99142490e-002
      2.45824736e-002 2.18655113e-002 1.80263706e-002 -2.26951987e-002
      -3.41433994e-002 -5.79554327e-002 -5.68976402e-002
      -3.76650020e-002 -4.08879481e-002 -1.87836383e-002 3.24678747e-003
      -9.07863607e-004 6.95436203e-004 -2.52270419e-003 8.26007687e-004
      -9.72191431e-003 7.39363302e-003 -8.61966400e-004 4.38103639e-003
      7.50900246e-003 3.66723165e-003 -3.09837572e-002 -5.59460483e-002
      -7.74344802e-002 -5.61943986e-002 -2.69589275e-002
      -2.86447536e-002 -8.53839051e-003 1.20779509e-002 1.59082580e-002
      1.54612912e-002 5.39798662e-003 1.41029637e-002 2.56327330e-003
      5.12539409e-003 8.97389650e-003 6.41532475e-003 -8.52493662e-003
      -1.56296510e-002 1.07204926e-003 2.42404081e-003 -4.11226936e-002
      -5.58138713e-002 -3.13052349e-002 -5.41426912e-002
      -1.66005511e-002 -4.04098257e-003 4.77685453e-003 2.12462042e-002
      4.24969383e-003 1.51390834e-002 1.23417620e-002 1.51228076e-002
      1.46973627e-002 2.41688006e-002 3.10763344e-002 1.89317353e-002
      1.39491484e-002 -1.09566934e-003 -3.84780243e-002 -1.94343701e-002
      -7.24004908e-003 -1.32215740e-002 5.50388172e-003 1.12430034e-002
      3.28967720e-002 3.14642303e-002 2.22493839e-002 2.54436322e-002
      2.87169050e-002 2.03367267e-002 1.66244954e-002 2.30122972e-002
      2.26908363e-002 1.47512564e-002 -5.22924922e-002 -8.79787654e-002
      -9.79994759e-002 -5.84932864e-002 -4.36314680e-002
      -4.37603258e-002 -1.94794536e-002 2.98982579e-003 1.03054987e-002
      2.11852342e-002 -3.12176533e-003 -1.00143463e-003 -1.27687594e-002
      -1.00699998e-002 -9.13658296e-004 -1.60719585e-002
      -3.50346453e-002 -3.52663249e-002 -3.51355523e-002
      -5.08853532e-002 -4.74631675e-002 -3.61096412e-002
      -3.53226624e-002 -3.62397879e-002 1.97265530e-003 1.81084331e-002
      1.53307170e-002 3.60045657e-002 1.03110746e-002 4.66356799e-003
      1.24420435e-003 5.44990180e-004 -5.66154113e-003 -1.62629522e-002
      -1.15456125e-002 -2.59014498e-002 1.17900153e-003 -3.15249301e-002
      -4.28792797e-002 -1.89343579e-002 -9.29546077e-003
      -2.08271034e-002 -1.38459774e-002 9.11215041e-003 2.43342277e-002
      2.71875598e-002 1.41577199e-002 1.25991842e-002 7.70054106e-003
      5.54567855e-003 4.59635211e-003 1.87350379e-003 4.41767741e-003
      -4.28774254e-003 3.62507836e-003 1.38198317e-003 4.24406305e-003
      6.42370107e-003 9.30780545e-004 -1.33086080e-002 1.34374211e-002
      2.13147383e-002 3.46399508e-002 5.10144085e-002 3.54249924e-002
      2.68358961e-002 1.04609979e-002 1.34345833e-002 5.96071640e-003
      7.64704030e-003 2.94271838e-002 1.71908624e-002 -6.51727095e-002
      -5.33373915e-002 -5.34420237e-002 -4.92451042e-002
      -3.83092389e-002 -2.90991329e-002 -1.32575817e-002
      -1.15083009e-002 -2.95871659e-003 1.43778091e-002 -2.46782112e-003
      2.39460031e-003 8.06370657e-003 -2.12386483e-003 -1.48495017e-002
      -1.95420906e-002 -2.20463779e-002 -5.64764366e-002
      -5.43054566e-002 -5.11195175e-002 -4.88172919e-002
      -3.48455831e-002 -1.80734918e-002 -2.96565448e-003
      -1.13253593e-002 -1.21037476e-002 5.62903006e-003 6.64700009e-003
      7.18442071e-003 1.29087539e-002 1.19788069e-002 5.18857455e-003
      1.35000627e-002 -8.14776227e-004 -2.27003787e-002 -4.97856699e-002
      -1.43496720e-002 5.85575122e-003 -1.94693275e-003 4.24590369e-004
      -6.18671672e-003 -1.05424402e-002 3.47705302e-003 -2.47441209e-003
      2.08751969e-002 3.33164185e-002 1.58018861e-002 1.36247231e-002
      9.38537437e-003 5.05772885e-003 -1.03491154e-002 -1.19276680e-002
      -4.17185482e-003 -1.22349840e-002 -2.10908987e-002 6.12935377e-003
      -5.09938039e-003 1.69050961e-003 1.57770072e-003 4.50454233e-003
      -4.54452494e-003 -6.56901952e-003 1.68094616e-002 2.03598160e-002
      6.21899823e-003 9.74506512e-003 5.80539089e-003 1.37057137e-002
      -1.09750916e-004 -7.76849827e-003 -1.21102007e-002
      -2.20323280e-002 -5.74448779e-002 -4.76894602e-002
      -2.32222956e-002 -1.17323566e-002 -1.71353202e-003 1.56040397e-002
      -3.19059764e-004 -1.32225724e-002 5.99548500e-003 -7.74308667e-003
      -8.37237632e-004 3.74108576e-003 8.39048158e-003 6.53839111e-003
      2.47225389e-002 4.61283326e-003 -3.12587470e-002 -5.66810146e-002
      -5.70339449e-002 -5.21143638e-002 -2.39837300e-002
      -2.25180667e-002 -9.76609625e-003 1.02700759e-002 -2.28874828e-003
      -2.24811099e-002 3.99692159e-004 7.25623162e-004 5.18944114e-004
      -1.50955492e-003 -3.58914770e-003 -7.14743929e-003
      -4.25412273e-003 -2.42878627e-002 -6.20305538e-002
      -6.13373891e-002 -1.58875063e-002 7.04568438e-003 1.55527964e-002
      8.89619719e-003 -2.14580307e-003 8.87181051e-003 -3.41261690e-003
      -9.25809611e-003 2.03258824e-003 -2.38118577e-003 2.08152737e-003
      8.04144237e-003 -1.09923223e-003 7.43941450e-003 1.42077301e-002
      1.17390426e-002 5.56220906e-003 -1.16929859e-002 -8.79280269e-003
      1.01819215e-002 2.12197267e-002 3.24060582e-003 -4.63839713e-003
      2.05514953e-002 6.66562933e-004 -1.57158133e-002 -4.47649369e-003
      -1.68913032e-003 3.83964437e-003 1.24711497e-002 7.21349800e-003
      -3.18477000e-003 1.10119330e-002 1.49176102e-002 -3.53061315e-003
      -1.24999983e-002 -4.64722142e-002 -3.33752297e-002 1.57462666e-003
      -1.10220816e-002 5.96393365e-004 1.15799233e-002 1.29990559e-003
      -6.31580409e-003 2.56601907e-003 1.93156637e-002 1.84695162e-002
      9.72871110e-003 -5.04260708e-004 -1.12995552e-002 -2.07995679e-002
      -3.02005615e-002 -6.61265552e-002 -4.53385636e-002
      -5.71155883e-002 -1.47237172e-002 -1.24046358e-003 8.16157353e-006
      -4.11280803e-003 6.73499564e-003 -6.15109829e-003 -7.30055012e-003
      -7.38427415e-003 1.54258660e-003 -8.31624493e-003 -9.06600710e-003
      -2.65346710e-002 -3.79128233e-002 -5.76073863e-002
      -7.26038441e-002 -8.55014399e-002 -6.39446974e-002 1.36818616e-002
      2.27581561e-002 2.90323514e-002 1.88921839e-002 1.16583314e-002
      2.37728674e-002 3.95264290e-003 -1.27586932e-003 9.60140955e-003
      1.79854669e-002 1.69933699e-002 1.97453611e-002 1.84865873e-002
      8.64393637e-003 1.21459486e-002 1.46328984e-002 4.63064294e-003
      6.68007648e-003 -3.78314219e-003 2.11462472e-002 3.76996696e-002
      3.22339460e-002 6.78563444e-003 3.06256693e-002 7.73764914e-004
      3.97904171e-003 8.53259303e-003 1.43585550e-002 7.02775130e-003
      1.25730345e-002 3.90559388e-003 -1.60253402e-002 -1.85771771e-002
      -3.00437622e-002 -1.05700167e-002 -1.00998254e-002
      -6.45489618e-003 1.56957656e-002 1.33834388e-002 1.95762813e-002
      4.30145953e-003 2.74666399e-003 9.59957857e-003 1.82578750e-002
      1.37032811e-002 7.60732312e-003 2.24908022e-003 -5.62048052e-003
      -2.47765128e-002 -3.29072215e-002 -5.52950874e-002
      -6.80451468e-002 -6.24150634e-002 -3.20327058e-002 1.47935469e-003
      9.31363646e-003 6.82807574e-003 -1.60489394e-003 -7.23025948e-003
      -1.09246280e-002 5.89242578e-003 3.16927209e-003 -1.02054384e-002
      -1.32389376e-002 -3.09723988e-003 -3.69058363e-002
      -4.83938679e-002 -6.07101768e-002 -7.51561373e-002
      -6.92392439e-002 -7.84163401e-002 -3.12204864e-002 1.72992945e-002
      3.04921046e-002 3.63218561e-002 3.50546092e-002 1.51120955e-002
      1.89142469e-002 1.35000283e-002 2.79458407e-002 3.18796858e-002
      3.79886217e-002 2.67199930e-002 1.85512193e-002 3.18163820e-003
      -8.69902782e-003 -2.27385517e-002 -2.97766067e-002
      -6.91509666e-003 1.51862092e-002 2.53972262e-002 1.30723193e-002
      1.44252088e-002 1.89326387e-002 1.18318563e-002 1.04479995e-002
      1.79390050e-002 2.69721635e-002 2.23102737e-002 2.37187464e-002
      1.32563096e-002 -9.32349451e-003 -2.63108592e-002 -3.65765467e-002
      -5.21349646e-002 -6.46999851e-002 -3.76462527e-002 4.61991993e-004
      1.35658970e-002 5.06905280e-003 3.57530010e-003 -7.07711978e-003
      -3.37507320e-003 -3.96237476e-003 4.38637380e-003 -1.04406220e-003
      -1.40354885e-002 -1.34859299e-002 -1.58618519e-003
      -1.79568417e-002 -1.75230615e-002 -3.63832973e-002
      -4.77010347e-002 -3.12826298e-002 -3.54371853e-002
      -4.68828157e-003 1.99643066e-004 -9.82255209e-003 -7.27152452e-003
      -1.26831792e-002 -1.44894477e-002 -3.91806243e-003
      -6.24109665e-003 6.85640937e-003 -5.14512649e-003 1.38994923e-003
      1.16759085e-003 1.86470617e-003 -1.42583915e-003 -1.81071069e-002
      -3.36714052e-002 -3.07915658e-002 -1.49197001e-002
      -2.02558454e-004 2.29454357e-002 1.47559214e-002 1.90258492e-002
      2.22675875e-002 1.47207258e-002 9.55059566e-003 1.06785968e-002
      1.49296541e-002 3.20793921e-003 1.02377627e-002 -5.64394705e-003
      -1.84560437e-002 -2.72599459e-002 -4.23817113e-002
      -5.30964732e-002 -4.61266413e-002 -3.64443436e-002
      -8.02426599e-003 -4.08218708e-003 -2.95794406e-003 1.05697438e-002
      1.42656956e-002 1.00853096e-003 3.71756661e-003 7.18796346e-003
      1.37794437e-002 -2.66622612e-003 6.17115386e-003 3.18076485e-003
      -3.97162652e-003 -2.28426885e-002 -2.79144756e-002
      -4.58631255e-002 -3.53068709e-002 -2.36950722e-002
      -3.07768281e-003 -1.06508769e-002 -9.98871587e-003
      -1.41425179e-002 -2.74816658e-002 -2.49058940e-002
      -1.03579471e-002 -1.44834351e-002 -5.02890116e-003
      -1.11957535e-003 6.34502852e-003 4.70058713e-003 1.08050425e-002
      4.85997414e-003 -4.01533348e-003 -1.25559540e-002 -1.20310858e-002
      -2.14087940e-003 -1.00273071e-002 -2.67619686e-003 3.56920389e-003
      -1.02679497e-002 -1.26075512e-002 -1.63173825e-002
      -2.60332646e-003 4.55143442e-003 -9.93766822e-003 -9.06535797e-003
      -1.46435099e-002 2.54738843e-003 -3.06610804e-004 8.81490530e-004
      -9.77869797e-003 -4.06996673e-003 1.65024325e-002 4.63329442e-003
      1.58491870e-003 -1.82640590e-002 -1.04246978e-002 3.42368294e-004
      -9.19285230e-003 -3.68213118e-003 -1.68414484e-003 1.63357542e-003
      -1.67200749e-004 -3.31771007e-005 1.73286889e-002 1.24950865e-002
      1.31350849e-002 9.67210275e-004 -4.61915554e-003 -2.31052618e-002
      -1.34147126e-002 -1.18583841e-002 -1.65274423e-002
      -3.87979415e-003 8.14320985e-003 1.31086749e-003 -5.95099293e-003
      -1.39450131e-004 9.78904031e-003 1.34255644e-002 -7.42596388e-003
      -6.20805891e-004 -4.72001592e-003 7.08705327e-003 2.91947741e-003
      9.75403842e-003 8.62205401e-003 -4.35883226e-003 7.83886388e-003
      -2.54240143e-003 -4.44578053e-003 -8.89756344e-003
      -4.77364985e-003 1.54819340e-003 3.51745053e-004 -1.00814747e-002
      -5.26822964e-003 5.59297507e-004 -1.62844062e-002 -2.70766914e-002
      -3.04543823e-002 -1.45047139e-002 -6.66606426e-003 3.18746269e-003
      -7.70308403e-003 -1.01351961e-002 4.93693259e-003 7.19193427e-004
      -3.48520442e-003 6.26299623e-003 1.05678560e-002 1.27701722e-002
      2.18515862e-002 2.13987217e-003 -7.71024218e-003 -8.50659888e-003
      -1.25392317e-003 -1.01275798e-002 -2.10562423e-002 9.49481875e-003
      2.64766030e-002 1.89399831e-002 7.81190069e-003 -5.03359688e-003
      -8.78791697e-003 -8.11922655e-004 -6.34308998e-003
      -4.82657366e-003 1.19456369e-003 5.18923812e-003 2.24576192e-003
      -4.21522791e-003 1.58091774e-004 3.22683179e-003 -1.32065844e-002
      -1.22409277e-002 -3.27881947e-002 -1.56242233e-002
      -1.47006456e-002 -1.48045393e-002 -1.73411090e-002
      -2.71698851e-002 -1.32806953e-002 -1.40775507e-002
      -9.96588264e-003 7.49924826e-003 2.22562086e-002 1.93494074e-002
      2.56021991e-002 4.09226539e-003 -6.34307740e-003 8.19509942e-003
      1.91151798e-002 1.75109168e-003 -1.05093559e-002 8.65612179e-003
      1.61002204e-002 1.64420977e-002 -2.31421157e-003 -1.03284745e-002
      -1.45197306e-002 -1.32650314e-002 -4.14682180e-003
      -1.76293589e-002 -1.34309316e-002 -3.66076678e-002
      -1.60272047e-002 -1.82327756e-003 1.29662799e-002 1.70931928e-002
      1.93519797e-002 -4.22734255e-003 2.09894637e-003 3.06993444e-002
      1.16556874e-002 1.15396958e-002 8.75873957e-005 1.81107968e-002
      6.75864937e-003 1.04289483e-002 -1.23801781e-002 1.62893662e-003
      1.44312286e-003 -1.48975030e-002 -1.21225026e-002 -5.79841994e-003
      -5.59444539e-003 5.00964560e-003 1.27728644e-003 -1.94588229e-002
      -1.28667755e-002 9.61913727e-003 6.56803371e-003 1.58197302e-002
      7.25058652e-003 1.51711004e-002 -7.17245601e-003 4.04094020e-003
      -3.28138634e-003 -2.09619757e-002 -1.11632952e-002
      -2.71069463e-002 -3.13696684e-003 2.06136587e-003 1.20891258e-002
      2.61068847e-002 2.79047079e-002 -2.50185337e-002 -2.40681209e-002
      5.24369348e-003 2.99327634e-003 1.74645502e-002 5.00580575e-003
      4.46910132e-003 7.52206286e-003 1.24739651e-002 -1.90177057e-002
      4.30452870e-003 1.41006289e-002 -1.12277474e-002 -7.49367150e-003
      -1.28483260e-002 -2.29077898e-002 -5.81842335e-003
      -2.15503314e-004 -2.32079271e-002 -2.97566764e-002 1.59215666e-002
      8.15313309e-003 1.74563657e-002 8.99241026e-003 5.65668475e-003
      3.51443421e-003 1.27068618e-002 -4.46021743e-003 4.08332376e-003
      4.19884501e-003 -1.53400027e-003 -1.34355633e-003 -1.97595581e-002
      -1.59183107e-002 -7.15237530e-003 -1.16831446e-002
      -2.31129602e-002 -1.28077017e-002 1.06936321e-002 1.16295163e-002
      1.09351818e-002 1.02491374e-003 -2.73959682e-004 -1.01788733e-002
      -1.35063659e-003 -1.36424880e-003 3.59637546e-003 4.27092239e-003
      1.58018209e-002 2.06098296e-002 -2.19252948e-002 -2.09779479e-002
      -2.58606095e-002 -1.76459625e-002 -2.32828818e-002
      -6.29973924e-003 1.82323717e-002 1.43739348e-002 1.22844996e-002
      1.06796408e-002 -6.60344318e-004 3.03327572e-003 -2.80226232e-003
      -1.53934108e-002 2.85435505e-002 1.52764060e-002 1.80489868e-002
      4.51689959e-003 -2.82829013e-002 -3.70181911e-002 -1.99561734e-002
      -1.90554131e-002 -2.79098731e-002 -2.79433392e-002 1.12756630e-002
      1.86716933e-002 1.79971848e-002 2.19084453e-002 9.79093253e-004
      2.33383290e-003 8.21620040e-003 1.44397523e-002 1.27248950e-002
      1.16395531e-002 1.82429552e-002 8.73463601e-003 -4.47434857e-002
      -4.35187519e-002 -4.61090691e-002 -5.34881055e-002
      -3.15568969e-002 -3.88089567e-002 6.52471930e-003 1.63267944e-002
      1.97578166e-002 2.72952151e-002 1.19882626e-002 1.72547065e-002
      1.69568136e-002 2.20541726e-003 -9.56445467e-003 -1.93423536e-002
      -2.01931577e-002 -3.41348052e-002 -4.89418060e-002
      -5.66396825e-002 -6.07021302e-002 -4.19841409e-002
      -2.33956967e-002 -1.13680083e-002 3.52636538e-003 5.51439938e-004
      -5.72031178e-003 -6.48067426e-003 -9.10615176e-003
      -4.30288631e-003 -1.32292956e-002 -1.56044941e-002
      -5.28245186e-003 -1.83094330e-002 -2.96236984e-002
      -5.03934249e-002 -4.94062826e-002 -6.13065697e-002
      -4.45263125e-002 -2.55867653e-002 -9.84267332e-003 8.29238724e-003
      1.58784203e-002 1.93459168e-002 2.66491412e-003 -3.59439553e-004
      5.96347358e-003 2.55669728e-002 1.53924730e-002 1.31080616e-002
      9.44946148e-003 1.21511449e-003 -3.21801938e-003 -1.10259429e-002
      -3.94972302e-002 -5.53117618e-002 -5.93020059e-002
      -5.35161123e-002 -2.22033970e-002 -1.79336350e-002 8.81289691e-003
      6.93712104e-003 5.68070589e-003 1.23384222e-002 1.39888963e-002
      1.32583547e-002 1.40845431e-002 9.15438123e-003 3.64479385e-002
      1.75083596e-002 1.99430846e-002 -6.86649932e-004 -2.40571517e-003
      -2.56063212e-002 -1.65606681e-002 -1.57162566e-002 7.37521332e-003
      9.26765427e-003 2.58328076e-002 1.89118143e-002 1.69040263e-002
      1.20367091e-002 1.92132760e-002 2.45251618e-002 3.22542600e-002
      3.64877544e-002 -2.76679099e-002 -4.53855544e-002 -6.28788620e-002
      -8.59636664e-002 -8.58647600e-002 -9.55239758e-002
      -6.75809905e-002 -4.57401313e-002 -2.61409450e-002 3.51881795e-003
      -7.19478168e-003 6.57789176e-003 -4.15493129e-003 -8.61932803e-003
      -5.54929348e-003 4.89622168e-003 4.49069869e-003 -2.94803246e-003
      -1.03702368e-002 -2.58007888e-002 -3.91110107e-002
      -5.27691133e-002 -5.56714237e-002 -5.95591143e-002
      -4.00286540e-002 -1.37351118e-002 4.13473928e-003 8.10620748e-003
      2.11093272e-003 1.04489550e-002 1.78824924e-002 7.62862945e-003
      2.40967702e-003 6.56236662e-004 8.97908118e-003 -7.83595257e-003
      1.17054135e-002 -4.20433516e-003 -4.06533899e-003 -3.17156389e-002
      -3.49600725e-002 -4.41443212e-002 -2.48505995e-002
      -1.63534991e-002 -1.05083305e-002 7.30070332e-003 5.88240940e-003
      1.16574764e-002 1.29303802e-002 7.19667086e-003 5.76296169e-003
      4.86918492e-003 1.49624348e-002 1.52902668e-002 1.14384806e-002
      1.54503272e-003 1.41305046e-003 -1.06305182e-002 -1.56849511e-002
      -3.51514854e-002 -1.57850124e-002 -5.19271940e-003 7.11143296e-003
      9.35571920e-003 1.06154196e-002 2.38528792e-002 2.92089432e-002
      2.45515760e-002 1.81641150e-002 5.64272283e-004 1.13505684e-002
      5.07338252e-003 -1.56729445e-002 -2.91136783e-002 -3.84442955e-002
      -2.73009688e-002 -3.35918814e-002 -4.22385819e-002
      -4.41551395e-002 -2.57324148e-002 -7.87142757e-003
      -5.93355624e-003 -8.19398090e-003 5.17757668e-004 3.06297530e-004
      -1.24723464e-002 -1.58080067e-002 -1.83855649e-002
      -4.88534803e-003 -2.83688586e-002 -1.22394711e-002
      -7.80866574e-003 -2.17870343e-002 -1.36425821e-002
      -1.06990617e-002 -2.06660386e-002 -1.40205566e-002
      -9.09519196e-003 1.02862082e-002 1.96948908e-002 9.79181565e-003
      2.40760529e-003 -5.37393568e-003 -1.07703879e-002 -1.06781628e-002
      -2.12065019e-002 4.33747564e-003 -1.30538605e-002 -3.67733696e-003
      -2.10678149e-002 -1.48752527e-002 -8.62876046e-003
      -2.27549262e-002 -4.43487354e-002 -3.36645730e-002
      -1.83613915e-002 -8.76767561e-003 -5.07501094e-003
      -2.39213905e-003 1.34823592e-002 1.26614152e-002 1.22381719e-002
      9.00746789e-003 -1.16832927e-002 1.94272515e-003 -9.92233213e-003
      -7.69155379e-003 -1.24965571e-002 -1.98311433e-002
      -1.94408111e-002 -2.24241186e-002 -2.05282886e-002
      -2.86214259e-002 -5.61404042e-003 4.65635583e-003 1.13737080e-002
      7.39002042e-003 1.26307765e-002 1.16739040e-002 6.60706125e-003
      3.78354359e-003 1.64845158e-004 3.51431267e-003 -7.82686565e-003
      -2.53242645e-002 5.97730791e-003 -6.46823086e-003 -2.06891261e-003
      -4.27376525e-003 1.00059749e-003 6.53628726e-003 -4.78970865e-003
      2.37220861e-002 2.47270428e-002 1.34356460e-002 -9.95159033e-004
      5.13547659e-003 -7.04512349e-004 -1.60271004e-002 -2.53293719e-002
      -1.56290494e-002 -1.78417508e-002 -2.66105309e-002 7.25476118e-003
      -5.31848811e-004 2.87007331e-003 -8.86327587e-003 -8.41217767e-003
      -1.30445720e-003 -2.12893877e-002 8.88907164e-003 1.57693457e-002
      5.84407710e-003 -1.13193197e-002 -5.13522001e-003 -5.83774550e-003
      -2.38473155e-002 -3.49314846e-002 -4.01644073e-002
      -3.03790215e-002 -1.13951340e-002 -4.56411764e-003
      -8.91743880e-003 -1.00140581e-002 -3.91931739e-003 4.69369022e-003
      -1.20542776e-002 -6.22857874e-003 1.14034349e-002 9.98286717e-003
      6.49175700e-003 3.10807582e-003 8.37956276e-003 -3.80791666e-004
      -4.14847350e-003 -1.29211564e-002 -1.12063391e-002
      -1.72671694e-002 -1.69569366e-002 -1.53746875e-002
      -2.06155749e-003 4.95624216e-003 -1.29885226e-002 -1.08059365e-002
      -7.68887578e-003 -3.61410901e-002 -9.01343394e-003
      -6.35966053e-003 1.29232032e-003 -1.97928306e-002 -7.04435399e-003
      -9.83312633e-003 -1.53927337e-002 -2.78328266e-002
      -3.50362025e-002 -3.53049077e-002 -1.62044615e-002 1.32877743e-002
      2.03810763e-002 4.77112504e-003 -7.48479739e-003 -5.42185782e-003
      -5.25033195e-003 -1.86746325e-002 -4.73506050e-003 5.85140474e-003
      1.36850085e-002 7.75016495e-004 -1.12837674e-002 -7.36208120e-003
      -5.77562815e-003 -1.03966277e-002 -1.03016365e-002
      -1.32281715e-002 -1.33808143e-002 1.40704568e-002 2.05330700e-002
      2.04041577e-003 -5.88346692e-003 -2.34823397e-004 -7.20943743e-003
      -1.38998283e-002 -1.04673821e-002 -4.20710491e-003 1.02946749e-002
      5.19344769e-003 -8.94480478e-003 -1.29884304e-002 -7.74267921e-003
      -9.43622086e-004 -7.21554738e-003 -6.89875335e-003
      -9.52108763e-003 3.50624090e-003 1.33434804e-002 7.52310269e-003
      -1.15458407e-002 -1.30881257e-002 -3.09822755e-003
      -3.63053121e-002 -2.12565120e-002 -1.47111099e-002 2.65122601e-003
      -1.64931640e-002 -1.56003209e-002 -1.65663287e-002
      -1.48809701e-002 -1.95063800e-002 -9.36200004e-003
      -2.42205709e-002 -1.47868274e-002 9.29611549e-003 8.28107819e-003
      1.34210913e-002 4.07496141e-003 -2.69146007e-003 -8.35980941e-003
      -2.13808045e-002 -2.64917687e-002 -2.02338807e-002
      -5.66633651e-003 -1.87529773e-002 -2.29705758e-002
      -2.07092445e-002 -2.51773931e-002 -2.11317074e-002
      -1.22692883e-002 -2.71577481e-002 -2.01438181e-002 5.75284474e-003
      7.08776573e-003 5.80521580e-003 5.75320621e-004 4.03595902e-003
      -1.10731423e-002 -9.04968660e-003 -5.07915998e-003
      -1.14435833e-002 -6.33588387e-003 -4.34068032e-003
      -7.82144998e-005 -1.05951661e-002 -2.11417628e-003
      -5.71175152e-003 1.36671274e-003 -1.41860824e-002 -2.74876934e-002
      1.65650598e-003 1.17044160e-002 1.20815272e-002 -5.01114735e-003
      -1.09291950e-003 -2.22200956e-002 -7.00222421e-003
      -6.06670044e-004 -1.16576431e-002 -1.32138738e-002
      -1.07006514e-002 4.01174068e-004 -1.75372809e-002 -6.97369222e-003
      -1.68872308e-002 -6.46757893e-003 -3.23755629e-002
      -1.28082754e-002 9.90624912e-003 8.40726017e-004 1.21085653e-002
      3.69790738e-004 -1.07739866e-003 -1.62790064e-002 -1.41847041e-002
      -2.33251657e-002 -3.26835327e-002 -2.43807547e-002
      -3.42740901e-002 -1.95293222e-002 -1.96184423e-002
      -9.91306454e-003 -1.13424938e-002 -5.07335784e-003
      -1.38838906e-002 2.10755016e-003 6.58604875e-003 1.17273314e-003
      1.77584980e-002 -3.99079453e-003 -1.28641620e-003 -2.30007153e-002
      -1.35259237e-002 -1.73705164e-002 -2.48045549e-002
      -1.68800484e-002 -2.22038440e-002 1.26923923e-003 -1.86713953e-002
      1.03332363e-002 5.04695717e-003 1.48886861e-002 -3.78849870e-003
      -2.61792950e-002 6.68118941e-003 1.40946629e-002 1.14944139e-002
      -1.11977393e-002 -4.46708407e-003 -8.79092980e-003
      -4.48959821e-004 5.56115899e-003 1.06743099e-002 -2.23940122e-003
      -5.30180056e-003 -7.19429040e-003 -1.96063146e-002
      -2.54618227e-002 -2.90724523e-002 -1.70887522e-002
      -1.58727206e-002 -3.34780142e-002 -1.79380532e-002
      -1.57373976e-002 -3.91842145e-003 -1.59516279e-002
      -1.27958050e-002 -5.19705517e-003 -1.14587857e-003
      -4.06067166e-003 -1.23116132e-002 -3.14851180e-002
      -3.68242897e-002 -4.39809375e-002 -4.80804741e-002
      -6.21723197e-002 -7.21050650e-002 -4.78687696e-002
      -4.24198620e-002 8.13024491e-003 2.23848522e-002 1.57650169e-002
      2.77965795e-002 3.32902162e-003 7.43353833e-003 -5.59673458e-003
      -5.41491108e-003 4.91022505e-003 4.01752396e-003 -8.45532212e-003
      -4.31643054e-003 5.94704552e-003 -2.20325170e-003 6.07364019e-003
      5.12593519e-003 1.19887823e-002 4.11697384e-003 1.00970408e-003
      1.66296307e-002 1.27897793e-002 1.66063029e-002 -2.42651254e-003
      6.92027714e-003 1.36876979e-003 -6.45108800e-003 -1.60291232e-002
      -1.31780617e-002 -4.32787789e-003 -6.41627191e-003
      -5.79421595e-003 -7.51659856e-004 -1.49331777e-003
      -6.07512845e-003 2.75463285e-003 -1.00204103e-004 5.28213149e-003
      5.33978688e-003 4.88215638e-003 1.47713227e-002 3.50615825e-003
      -7.16811232e-003 -3.79399187e-003 -5.35197381e-004 3.13534122e-003
      -5.67749236e-003 -2.58683860e-002 -3.07886284e-002
      -3.78372148e-002 -4.64781784e-002 -4.73942161e-002
      -3.95109467e-002 -2.91721057e-002 -1.09977508e-002
      -1.38176279e-002 -2.16363575e-002 -1.45846168e-002 4.11716802e-003
      -1.77023336e-002 -1.62069239e-002 -1.19146369e-002
      -5.43527724e-003 -8.34377389e-003 -1.59932207e-002
      -2.48789415e-002 -3.16462405e-002 -5.93273677e-002
      -6.05813861e-002 -7.34125674e-002 -5.18058203e-002
      -4.12339494e-002 -1.50304623e-002 2.97741983e-002 3.10744960e-002
      2.67572310e-002 2.24057063e-002 2.34404788e-003 9.99724143e-004
      1.45238335e-003 2.49531982e-003 5.53850364e-003 4.80889855e-003
      1.06883869e-002 1.59503031e-003 -8.50752462e-003 -5.71523188e-003
      7.68407015e-004 1.14500700e-002 3.18923220e-002 4.24302407e-002
      2.44752280e-002 1.12857316e-002 1.16599407e-002 1.53694730e-002
      -8.22816882e-003 -6.90906355e-003 3.77084268e-003 1.29626952e-002
      6.47711987e-003 -4.74893488e-003 1.69803028e-003 -1.54689085e-002
      -4.07456309e-002 -4.80429940e-002 -5.04387245e-002
      -3.11170984e-002 1.13685261e-002 1.81833301e-002 -1.72674693e-002
      -2.11795531e-002 -7.20374240e-003 -1.01966248e-003
      -7.88250659e-003 -6.48902031e-003 -3.06452531e-003 8.87819659e-003
      1.10245273e-002 1.59676913e-002 8.24880507e-003 -2.77167605e-003
      -3.04525197e-002 -3.31006758e-002 -5.16373552e-002
      -2.46076733e-002 -2.05310006e-002 -2.54183766e-002
      -1.21352132e-002 -9.20265634e-003 -6.46440359e-003
      -6.19619200e-003 -7.55474204e-003 -3.65700363e-003
      -6.19218638e-003 -6.08320069e-003 -6.18070224e-003
      -8.91912822e-003 -9.75367799e-003 -1.64282303e-002
      -2.51243990e-002 -2.38934290e-002 -2.47486494e-002
      -1.35206059e-002 -1.36605222e-002 -1.92401260e-002 1.89243425e-002
      3.73410434e-003 7.00014597e-003 1.56372041e-002 8.45268296e-005
      4.49289987e-003 5.17502520e-003 2.66431104e-002 2.11622231e-002
      1.13986935e-002 -9.34392400e-003 -2.28510741e-002 -3.70363258e-002
      -2.94444244e-002 -3.76259200e-002 -1.90077703e-002 1.85892789e-003
      -8.38619657e-003 1.54426331e-002 1.49023216e-002 1.37480786e-002
      5.26710320e-003 -1.57764845e-003 7.55059440e-003 -3.74829455e-004
      1.09118531e-002 -7.61997094e-003 -1.71349552e-002 -2.49339491e-002
      -2.12851744e-002 -3.14990394e-002 -3.30189466e-002
      -1.75497364e-002 2.30145315e-003 5.66199794e-003 -2.96945334e-003
      -1.69055872e-002 -4.35619382e-003 -3.35528865e-003
      -1.95057003e-003 -1.52916014e-002 -3.16850236e-003
      -1.35667447e-003 -1.48267858e-002 -2.25128625e-002
      -2.49698926e-002 -1.98759530e-002 -1.56551413e-002
      -2.01775488e-002 -3.11837625e-002 -3.48116569e-002
      -1.88223217e-002 -1.36124454e-002 -2.02010293e-002
      -1.30395242e-003 1.56907234e-002 2.36560144e-002 1.80558376e-002
      3.36692948e-003 6.25967979e-003 9.08573065e-003 1.76129900e-002
      -1.12858955e-002 -1.64861530e-002 -1.52312620e-002
      -1.33704832e-002 -1.00404248e-002 -1.36363376e-002
      -1.47147458e-002 -2.06028204e-002 -1.72404051e-002
      -6.93688309e-003 2.16556038e-003 1.44060897e-002 2.08353717e-002
      -2.38243770e-003 -8.01370479e-003 3.54289752e-003 4.12451616e-003
      1.46353838e-003 -2.99089849e-002 -2.94655617e-002 -2.13221051e-002
      -7.78889284e-003 -1.95222367e-002 -3.59529033e-002
      -1.51167531e-002 2.37867213e-003 9.67963971e-003 -1.84575247e-003
      8.36641714e-003 2.82856170e-002 4.07802276e-002 2.59837843e-002
      1.52918464e-002 2.57257037e-002 2.38206275e-002 1.51362494e-002
      -2.43012570e-002 -1.62307471e-002 -2.24900283e-002
      -1.90828815e-002 -1.19203432e-002 4.87083755e-003 1.54503966e-002
      1.14432825e-002 2.38875635e-002 6.39706757e-003 -7.63654662e-003
      1.88540711e-004 -1.21369036e-002 -6.34049391e-003 -4.67921235e-003
      1.24265742e-003 2.09825370e-003 9.72362049e-003 -2.35692263e-002
      -1.64243486e-002 -1.51299601e-002 -6.27237186e-003 3.43210937e-004
      -4.25186474e-003 -5.13334293e-003 -1.83237565e-003 9.33180272e-004
      -1.27440207e-002 1.12865604e-002 2.25366876e-002 4.85878467e-004
      -9.79429024e-005 -8.75413325e-003 -1.88709721e-002
      -4.78959735e-003 8.50708317e-003 -2.26565991e-002 -1.53064476e-002
      2.14652196e-002 3.58745386e-003 1.34032862e-002 8.13612808e-003
      -3.81283369e-003 8.03714246e-003 1.63580831e-002 7.05069921e-004
      -6.58533955e-003 5.63968066e-003 -5.85730746e-003 -3.11874435e-003
      4.60023060e-003 -3.09990859e-003 8.92201252e-003 1.56854664e-003
      -2.17931569e-002 -9.29738209e-003 -1.05580902e-002
      -1.78439207e-002 -2.07670927e-002 -2.85837557e-002
      -1.87012069e-002 -2.38894839e-002 -1.44272745e-002
      -1.00605730e-002 -1.88582332e-003 2.15385132e-003 -9.01289284e-003
      -5.89208631e-003 2.13690195e-003 -1.12425257e-003 9.39409807e-003
      -1.18333766e-004 -1.83923021e-002 -1.76094063e-002 1.67341214e-002
      7.97388609e-003 -1.67892233e-003 -9.74148139e-003 -1.74154099e-002
      -1.14600826e-002 1.96436839e-003 -9.22135357e-003 2.45698541e-002
      1.61179788e-002 1.28660835e-002 -6.86615519e-003 -3.87671441e-002
      -4.61053625e-002 -3.84529047e-002 -2.83618644e-002
      -4.09261845e-002 -2.42130142e-002 -2.73755076e-003
      -1.03144080e-003 1.07725440e-002 1.66542735e-002 -7.15281628e-003
      -1.56016904e-003 8.69786367e-003 1.12192445e-002 2.39623971e-002
      2.27531493e-002 2.96627749e-002 7.84303062e-003 -3.77178341e-002
      -3.77716869e-002 -4.72237803e-002 -5.80097660e-002
      -4.03184779e-002 -3.31433974e-002 2.49044481e-003 6.19100966e-003
      1.81295574e-002 2.18305178e-002 1.51649648e-002 1.52038559e-002
      2.26824936e-002 1.90739892e-002 9.73021891e-003 1.31234052e-002
      1.45803504e-002 3.51668947e-004 -1.50883915e-002 -2.00800803e-002
      -1.60405990e-002 -3.39340046e-002 -5.92800528e-002
      -5.58493026e-002 -1.57479104e-003 -5.87143982e-003 6.14019204e-003
      9.24328901e-003 -1.02392463e-002 -9.49360547e-004 3.86295980e-003
      5.75773744e-003 2.40634512e-002 2.49521844e-002 3.34152468e-002
      1.03218779e-002 -9.15016700e-003 -2.35958230e-002 -1.93608068e-002
      -3.43610831e-002 -3.37549672e-002 -3.14025395e-002
      -9.54039628e-004 2.32881377e-003 2.43039131e-002 1.86382756e-002
      1.60885863e-002 2.46400572e-002 2.27398667e-002 1.97690949e-002
      -4.47878381e-003 -1.20225577e-002 -1.28012141e-002
      -3.31995189e-002 -7.03910440e-002 -8.12266916e-002
      -8.92090574e-002 -9.60915834e-002 -5.49342260e-002
      -5.20086028e-002 -2.75403038e-002 -2.20552087e-002
      -6.53558597e-003 4.11404250e-003 4.34103468e-003 -7.45138247e-003
      3.40619481e-005 6.62748748e-003 2.29766425e-002 9.46337637e-003
      1.09823588e-002 -6.02500560e-003 -2.73588579e-002 -4.11073379e-002
      -3.80882174e-002 -4.74477001e-002 -1.90181937e-002
      -6.45547453e-003 3.37680429e-003 -9.22192540e-003 1.18953241e-002
      7.63923069e-003 6.34377869e-003 -2.34084809e-003 5.16874576e-003
      2.75589805e-002 4.98988805e-003 5.83257014e-003 9.62575618e-003
      -1.11692417e-002 -3.38343307e-002 -4.46776748e-002
      -4.99627069e-002 -5.15700579e-002 -3.21398564e-002
      -2.87408419e-002 -1.81391891e-002 -1.02993771e-002 8.24050512e-003
      5.51652489e-003 3.98364104e-003 9.25142504e-003 4.89715906e-003
      1.34575251e-003 1.51766874e-002 1.33363400e-002 2.63623353e-002
      7.72433821e-003 -1.63528603e-002 -1.47037497e-002 -1.16433175e-002
      -7.71012902e-003 -5.15177031e-004 3.25983800e-002 2.17630640e-002
      8.83229822e-003 1.68327857e-002 1.93306766e-002 1.50906732e-002
      9.69678350e-003 1.59830879e-002 1.94043685e-002 -5.22408052e-004
      -2.64438987e-003 -3.76067561e-004 -2.05763876e-002
      -2.15793140e-002 -3.19735259e-002 -2.16723606e-002
      -1.75490715e-002 7.89106300e-004 1.11410059e-002 8.34454037e-003
      -2.51462008e-003 5.06019080e-003 -2.56847241e-003 -2.95769772e-003
      -7.33820954e-003 -1.55597494e-003 5.08625386e-003 -1.84959359e-002
      -1.64801329e-002 -9.06318706e-003 -1.14821568e-002
      -1.45097477e-002 -3.65630984e-002 -3.05757653e-002
      -1.57566164e-002 7.90088088e-004 9.00619139e-004 1.35010919e-002
      1.05640786e-002 4.46325587e-003 -5.38927503e-003 5.29013388e-003
      -1.30674262e-002 -1.12883339e-003 -1.27775772e-002
      -1.60587225e-002 -1.25893429e-002 1.93368283e-003 -1.78779364e-002
      -3.22057903e-002 -2.48536617e-002 -2.15332266e-002
      -1.18035702e-002 8.25640396e-004 1.32329995e-002 6.78363862e-003
      -4.70688986e-003 -5.66593511e-003 5.08240424e-003 9.37841460e-003
      -4.11559595e-003 -2.00679270e-003 -1.27976062e-002
      -3.64048295e-002 -3.00192311e-002 -3.13706659e-002
      -2.78367493e-002 -2.98638958e-002 -3.57495211e-002
      -4.43648510e-002 -3.27265337e-002 -3.31717124e-003
      -6.43457053e-003 9.35453735e-003 4.01524408e-003 -3.61897727e-003
      -9.06556938e-003 -1.08212803e-003 -1.16253151e-002
      -8.69129132e-003 -2.50979215e-002 7.05440994e-003 -9.25343949e-003
      9.21690254e-004 -3.09674680e-004 -5.28714526e-003 -3.08997687e-002
      -2.70811915e-002 -1.69668533e-002 -3.63149215e-003 9.52666393e-004
      1.29224239e-002 2.16984674e-002 1.70562640e-002 9.37608909e-003
      1.64246392e-002 6.46880455e-003 1.51247056e-002 1.20744975e-002
      2.00408231e-003 -1.36010433e-002 -2.84814951e-003 -1.06354346e-002
      -1.61898322e-002 -2.82359757e-002 -2.92588789e-002
      -1.62392519e-002 1.96004822e-003 1.23761389e-002 7.32191280e-003
      1.32574616e-002 1.87414438e-002 1.22478623e-002 1.78619325e-002
      1.14262244e-002 1.54620698e-002 9.15257959e-004 -1.56312063e-002
      -2.19579116e-002 -2.59383190e-002 -1.93821397e-002
      -5.20022586e-003 -2.39358284e-002 -3.09106447e-002
      -4.07449082e-002 -4.84326156e-003 -1.03911869e-002
      -4.08570562e-003 1.19653996e-002 1.39710624e-002 -1.08401547e-003
      -1.43267517e-003 -7.90138077e-003 -6.56163273e-003
      -8.21602158e-003 -2.56736185e-002 -4.23041470e-002
      -1.45717654e-002 -2.45032515e-002 -1.48891443e-002
      -3.36908363e-002 -2.66281087e-002 -2.42351312e-002 5.04447566e-003
      -2.62104697e-003 -2.74364632e-002 -1.09830564e-002
      -1.14762006e-004 -3.66855529e-003 -1.04056196e-002
      -2.65753623e-002 -2.06378344e-002 -2.20113322e-002 1.55558595e-002
      5.73788956e-003 1.05895316e-002 1.59459151e-002 7.64287775e-003
      -4.08525520e-004 -1.31373871e-002 -1.74839962e-002
      -3.60628846e-003 9.13344789e-003 8.82757735e-003 -1.97300833e-004
      1.79748405e-002 9.52426251e-003 2.20015701e-002 1.22045809e-002
      2.26818603e-002 1.08406963e-002 5.32443356e-003 -7.46548874e-003
      1.02405781e-002 1.04183815e-002 2.08684965e-003 7.14182993e-003
      9.22166370e-003 -1.51670342e-002 -1.12592159e-002 -4.93934005e-003
      5.92144253e-003 -7.07023544e-003 7.19581544e-003 1.03176888e-002
      1.15309218e-002 2.66400911e-003 1.81649206e-003 -1.55430159e-003
      -2.02149227e-002 -3.15319672e-002 -5.16698835e-003
      -4.61368402e-003 -2.78376671e-003 -1.79400295e-002
      -1.65745486e-002 -1.40522206e-002 -1.51588011e-003 1.08645214e-002
      -2.28212178e-002 -1.94213558e-002 -1.32810837e-002
      -9.97846294e-003 -5.68471989e-003 -2.41863448e-002
      -2.25560367e-002 -1.76740512e-002 -2.02014260e-002
      -2.04165690e-002 -8.04110151e-003 -6.28375961e-003
      -6.23176200e-003 -4.70658811e-003 -8.72779638e-003
      -7.49546161e-004 -1.11704804e-002 5.17386803e-003 -2.98975967e-003
      -1.52893048e-002 -2.03903094e-002 -2.75270175e-002
      -7.57918507e-003 -1.44099984e-002 -2.51648948e-002
      -1.35837132e-002 2.04332848e-003 -4.05622413e-003 6.71078218e-003
      1.17275224e-003 -9.43206996e-003 7.54183799e-004 2.09144950e-002
      -3.23909638e-003 -2.14384892e-003 -7.96012022e-003 2.72621354e-003
      -3.77979479e-003 3.72086396e-003 2.39991909e-003 -1.04103459e-003
      -5.90087101e-003 8.83890502e-003 -9.82032623e-004 -2.59515992e-003
      7.59591488e-003 2.10273825e-003 1.17628062e-002 -2.03535194e-003
      4.77846945e-003 1.11756958e-002 -4.64866310e-003 -1.36297140e-002
      -1.67005491e-002 9.07824468e-003 -4.69056563e-003 -6.87525561e-003
      -7.49911461e-003 -7.17008673e-003 -4.10653604e-003
      -2.37520062e-003 -2.11251993e-002 -7.80571951e-003
      -1.01357056e-002 -1.79717522e-002 -2.25223191e-002
      -2.76768077e-002 -1.14346156e-002 1.70349283e-003 1.62052214e-002
      -2.64521176e-003 -4.94841719e-003 -6.93498063e-004
      -1.30456518e-002 -1.18805310e-002 -1.10565443e-002
      -9.57138557e-003 -7.89075810e-003 -8.16644356e-003 3.25041451e-003
      -3.55190760e-003 -2.65117735e-003 -1.10932058e-002
      -1.68080088e-002 -2.46816501e-002 -2.04604375e-003 2.20494127e-004
      1.24552855e-002 -1.01147853e-002 -1.38313835e-002 1.40987989e-002
      -1.42326264e-003 -1.14769870e-002 -9.72086936e-003
      -5.61937690e-003 6.32655015e-003 3.24232108e-003 6.16274448e-003
      -5.37082087e-003 3.77177354e-003 -1.88382075e-003 1.96198560e-002
      3.00106569e-003 9.28583089e-003 -7.63733545e-003 -1.52634811e-002
      -3.17021161e-002 -3.64159793e-002 -1.51321115e-002
      -2.58009713e-002 -1.96034908e-002 -1.46793406e-002 9.13846190e-004
      9.16983641e-004 -1.30600836e-002 -1.81308892e-002 -7.43402052e-004
      3.38352262e-003 1.68563670e-003 2.03981102e-002 3.51942517e-003
      1.30837951e-002 -7.43754068e-003 -1.05323019e-002 -1.73108093e-002
      -2.23167278e-002 -9.05051362e-003 -6.43221568e-003 7.25879986e-003
      -8.26796144e-003 1.98812075e-002 9.09580942e-003 2.51786727e-002
      9.80951008e-004 -2.31762952e-003 6.15793327e-003 5.97832492e-004
      -1.23155967e-003 -1.00870002e-002 4.67700558e-003 -1.92051027e-002
      -1.34854503e-002 -3.66882347e-002 -3.85201275e-002
      -1.01629468e-002 -1.42772263e-002 -1.49580166e-002
      -9.80767515e-003 5.31952875e-003 -5.00251213e-003 5.46852127e-003
      -2.42560566e-003 5.98410610e-003 2.60626394e-002 2.22440809e-002
      1.86717939e-002 6.72765961e-003 1.18641648e-002 -3.44557629e-004
      -1.34797825e-003 -1.98706463e-002 -1.26884095e-002 1.06179500e-002
      3.01680434e-003 1.78425507e-005 -7.26096157e-004 1.27284070e-002
      -1.50641112e-003 2.34524272e-002 -8.02182767e-004 -1.09104151e-002
      6.08788338e-003 -2.18865788e-003 8.54619872e-003 -9.43414215e-003
      -9.94712231e-004 -1.58729237e-002 -2.23444048e-002
      -2.69178618e-002 -2.71313041e-002 -2.01539006e-002
      -1.31101608e-002 -3.45553830e-003 -1.99215338e-002 3.66702653e-003
      -1.12918159e-002 3.25688347e-003 -2.20761988e-002 -2.45331191e-002
      -1.46089261e-003 1.16868573e-003 -4.36723093e-003 -1.46917151e-002
      -7.16192229e-003 -3.73335462e-003 -4.36765281e-003
      -3.28092501e-002 -1.86281167e-002 -4.41734865e-003
      -1.94595046e-002 -1.66070331e-002 -2.61917990e-002
      -6.59466907e-003 -1.33443717e-002 -6.46471325e-003
      -1.88079663e-002 1.07144855e-003 1.03927664e-002 4.88684326e-003
      1.00089214e-003 -1.36662582e-002 -1.20046651e-002 -1.34659829e-002
      -9.55765694e-003 -2.26286184e-002 -1.47262206e-002
      -3.35732917e-003 -3.45831667e-003 -1.02179572e-002
      -2.43897401e-002 -1.46393460e-004 -8.69397633e-003 6.96217827e-003
      -1.59233324e-002 -9.99789778e-003 9.72285587e-003 6.11730991e-003
      5.09604812e-003 -3.80094303e-003 4.87316540e-003 4.11403039e-003
      1.93431508e-002 -1.34003046e-003 -1.18660480e-002 1.65227801e-002
      9.92966164e-003 -4.07362450e-003 -2.48031206e-002 5.30210044e-003
      -6.86018670e-004 9.26101487e-003 -1.43731907e-002 -7.18554540e-004
      6.32147363e-004 1.45580585e-003 -3.92231811e-003 -1.62665881e-002
      -8.22050031e-003 -6.47489214e-003 -4.72476333e-003
      -2.00258214e-002 -9.84467566e-003 -5.21763507e-003
      -1.10814478e-002 -1.08122053e-002 -3.13206986e-002
      -7.57266185e-004 3.34643456e-003 1.87976323e-002 2.14147773e-002
      -6.57796673e-003 -9.54665709e-003 -6.49224780e-003
      -3.71743320e-003 -2.00988892e-002 -1.30569721e-002
      -6.78521115e-003 -5.01726521e-003 -2.49823779e-002
      -5.10249101e-002 -4.39100266e-002 -5.75669073e-002
      -5.99027090e-002 -7.69700035e-002 -5.64879179e-002
      -4.89683934e-002 -1.64675973e-002 -1.18691688e-002 5.16027771e-003
      8.89953785e-003 -2.62594945e-003 1.45035400e-003 -7.14581972e-003
      3.43829812e-003 2.48973537e-003 2.12176535e-002 6.66335505e-003
      2.15432444e-003 2.00454965e-002 1.23564843e-002 1.75232645e-002
      -4.19581134e-004 1.85035020e-002 1.31181637e-002 2.35698409e-002
      1.66767333e-002 6.61246106e-003 1.74311008e-002 2.78935768e-004
      8.10778048e-003 -1.04974182e-002 7.20788073e-003 8.65399279e-003
      1.63041018e-002 -1.41864382e-002 -2.21970212e-002 -1.65458079e-002
      -1.27599956e-002 2.95820413e-004 -2.08340064e-002 4.37444868e-003
      3.84457060e-003 1.08040432e-002 1.49982620e-003 1.24463737e-002
      5.95299108e-003 9.27482825e-003 2.20480971e-002 1.96745084e-003
      1.26766767e-002 7.72343110e-003 1.73525177e-002 3.34534817e-003
      -2.84366813e-002 -3.66300195e-002 -3.83039378e-002
      -3.86207849e-002 -3.25503461e-002 -2.95491554e-002
      -1.67121589e-002 -4.73026372e-003 7.72188592e-004 3.40190390e-003
      2.96101719e-003 -1.70643476e-003 4.36652033e-003 -5.85793518e-003
      6.50111074e-003 -5.76465065e-003 6.92119647e-004 -2.18014065e-002
      -4.06554416e-002 -6.14108182e-002 -3.65126953e-002
      -3.28407250e-002 -3.33402194e-002 -2.14568060e-002
      -1.55185275e-002 -1.86706427e-002 -7.77207594e-003 2.29913574e-002
      2.24740338e-002 1.30612329e-002 1.98984798e-002 1.86864734e-002
      2.46264655e-002 1.86936278e-002 2.96061486e-002 2.68387655e-003
      -1.32047059e-002 -1.08625218e-002 -1.56800840e-002 3.96260613e-004
      -2.28466373e-003 3.67503311e-003 7.82256015e-003 1.74711980e-002
      1.21401409e-002 8.93165730e-003 2.31874567e-002 1.62071548e-002
      1.61875784e-002 1.92339923e-002 3.24376635e-002 1.85969733e-002
      1.77836400e-002 -1.08953016e-002 -2.66873185e-002 -4.52491120e-002
      -3.01745422e-002 -1.73380636e-002 -1.82648059e-002
      -7.97995552e-003 2.39184289e-003 1.10861771e-002 3.70369898e-003
      -1.02244942e-002 4.51208465e-003 -1.00166319e-004 -1.22482376e-002
      -6.49501849e-003 -4.01541591e-004 -3.33481142e-003
      -4.63055447e-003 -2.51205880e-002 -3.52081135e-002
      -3.84803787e-002 -1.37783699e-002 -2.43020859e-002
      -3.19462307e-002 -2.26344261e-002 -5.30184247e-003
      -9.30540916e-003 -3.36617557e-003 -2.24349718e-003 1.55661888e-002
      2.26372350e-002 9.18698404e-003 1.60280336e-002 1.41337905e-002
      8.40092171e-003 5.96201187e-003 -9.91083588e-003 -2.97436230e-002
      -2.78342199e-002 -1.55020300e-002 -2.47677546e-002
      -1.83901507e-002 -3.65084177e-003 -3.09051317e-003 1.11294659e-002
      1.46130065e-003 -1.03728287e-002 2.33112965e-002 2.07790006e-002
      1.37164351e-002 1.69406310e-002 1.94591321e-002 1.53791374e-002
      2.66606570e-003 -2.43492378e-003 -2.73974296e-002 -2.60473061e-002
      -6.66640094e-003 -1.57078151e-002 -1.83382370e-002
      -1.53978281e-002 -4.17128997e-003 -4.80636116e-003
      -3.97028355e-003 2.25924654e-003 2.55011991e-002 2.63319649e-002
      2.65691224e-002 2.47651003e-002 1.92192160e-002 1.54276080e-002
      2.00177655e-002 1.19721573e-002 -4.24110424e-003 9.57829237e-004
      2.10063737e-002 -1.81968673e-003 -1.45062106e-003 1.34209997e-003
      -1.72406260e-003 4.30741860e-003 4.75538010e-003 -9.26967151e-003
      -6.82329154e-003 -1.37646915e-003 -2.17259233e-003 1.12048639e-002
      -2.71393848e-003 8.94290768e-003 -1.31278567e-003 -1.91697739e-002
      -6.18109806e-003 -1.34025123e-002 -1.56217478e-002
      -2.05157213e-002 -3.10977511e-002 -1.30657163e-002
      -1.87536012e-002 -7.98165705e-003 -3.38210328e-003
      -1.03158941e-002 -1.66105293e-002 -1.78190582e-002
      -5.73093770e-003 3.66836484e-003 -6.70848927e-003 2.72275298e-003
      -1.52168954e-002 -1.80769991e-002 -1.34500740e-002
      -7.28439400e-003 9.50999558e-003 5.02421567e-003 -6.65866444e-003
      -8.58856831e-003 -1.37031944e-002 -7.89785665e-003
      -1.06338952e-002 -9.92144365e-003 -3.68239032e-003 9.04493313e-003
      9.81080905e-003 5.71382977e-003 7.11154146e-003 4.69217217e-003
      -5.72458701e-003 -4.41966252e-003 4.06855438e-003 -1.84543268e-003
      -9.58039612e-003 -4.48381016e-003 -1.71153117e-002
      -2.29761368e-004 -7.99175978e-005 -3.24685406e-003
      -1.20048597e-002 -1.10661155e-002 -2.07750462e-002
      -1.32230679e-002 2.91963760e-003 -1.58037804e-002 -5.15253330e-003
      3.34801455e-003 -5.15560899e-003 2.43990240e-003 -5.85360965e-003
      2.68695690e-003 1.23977102e-002 1.43474732e-002 2.22701277e-003
      8.98062624e-003 -3.35574616e-004 -3.76124190e-005 -7.80387782e-003
      -3.53861228e-003 -4.71838377e-003 -3.93795455e-003
      -5.93470037e-003 -1.27324322e-003 -1.07898768e-002
      -1.81551352e-002 -4.22901660e-002 -6.06910549e-002
      -6.95018470e-002 -3.16643305e-002 -1.37646860e-002 4.18633176e-003
      2.08085612e-003 -3.66056548e-003 -1.61787029e-003 -1.00585138e-002
      -9.21766553e-003 1.20536368e-002 1.98141225e-002 2.51623746e-002
      1.73864514e-002 1.77873764e-002 -8.44761450e-003 -3.45224142e-003
      -3.04688234e-002 -3.94503511e-002 -5.09552993e-002
      -2.53250897e-002 -6.17088052e-003 7.76410941e-003 9.69510991e-003
      1.22677013e-002 1.88192409e-002 1.88716985e-002 1.28270686e-002
      -8.09412682e-004 -3.93825490e-003 -7.86809530e-003 3.73693067e-003
      -1.48851499e-002 -1.73065830e-002 -1.39688710e-002
      -2.51517631e-002 -3.52278240e-002 -4.75232303e-002
      -2.69146450e-002 -5.28467540e-003 1.19401198e-002 8.33000429e-003
      1.45789441e-002 1.21083148e-002 -1.32497924e-003 -3.21031059e-003
      2.58901697e-002 3.22723910e-002 2.47092173e-002 3.21550854e-002
      2.13573650e-002 1.01012150e-002 2.53741106e-004 -4.35880572e-003
      -2.14128681e-002 -2.92366352e-002 -2.04883516e-002
      -1.20582404e-002 1.04089873e-002 1.20010870e-002 1.29571762e-002
      1.43808201e-002 2.82969028e-002 3.10075171e-002 -3.06202192e-003
      9.68080852e-003 6.15282310e-003 3.60128400e-003 -2.95148767e-003
      -2.77660657e-002 -3.06387432e-002 -4.52116281e-002
      -4.03941944e-002 -5.12354523e-002 -5.15297540e-002
      -3.63621823e-002 -1.55831920e-002 -7.93062430e-003
      -6.29356503e-003 -1.13133166e-003 8.82066495e-004 -5.07558789e-003
      1.32141970e-002 1.69512648e-002 2.48312652e-002 1.51785212e-002
      -1.37150509e-003 -1.35819754e-003 -5.80072077e-003
      -1.78626867e-003 -6.87338971e-003 -3.82853928e-003
      -1.04494137e-003 -1.67834349e-002 -1.07168509e-002 1.38215972e-002
      9.83457547e-003 -4.74724267e-003 1.09905787e-002 1.87845912e-003
      -1.82743650e-003 8.91902391e-003 5.90874231e-004 2.75734230e-003
      1.61050668e-003 -1.05706267e-002 -2.09450610e-002 -2.68525518e-002
      -4.12924252e-002 -4.62603569e-002 -6.19570091e-002
      -5.38623072e-002 -2.08981279e-002 -1.24131711e-002
      -9.18199401e-003 -1.60350446e-002 2.24891468e-003 1.20929005e-002
      5.76784601e-003 6.33982336e-003 8.65729060e-003 1.06689194e-003
      2.69671757e-004 5.79618383e-003 -1.70878042e-003 -4.42658458e-003
      -1.27525153e-002 -1.82528384e-002 -2.07853280e-002
      -2.78002284e-002 -2.38919724e-002 9.54609364e-003 8.01003259e-003
      -1.29151167e-002 -1.38124218e-002 4.76936577e-003 1.58576958e-003
      1.25182138e-004 1.00086145e-002 -6.09346479e-003 -1.36812888e-002
      -9.11203958e-003 -1.59963146e-002 -7.73304841e-003
      -7.01707439e-004 5.35715744e-003 3.33719945e-004 -9.74763837e-003
      -2.13759206e-002 9.04543046e-003 1.14358040e-002 -2.86136311e-003
      6.78228680e-003 1.06518087e-003 -2.18099151e-002 -1.97439343e-002
      -4.06519361e-002 -3.34798694e-002 -2.60883290e-002
      -2.51920093e-002 -3.30977105e-002 -2.41773166e-002
      -1.48030592e-003 -9.41842271e-004 -3.55754630e-004
      -1.59647875e-002 -2.34454982e-002 -1.38012813e-002
      -4.05339757e-003 -1.17885778e-002 -1.49213895e-002
      -7.36953365e-003 1.61761902e-002 6.15977915e-003 3.68940760e-003
      -1.51654352e-002 -1.47917066e-002 -3.42404959e-003
      -1.09882401e-002 -6.74884999e-003 6.09245209e-004 9.36826970e-003
      -7.96958455e-004 -2.37568263e-002 -2.73369458e-002
      -6.69990527e-003 1.68135390e-002 -5.20648481e-003 -8.96501262e-003
      1.14679337e-002 -9.46002733e-003 -3.34719825e-003 -1.41977519e-002
      -2.08142344e-002 -2.23235656e-002 -1.84006430e-002
      -2.18918566e-002 -1.39766308e-002 -1.48208591e-003
      -5.72016928e-004 7.37841707e-004 -2.68654265e-002 -3.52548510e-002
      -4.13543433e-002 -5.59782563e-003 -2.26588976e-002
      -2.24603266e-002 -1.32236769e-002 -8.16777349e-003
      -1.28603913e-002 -2.83684786e-002 -1.00900391e-002 3.86002869e-003
      -5.73460013e-003 -9.64095537e-003 -1.31749967e-002 1.11993887e-002
      8.79915431e-003 -2.11918424e-003 -2.65032519e-003 -1.07178108e-004
      -1.45599898e-002 -1.02817789e-002 -7.16757774e-003
      -1.07956706e-002 9.13353462e-004 -1.49513800e-002 -2.52496488e-002
      -1.28867924e-002 -1.29934726e-002 -2.53319112e-003
      -5.34731802e-003 -6.56407373e-003 9.95116192e-004 1.82761829e-002
      1.46139394e-002 -2.46471353e-002 -1.46780210e-002 -1.20228752e-002
      -1.81867164e-002 -2.43417993e-002 -1.59079637e-002
      -1.31334821e-002 -2.06855759e-002 -1.08156241e-002
      -9.43760108e-003 -1.62447132e-002 -1.14060789e-002 7.25044869e-003
      1.47200807e-003 5.30242454e-003 9.47792921e-003 2.18410324e-002
      1.76786222e-002 9.90990899e-004 -4.14115749e-003 -3.44446138e-003
      -2.59412173e-002 -1.62656102e-002 -6.06881408e-003
      -1.55288950e-002 -1.19273961e-002 -1.45805450e-002
      -2.59772148e-002 -2.27711238e-002 -2.75859907e-002
      -7.32724322e-003 7.15411175e-003 5.49015636e-003 1.17361862e-002
      2.71148831e-002 1.26332594e-002 7.14329479e-004 1.00448951e-002
      7.11895758e-004 -1.33124515e-002 -8.47904291e-003 6.03836495e-003
      3.47147393e-003 -1.15669146e-002 -1.89681854e-002 -1.90031063e-002
      2.25115436e-004 -3.73570342e-003 9.53471463e-004 -1.00632655e-002
      -1.53609645e-002 3.38708237e-003 1.52644487e-002 9.27911326e-003
      -1.42209558e-002 -8.53783917e-003 -1.99223869e-002
      -1.76868811e-002 -1.64991263e-002 -1.71962939e-002
      -2.04477757e-002 -1.85103510e-002 -2.53925659e-002
      -1.24288080e-002 -1.05182165e-002 -7.61913788e-003
      -7.38943461e-003 -1.83178708e-002 -1.88281145e-002 1.41312657e-002
      1.22910207e-002 1.98559668e-002 8.62455275e-003 1.87408936e-003
      -9.44301020e-003 -1.64006203e-002 -3.81171168e-003
      -9.91845783e-003 -2.48631891e-002 -2.01400984e-002
      -8.28181487e-003 -9.57156345e-003 -7.02485815e-003
      -2.15124469e-002 -8.99108313e-003 -2.84175575e-003
      -3.10694310e-003 1.08544901e-002 1.25273475e-002 9.06697661e-003
      6.48865383e-003 1.46949207e-002 2.42032507e-003 1.34885835e-003
      3.48361977e-003 2.16271766e-002 1.11800767e-002 6.27498794e-003
      -1.15678059e-002 -1.51237780e-002 -1.24233691e-002
      -1.12001328e-002 -7.40016485e-003 -5.48176421e-003 3.54802562e-003
      2.07555220e-002 2.39511300e-002 2.11229194e-002 2.74632778e-002
      1.35720083e-002 1.24378339e-003 -4.75964323e-003 -3.08746099e-003
      4.60602297e-003 -4.31925897e-003 -2.05331901e-003 -1.95235014e-002
      -6.62019756e-003 -1.88395865e-002 -1.54418293e-002
      -2.40707174e-002 -1.46878082e-002 -1.41299060e-002
      -6.01808494e-003 -3.53803230e-003 -5.65007702e-003
      -4.82571032e-003 -1.22460136e-002 -1.15924161e-002
      -1.52577776e-002 -1.13742808e-002 -2.92129349e-003
      -4.15943377e-003 -7.06212176e-003 -2.27162428e-003 2.72567454e-003
      -9.86489933e-003 -1.36147216e-002 -1.74530018e-002
      -3.31376633e-003 -8.76982324e-003 4.50886739e-003 -1.62384529e-002
      -2.18500327e-002 -3.27022304e-003 -3.14942189e-003
      -8.72256421e-003 -4.92382562e-003 4.46323771e-003 1.70160756e-002
      2.21084598e-002 1.03161167e-002 -9.68179107e-003 -9.90870968e-003
      -1.24379629e-002 -9.17177554e-003 -1.35780452e-002
      -6.49443641e-003 3.24052060e-003 -1.14383001e-003 2.95846979e-003
      1.21131893e-002 1.64186154e-002 1.24852341e-002 5.28793037e-003
      -9.31441225e-003 -4.75649751e-004 5.01677766e-003 3.51951341e-003
      -3.04233981e-003 1.08786756e-002 1.34808412e-002 4.91388980e-003
      3.37813469e-003 1.12281775e-003 7.40704080e-003 3.04576801e-003
      1.75732456e-003 -3.44430766e-004 9.02126834e-004 1.01106307e-002
      1.51865249e-002 1.09193800e-002 5.95677353e-004 7.20645441e-003
      2.02461965e-002 2.23348383e-002 1.31850559e-002 -1.41037377e-002
      -4.05489281e-003 -1.61234774e-002 -1.91319138e-002
      -2.98636965e-002 -1.22487471e-002 -3.45001072e-002
      -1.69549342e-002 -5.11150025e-002 -4.26207557e-002
      -1.76162757e-002 -8.96697864e-003 -1.35558899e-002
      -1.05646197e-002 2.70191021e-003 -9.49289650e-003 4.39015962e-003
      -1.51697593e-002 -5.20610297e-003 1.69591326e-002 1.02309380e-002
      1.26060913e-004 -8.39255657e-003 1.78879732e-003 8.89031508e-004
      7.98607990e-003 -1.90128107e-002 -8.17661267e-003 4.58016107e-003
      -4.64926055e-003 -6.23298157e-003 -1.01003861e-002 7.14175031e-003
      -1.07882647e-002 7.97771290e-003 -1.52365873e-002 -7.77816051e-004
      1.84607168e-003 -2.17345115e-002 -1.43039208e-002 -1.25867948e-002
      -7.29768362e-004 -1.68612879e-002 -5.69515210e-003
      -1.94628499e-002 -2.22295243e-002 -2.95641104e-004 7.67689059e-003
      9.85152274e-003 -9.00282804e-003 6.59077521e-003 -7.23217940e-003
      5.77734364e-003 7.09518790e-004 -4.99456329e-003 1.48524605e-002
      3.72325419e-003 7.65785668e-003 9.55281407e-003 3.64385992e-002
      2.85479464e-002 4.32384126e-002 -7.46758701e-003 -2.09706865e-004
      2.80391071e-002 1.80878043e-002 1.26257977e-002 -1.47600546e-002
      9.80152003e-003 -1.30296713e-002 1.08079379e-003 -6.51107775e-003
      -8.83559883e-003 7.90061709e-003 8.57593725e-004 -1.58456294e-003
      -3.00353747e-002 -1.62825510e-002 -1.11745279e-002
      -1.10086976e-002 -3.25238816e-002 -3.07443459e-002
      -1.25287324e-002 -2.00757533e-002 -1.54888583e-002
      -2.70898044e-002 -1.02976302e-003 -1.60482638e-002
      -4.64905845e-003 -1.98864881e-002 -1.91543791e-002 8.07360932e-003
      3.70874465e-003 1.17821237e-002 -1.75273642e-002 -7.91013800e-003
      -5.77000249e-003 7.59431208e-003 -1.38122076e-002 -2.03224048e-002
      9.88537795e-004 -8.08350369e-003 -4.30495804e-003 -2.55906880e-002
      -6.33022003e-003 -3.68794682e-003 1.16945356e-002 -1.89557653e-002
      -3.10669839e-002 -2.19248584e-003 3.07757617e-003 8.23957566e-003
      -7.52893323e-003 1.78020392e-002 1.16289984e-002 1.81044992e-002
      -1.85697302e-002 -1.48219829e-002 7.91449100e-003 -2.85381381e-003
      -1.54956791e-003 -2.41143182e-002 -5.62459975e-003
      -2.22078264e-002 -1.70100238e-002 -2.95120608e-002
      -4.18752730e-002 -2.91695166e-003 1.10084899e-002 1.38572427e-002
      -1.39698852e-002 1.82339251e-002 1.10432720e-002 2.68180612e-002
      -1.58067103e-002 -1.09761246e-002 1.83807332e-002 7.52096716e-003
      1.09581752e-002 -2.11541541e-002 5.94494212e-003 -3.38333216e-003
      1.42228017e-002 -2.21685022e-002 -1.62862930e-002 6.66820956e-003
      -1.06716631e-002 -1.77754986e-003 -1.83426216e-002
      -3.18787107e-003 -4.46128310e-004 1.87717695e-002 -1.67906750e-004
      -1.49080176e-002 4.29634878e-004 -1.50274625e-003 1.75477727e-003
      -1.30901113e-002 5.07064862e-003 9.06591769e-003 1.86896008e-002
      -5.41539909e-003 -1.41508654e-002 9.93893202e-003 -1.57651976e-002
      -1.07028298e-002 -2.29085106e-002 -1.47300912e-002
      -1.20527185e-002 -1.93841115e-003 -2.09748987e-002
      -3.96348312e-002 -3.25372182e-002 -2.17343811e-002
      -9.96362767e-004 -1.79366320e-002 -4.45869844e-003
      -5.92816807e-003 1.03125582e-002 -1.07709812e-002 -2.46280227e-002
      5.06486557e-003 -2.20091970e-004 1.23461438e-002 -5.15823299e-003
      2.07547322e-002 2.23892946e-002 3.25976759e-002 -2.16056756e-003
      -1.72069464e-002 -2.03717477e-003 -4.11872279e-005 3.07492819e-003
      -1.48294847e-002 8.55580345e-003 8.45872052e-003 2.46414971e-002
      -7.42205931e-003 -6.78605167e-003 5.28399600e-003 -1.80589147e-002
      -3.22065083e-003 -2.08096635e-002 -8.67536291e-003
      -6.18697656e-003 -8.18185229e-003 -3.69167440e-002
      -3.92450206e-002 -3.55686508e-002 -1.94010884e-002
      -1.20890075e-002 -1.06773321e-002 -1.35830685e-003
      -2.43182294e-003 1.23027144e-002 -5.51940408e-003 1.34411724e-002
      1.15286307e-002 1.00053539e-002 1.39296968e-002 1.31445527e-002
      1.48987863e-002 7.10733654e-003 1.24571687e-002 -2.14889925e-003
      -4.03317111e-003 -1.42628057e-002 -7.20728422e-003 1.23288920e-002
      2.17110990e-003 9.06989165e-003 1.21533191e-002 2.34674644e-002
      1.12659000e-002 5.93020050e-005 6.48879074e-003 6.48645079e-003
      1.12662194e-002 6.79541845e-003 2.23622378e-002 6.74438523e-003
      1.11495797e-003 -3.22135687e-002 -4.35874090e-002 -3.80917750e-002
      -2.63517257e-002 -2.32528485e-002 -2.52392832e-002 9.61404387e-003
      7.57556735e-003 2.05805115e-002 5.67443296e-003 1.31293582e-002
      1.33455154e-002 5.82698314e-003 1.40000274e-002 5.30474540e-003
      7.21685076e-003 2.81115575e-003 -1.53943012e-003 -1.84467379e-002
      -9.00562666e-003 -1.38998087e-002 8.28605518e-003 1.22433091e-002
      1.64431110e-002 2.21475028e-002 3.00842524e-002 3.04337312e-002
      1.34154288e-002 -3.71005223e-003 -1.76671632e-002 -2.23791711e-002
      -1.08083272e-002 -1.44018987e-002 1.33244088e-003 -1.27105620e-002
      -2.51647644e-002 -4.54676822e-002 -3.91820483e-002
      -1.82059295e-002 -1.29808579e-002 -7.09505659e-003
      -1.69047751e-002 1.34110199e-002 1.42793935e-002 1.73743535e-002
      4.86367708e-003 -3.48713598e-003 1.18365912e-002 1.37030603e-002
      1.61817018e-002 5.55644464e-003 1.42963640e-002 1.15220631e-002
      8.89913738e-003 -1.25960037e-002 -3.41949314e-002 -1.24679394e-002
      -1.03040617e-002 -9.28044412e-003 -1.10626593e-002 1.63015444e-003
      3.04949936e-003 1.40877962e-002 9.16355848e-003 -5.66183636e-003
      1.31590255e-002 1.76885240e-002 1.99019536e-002 8.48855078e-003
      8.95875972e-003 1.61423162e-002 2.77507696e-002 -1.44969276e-003
      -1.39903296e-002 -1.77275843e-003 1.92583762e-002 5.48618753e-003
      -2.22615548e-003 3.46965482e-003 2.89133703e-003 4.83794510e-003
      -8.27355310e-003 6.11211034e-003 -2.06500087e-002 -1.73144359e-002
      -8.46592151e-003 -6.32079225e-003 -4.60178778e-003
      -3.23602464e-003 -3.67829879e-003 -2.23010592e-002
      -4.28488739e-002 -3.69569333e-003 -7.34958099e-003 9.40931321e-004
      -1.06163276e-002 2.87434319e-003 -1.13021408e-003 9.32114758e-003
      1.10594165e-002 1.52568156e-002 -8.39114282e-003 -3.82690737e-003
      1.12701328e-002 5.96829318e-003 1.16324425e-002 1.18204253e-002
      1.03882654e-002 -1.95821282e-002 -3.73217426e-002 -1.02480473e-002
      1.41730253e-002 1.80715341e-002 7.64057832e-003 5.94569696e-003
      -2.11792812e-003 1.32812550e-002 4.47176537e-003 -1.27237085e-002
      -1.09666269e-002 7.36646075e-003 9.89177451e-003 -1.39755243e-002
      8.65184338e-005 6.11783355e-004 -7.74291018e-003 -9.83637664e-003
      1.98956230e-003 -7.89676327e-004 -6.16030581e-003 -3.27169010e-003
      -4.64844471e-003 5.69859287e-003 1.27549761e-003 -1.97415780e-002
      -3.31998318e-002 -8.79483018e-003 -1.87951159e-002
      -8.62720050e-003 1.06882108e-002 -1.26229730e-002 -1.21786129e-002
      6.08840864e-003 -5.02814120e-003 -1.13209002e-002 -8.32570996e-003
      -9.50112822e-004 -5.24289673e-003 -1.88864837e-003 3.33592715e-003
      1.98174641e-003 7.15358125e-004 -1.30329351e-003 -4.99471463e-003
      -6.86464412e-003 -2.17562588e-003 1.52779799e-002 1.16829183e-002
      -7.53517868e-003 1.50376232e-004 5.24237379e-003 -9.17201769e-003
      -1.08648054e-002 -1.04131131e-002 -7.10299192e-003
      -8.23082402e-003 2.49573169e-003 1.71733350e-002 1.38071096e-002
      -4.70592786e-004 -6.49429904e-003 -1.46450847e-002
      -1.41369859e-002 -1.38706593e-002 -1.46232452e-003 1.04799978e-002
      1.83615787e-003 -7.24677602e-003 3.67332087e-003 -3.94362072e-003
      -1.09338164e-002 -1.96133349e-002 -5.83011517e-003
      -1.90189853e-002 -2.21607834e-002 -1.64386656e-004 3.71915544e-003
      -9.43201827e-004 -1.08946580e-003 -1.28798056e-002
      -8.27652588e-003 -5.82953403e-003 -1.10013112e-002 3.68969049e-003
      -1.39041021e-002 -2.45290678e-002 -6.57548476e-003
      -2.59849895e-002 -3.72458994e-002 -4.53491621e-002
      -2.69151870e-002 -1.71561260e-002 -1.03565371e-002 5.85983880e-003
      1.00423219e-002 8.67794082e-003 2.03226833e-003 -3.46145825e-003
      1.82166025e-002 2.49994528e-002 1.37589267e-002 2.10033637e-002
      1.31632416e-002 8.47642310e-003 1.29725523e-002 -3.60225933e-003
      -1.25136655e-002 -3.53537649e-002 -3.94458435e-002
      -3.71285751e-002 -1.06399227e-002 5.00949798e-003 8.25244002e-003
      1.85933895e-002 2.94435229e-002 2.22206656e-002 -8.24578758e-003
      -9.63118672e-003 -1.17787374e-002 -4.96542128e-003
      -7.07290228e-003 -1.53112188e-002 -4.94037662e-003
      -2.48765945e-002 -3.37190330e-002 -3.57355811e-002
      -3.30722034e-002 -3.91585194e-002 -2.93133594e-002 1.16329023e-003
      8.08660407e-003 -7.83068873e-003 2.75491620e-003 -1.00598615e-002
      2.33765673e-002 2.11616103e-002 1.36650186e-002 9.39797796e-003
      9.97095276e-003 1.80467032e-002 2.35157628e-002 2.24981527e-003
      -1.54082384e-002 -3.41881365e-002 -4.75021005e-002
      -4.54863831e-002 -4.79724631e-002 -5.05532371e-003 2.08312999e-002
      2.11392213e-002 3.77405770e-002 3.18552256e-002 5.41366637e-003
      -1.00764190e-003 1.93826458e-003 -5.78510109e-004 -5.71139390e-003
      -1.07992105e-002 -4.03731712e-004 -9.12759826e-003
      -2.52178777e-002 -4.38304134e-002 -5.62135316e-002
      -6.56812415e-002 -2.99173892e-002 -1.09438039e-002
      -1.87352411e-002 -8.66141543e-003 5.24573307e-003 1.84611697e-002
      3.83681641e-003 -6.56712707e-003 5.79252560e-003 -1.11737754e-002
      -5.35704987e-003 4.03262413e-004 -1.83708384e-003 1.52987265e-003
      -1.30670855e-003 -7.85116758e-003 -1.65890325e-002
      -2.70839557e-002 -1.68814007e-002 4.42248024e-003 -9.32659581e-003
      -7.21621513e-003 -6.09911513e-003 1.50697445e-002 1.07801706e-002
      4.08010883e-003 -2.56430102e-003 -6.09268481e-003 -6.14609662e-003
      4.73120599e-004 8.07290524e-003 -5.87963173e-003 -2.17610132e-002
      -3.72224785e-002 -5.98156229e-002 -7.27194399e-002
      -6.47045895e-002 -4.46927287e-002 -2.16684043e-002
      -5.31422906e-003 4.47347295e-003 2.00795420e-002 8.42921901e-003
      6.96817087e-003 1.00313099e-002 2.03052955e-003 1.04299393e-002
      1.20668178e-002 1.16994167e-002 1.71624608e-002 1.41340811e-002
      5.41479047e-003 -1.51622510e-002 -2.61582788e-002 -2.07000710e-002
      -2.20068898e-002 -2.71064099e-002 -1.45400958e-002
      -1.29921129e-002 2.89905793e-003 -2.38614483e-003 -7.10138166e-003
      -2.79907254e-003 -1.09075429e-002 -1.86972078e-002
      -7.19698472e-003 -2.64025778e-002 -1.99758057e-002
      -1.12853916e-002 -7.04449136e-003 -1.79940686e-002
      -3.39960158e-002 -3.01056951e-002 -1.68617740e-002
      -2.59973388e-003 -8.04075412e-003 -3.20314919e-003 3.55607900e-003
      -1.72434896e-002 -8.66348110e-003 -5.81317954e-003
      -9.55350231e-003 -2.45880876e-002 -9.23295319e-003
      -3.06026079e-002 -2.52526253e-002 -1.37358950e-002
      -7.20197801e-003 -1.51543571e-002 -3.30282561e-002
      -3.00488602e-002 -4.42054085e-002 -1.15156192e-002
      -2.05319934e-002 -1.59369092e-002 -1.33535452e-002
      -3.44253052e-003 -3.48438066e-003 8.89501534e-003 5.09582600e-003
      -3.50328465e-003 -3.98719963e-003 -8.45202897e-003
      -1.10575976e-002 -2.90888199e-003 -2.29608756e-003
      -1.66290794e-002 -9.87645332e-003 -1.30207138e-002
      -2.21374929e-002 -3.25470716e-002 -9.58188530e-003
      -1.04285777e-002 -3.77539336e-003 -8.02595261e-003
      -6.87041273e-003 3.81199620e-003 7.11958157e-003 -1.13366926e-002
      8.23455490e-003 -2.54030563e-002 -1.67570878e-002 -6.30009826e-003
      -3.18336010e-004 -1.14038596e-002 -1.98528115e-002
