<?xml version="1.0"?>
<opencv_storage>
<my_svm type_id="opencv-ml-svm">
  <svm_type>C_SVC</svm_type>
  <kernel><type>LINEAR</type></kernel>
  <C>1.0000000000000000e-002</C>
  <term_criteria><epsilon>1.1920928955078125e-007</epsilon>
    <iterations>2147483647</iterations></term_criteria>
  <var_all>9504</var_all>
  <var_count>9504</var_count>
  <class_count>2</class_count>
  <class_labels type_id="opencv-matrix">
    <rows>1</rows>
    <cols>2</cols>
    <dt>i</dt>
    <data>
      0 1</data></class_labels>
  <sv_total>1</sv_total>
  <support_vectors>
    <_>
      -2.47302242e-002 -2.06892490e-002 -4.13856376e-003 7.20050698e-003
      -9.98622831e-003 -1.87464263e-002 -1.68059450e-002
      -2.20289901e-002 -5.70537597e-002 -2.10081544e-002 1.43288672e-002
      2.64889617e-002 2.32592057e-002 6.27658004e-003 1.17024379e-002
      1.14231752e-002 2.55842470e-002 -8.04414786e-003 -1.83064397e-002
      -2.08432656e-002 2.81596254e-003 6.04381552e-003 1.00710718e-002
      -1.51412636e-002 -1.41171571e-002 -6.52935705e-004
      -4.24004830e-002 -5.37817739e-003 1.40388822e-002 6.67572441e-003
      1.38205057e-002 1.54707804e-002 1.05250226e-002 7.73081835e-003
      -2.03435775e-003 -2.46264786e-002 -1.68762431e-002
      -1.33722611e-002 -1.46592576e-002 -2.44622435e-002
      -7.11385347e-003 -2.44304165e-002 -2.78240610e-002
      -2.62139793e-002 -3.90048139e-002 1.33264000e-002 2.74549723e-002
      3.24797072e-002 3.99310589e-002 1.91971194e-002 2.51221959e-003
      1.75413061e-002 2.68289223e-002 2.46334588e-003 -4.32087928e-002
      1.66399928e-004 -4.53887461e-003 -1.96282496e-003 -9.16441530e-003
      -1.25969956e-002 -1.05924318e-002 -4.31942102e-003
      -1.68180149e-002 1.53166000e-002 2.63697598e-002 -1.29010007e-002
      2.72682998e-002 1.22341868e-002 1.88688561e-002 1.33599117e-002
      1.72610767e-002 -1.52699035e-002 -1.50779635e-002 -3.08813471e-002
      -4.90833307e-003 -9.73601174e-003 3.17506987e-004 -2.87225414e-002
      -1.18189827e-002 -2.88618058e-002 -9.09477193e-003 1.75892711e-002
      1.33848097e-002 2.86155008e-002 4.32984084e-002 2.87338458e-002
      3.78022529e-003 2.80006509e-002 3.12208347e-002 1.43678403e-002
      -2.56815758e-002 -4.20788899e-002 -4.02137823e-002
      -1.90507360e-002 -1.51751209e-002 -2.86116656e-002
      -2.26931944e-002 -4.89393398e-002 -4.87622954e-002
      -8.50859098e-003 -6.42921485e-004 1.70621257e-002 3.34922001e-002
      3.09889764e-002 2.67878398e-002 2.90716123e-002 3.20586786e-002
      4.72315028e-003 -1.58105753e-002 -1.04219569e-002 4.81637847e-003
      5.78020979e-003 8.61562788e-003 -6.66956371e-003 1.07210122e-004
      -1.27953896e-002 -5.31024719e-003 1.70779824e-002 2.19488051e-003
      -2.42660083e-002 2.23108921e-002 1.16117997e-002 1.12620238e-002
      1.48634436e-002 1.54919419e-002 1.32041331e-002 -3.43036763e-002
      -1.38689298e-002 -2.19553523e-002 -1.77670810e-002
      -1.41116092e-002 -2.49215402e-002 -2.92284749e-002
      -3.23770903e-002 -2.82403082e-002 -5.81392972e-003
      -1.65062938e-002 1.06830001e-002 3.24472077e-002 2.53644008e-002
      2.78369728e-002 1.72257274e-002 8.44711810e-003 4.03857441e-004
      -3.94603908e-002 -3.98217887e-002 -4.99534011e-002
      -2.60349289e-002 -1.25097772e-002 -1.50580518e-002
      -1.38171203e-002 -1.85679551e-002 -4.26663756e-002
      -2.41074190e-002 3.07400897e-003 2.54801083e-002 3.36078778e-002
      1.79966614e-002 3.85123864e-002 1.79678258e-002 2.13405006e-002
      -8.62816442e-003 -2.12947885e-003 -1.19430609e-002
      -1.36936950e-002 -6.76238211e-003 -5.54869068e-004 9.86806769e-003
      1.48944985e-002 -8.09871964e-003 -3.13917287e-002 -1.75552070e-002
      5.49259922e-003 6.96930848e-003 1.27839809e-002 1.06829777e-002
      1.82204098e-002 -2.03845045e-003 -1.15221431e-002 3.89978336e-003
      -2.96485685e-002 6.06934819e-003 -1.19327074e-002 -1.40464343e-002
      -1.10244527e-002 3.21526243e-003 1.03937334e-003 -1.02445658e-003
      -1.68837979e-002 -5.50565543e-003 3.41076814e-002 4.10460867e-002
      4.19038385e-002 3.84723023e-002 4.94768992e-002 2.65096184e-002
      1.30282920e-002 -3.42800887e-003 -4.73642116e-003 2.40223799e-002
      1.81820686e-003 -1.26929749e-002 -8.55275895e-003 3.25698704e-002
      2.15008259e-002 1.83487125e-002 -1.79394744e-002 -9.03426576e-003
      3.29783140e-003 -7.86580611e-003 1.57990120e-002 -5.18755475e-003
      8.92609358e-004 -5.06230257e-003 -1.01581141e-002 -2.73369183e-003
      3.54149868e-003 -1.11388890e-002 1.32776471e-002 1.47948805e-002
      1.36755947e-002 1.45963561e-002 1.72783304e-002 -3.16698756e-003
      -7.12757930e-004 2.32020905e-003 2.17949282e-002 1.31464247e-002
      3.80018237e-003 6.36643637e-003 1.03389798e-003 -1.08392502e-003
      -2.56832354e-002 -5.43083251e-003 -1.12258247e-003 1.94089059e-002
      2.01590471e-002 2.27722134e-002 2.60350909e-002 1.35457823e-002
      1.35204825e-003 -7.55976234e-003 -3.40121761e-002 -6.43191626e-003
      3.80600840e-002 1.19992988e-002 2.11842675e-002 2.48922706e-002
      1.47618158e-002 6.29290473e-003 7.94486783e-004 2.20766347e-002
      3.17671197e-003 -2.72592367e-003 -2.75499858e-002 -2.87171863e-002
      3.90965817e-003 2.52708141e-002 2.53518075e-002 -4.50441352e-004
      -1.22751025e-002 -1.31930225e-002 3.18118487e-004 -8.65711551e-003
      6.10472821e-003 -1.50787388e-003 -1.89705491e-002 -6.17944077e-003
      -2.76742317e-002 -2.28060759e-003 -3.51115363e-004 8.45303293e-003
      -9.96304490e-003 -1.35183241e-002 2.04515997e-002 2.98038255e-002
      1.10735390e-002 -2.20969375e-002 -2.99483035e-002 -2.44704820e-002
      2.28735767e-002 2.38583107e-002 1.43453926e-002 4.01326865e-002
      8.56744533e-004 1.49897244e-002 -1.52502889e-002 -1.01500852e-002
      -8.92534200e-003 -2.99427775e-003 -1.35704270e-002
      -1.94334853e-002 1.92295201e-002 1.14473393e-002 -1.74468923e-002
      7.42425967e-004 2.73380079e-003 1.09091848e-002 2.45952569e-002
      1.33542606e-004 1.06284069e-002 1.30355116e-002 4.53036465e-003
      -7.93824438e-003 1.21698976e-002 2.73324866e-002 -1.47947203e-002
      -2.90715080e-002 -5.36373481e-002 -2.48537641e-002
      -1.42162377e-002 -2.10445691e-002 -2.23421715e-002
      -1.16549302e-002 -4.18904191e-003 1.76409158e-004 -1.05895679e-002
      -7.29004201e-003 7.23306602e-003 2.29986943e-002 1.97265558e-002
      3.67312040e-003 3.22404467e-002 3.11131384e-002 -9.65057593e-003
      -1.04106674e-002 -2.66117174e-002 -1.60726048e-002
      -7.45532010e-003 3.72809649e-004 -1.02960225e-003 -1.58215854e-002
      3.07890610e-003 1.80511642e-002 2.58027744e-002 1.41939223e-002
      2.01595686e-002 2.72587035e-002 2.88907588e-002 1.99194606e-002
      5.36492374e-003 8.90487048e-004 -9.37393028e-003 -2.15562116e-002
      -1.98822226e-002 -3.04066781e-002 -3.11890412e-002
      -1.65569969e-002 -1.00023458e-002 -1.90848671e-002
      -9.94416978e-003 2.72293091e-002 -7.22030224e-003 1.53047377e-002
      2.46283524e-002 2.97951512e-003 2.60776430e-002 4.08280361e-003
      1.22788167e-002 1.89726800e-002 2.51316302e-003 -4.32783477e-002
      -5.59634641e-002 -1.53312581e-002 -6.18540403e-003 2.84359162e-003
      9.83386301e-003 -1.03704650e-002 -2.16784421e-002 -9.96959861e-003
      -2.40289941e-002 -1.35405259e-002 6.35150680e-003 2.00003441e-002
      2.88269315e-002 1.33445486e-002 1.52270822e-002 1.74843054e-002
      5.38581470e-003 -2.00660788e-002 -2.72660069e-002 7.96119124e-003
      2.47320402e-002 1.46873090e-002 6.37266180e-003 -1.39198648e-002
      -3.90039496e-002 -3.01365573e-002 -8.20359681e-003
      -6.71798969e-003 9.78487823e-003 1.17000770e-002 8.29932000e-003
      1.14041916e-003 -2.18527354e-002 -8.24631134e-005 2.02237554e-002
      -1.33385770e-002 -2.97254771e-002 -1.68671757e-002 2.45878880e-004
      -7.60099804e-003 7.71450286e-004 -1.27219949e-002 -1.93054173e-002
      -1.65436987e-003 -1.27481576e-002 8.33331700e-003 1.45825269e-002
      4.21191193e-003 1.54515142e-002 2.56105140e-003 -7.91262835e-003
      4.22681719e-002 2.40294430e-002 1.43134240e-002 -4.52915765e-003
      8.57972912e-003 1.93237979e-002 -1.38967752e-003 -9.76037979e-003
      -2.25076545e-002 -5.95326051e-002 -3.11773401e-002
      -3.88373099e-002 -5.56894438e-003 -1.60166696e-002 4.47381381e-003
      -1.94922592e-002 -6.56966167e-003 -1.18090417e-002 3.22411880e-002
      -1.39075043e-002 -1.19692497e-002 -2.54412461e-002
      -7.40781007e-003 1.49006126e-002 -1.21290898e-002 -3.72158294e-003
      3.55752767e-003 -2.60141306e-002 -7.37158442e-003 1.83699988e-002
      -1.70812998e-002 -1.30433170e-002 5.19639766e-003 -2.99252686e-003
      -2.83119129e-003 -3.39703485e-002 1.59061770e-003 3.04647461e-002
      2.98922672e-003 -1.42229823e-002 -7.29536638e-003 3.70653346e-003
      -1.64193753e-002 -7.81448651e-003 -2.84349313e-003
      -9.78604704e-003 1.39154186e-002 4.36918251e-003 -2.99597327e-002
      -4.39274013e-002 -4.94533312e-003 -1.59892160e-002 4.51372052e-003
      1.29833063e-002 3.94135676e-002 -1.34354690e-002 -2.47263676e-003
      4.07564687e-003 -9.32973623e-003 1.57311764e-002 -1.61035620e-002
      7.95691460e-003 -4.23634704e-003 -2.58099604e-002 3.67209595e-003
      -7.42366537e-003 -6.14618417e-003 -5.33760991e-003 3.23616751e-002
      3.31281940e-003 7.39569217e-003 -2.62481999e-002 -7.44348718e-003
      3.54086887e-003 2.48329900e-003 -5.53019438e-003 -3.93341854e-003
      4.94523952e-003 -1.96088869e-002 -1.97466556e-003 1.55267026e-003
      -1.28400102e-002 4.05089930e-003 -2.33860686e-002 -1.73489582e-002
      -2.90106870e-002 2.12550294e-002 2.41406541e-002 2.83709988e-002
      8.27305671e-003 3.36525310e-003 3.92797366e-002 8.73323251e-003
      -1.60378497e-002 -3.02919839e-003 9.77571495e-003 -1.79286860e-002
      2.71702302e-003 -6.42429991e-003 -7.43877329e-003 -3.70219862e-003
      -5.27015654e-003 -3.18535455e-002 -4.54176553e-002
      -2.21569985e-002 -2.78674979e-002 -1.01882853e-002 2.58248914e-002
      3.27106453e-002 2.60655135e-002 1.59726627e-002 9.49408207e-003
      6.30118186e-004 2.43786890e-002 -6.10016659e-003 3.60128470e-002
      2.10007597e-002 1.08880969e-002 1.43227782e-002 1.36844320e-002
      -2.36581312e-003 -2.26545203e-002 -2.61877500e-003
      -2.46552378e-002 -3.37642655e-002 3.02710477e-003 -7.88161065e-004
      2.13921592e-002 -6.65699970e-003 -2.14912985e-002 -3.85100232e-003
      7.19144382e-003 -2.53157727e-002 -1.50165763e-002 -2.50483211e-002
      -1.68756600e-002 -1.02476273e-002 -4.67465557e-002
      -1.82590932e-002 -3.21702077e-003 2.18587928e-002 -4.92077554e-003
      -1.08072683e-002 2.12078281e-002 2.19791718e-002 1.32422429e-003
      -2.68194471e-002 -1.53129734e-002 -6.22348627e-003 2.25726999e-002
      -1.59064960e-002 6.90376107e-003 -2.67582759e-002 -6.59078432e-005
      1.17799668e-002 -3.18346135e-002 -1.39417052e-002 1.37211627e-003
      1.54980831e-002 -1.83952749e-002 -1.90625358e-002 1.05378488e-002
      2.10766681e-002 2.61054970e-002 9.48566012e-003 -4.99204360e-003
      -4.43075737e-003 1.51396170e-002 1.87886093e-004 2.84256451e-002
      2.51526274e-002 8.96366965e-003 2.27098726e-002 2.02189535e-002
      6.64567924e-005 -1.41391354e-002 2.77340901e-003 -1.08580161e-002
      -3.30983400e-002 -1.16132116e-002 -9.67049133e-003 3.20894755e-002
      -8.03637027e-004 -2.36081686e-002 -9.46262572e-003 2.74370499e-002
      1.70593727e-002 2.15549916e-002 2.36176066e-002 -1.19383465e-002
      -4.98147961e-003 -6.12004776e-004 5.21202432e-003 1.50840366e-002
      3.23888659e-002 1.53143238e-002 2.75040958e-002 1.65483523e-002
      2.60631591e-002 1.13627985e-002 -3.47898491e-002 -3.22409868e-002
      -2.55173165e-002 -1.89646741e-003 -4.40227054e-003 1.41095584e-002
      6.36174250e-003 1.69980191e-002 3.06246011e-003 -1.36857284e-002
      -4.27575037e-002 -3.05951461e-002 6.07739855e-003 -2.60704774e-002
      -1.81159396e-002 -7.29866186e-003 9.95196588e-003 1.22403819e-002
      -2.54244730e-002 -3.90006378e-002 -2.78839972e-002 1.65688638e-002
      1.30056692e-002 2.92900093e-002 2.69911960e-002 -2.22491547e-002
      -1.38304252e-002 -1.98644344e-002 -3.54026183e-002
      -3.64771672e-002 -2.71599238e-005 -5.03250584e-003 1.55518670e-002
      4.74450132e-003 2.62204427e-002 2.71248855e-002 -7.42780883e-003
      -2.35009901e-002 -1.43342849e-003 4.39394042e-002 1.43787144e-002
      3.04419473e-002 1.59622021e-002 -2.01985128e-002 -2.41683293e-002
      -2.42258403e-002 -7.44844554e-003 -6.89755008e-003 1.61960945e-002
      1.23691699e-002 1.09773269e-002 1.06427781e-002 2.07098480e-002
      -2.62585049e-003 -9.42767877e-003 -3.35426517e-002
      -9.80959274e-003 1.26976427e-002 4.65767412e-003 2.62780301e-002
      3.63016650e-002 1.65470988e-002 1.51779624e-002 1.27875200e-002
      2.98517961e-002 1.34649361e-002 1.61371287e-002 1.02521954e-002
      -1.88910612e-003 3.54036572e-003 -1.70551043e-003 1.24064349e-002
      -8.91404599e-003 -2.65880227e-002 -2.81171757e-003 3.41924541e-002
      -3.50306975e-004 3.65862367e-003 1.70719076e-003 -3.88492830e-002
      -3.34533155e-002 -4.52304929e-002 -2.60292087e-002
      -3.50760631e-002 -1.35671347e-004 -3.91320745e-003 8.56282096e-003
      7.39928894e-003 2.02023257e-002 9.22152773e-003 -1.04427263e-002
      -2.46196911e-002 -9.36345384e-003 2.85583287e-002 -1.87390428e-002
      2.81279860e-003 1.32475169e-002 -7.04361405e-003 -2.13724989e-002
      -2.17251945e-002 9.86136403e-003 1.06455423e-002 5.22270659e-003
      1.05462745e-002 -1.12771941e-002 -1.05830505e-002 1.09279724e-002
      -8.00576340e-003 -3.76248881e-002 -2.99257003e-002
      -1.57821197e-002 -9.88889951e-003 4.99937218e-003 1.04792612e-002
      9.28378943e-003 -3.12917144e-003 -1.30709494e-002 -2.98513100e-003
      2.00048089e-002 3.47731542e-003 6.39308011e-003 -1.30420541e-002
      -1.82113871e-002 -1.11568701e-002 1.76650312e-004 1.45769808e-002
      -3.72899584e-002 -1.70394741e-002 -1.77443642e-002
      -5.72919473e-003 1.07889678e-002 2.52098814e-002 1.99778136e-002
      -1.23794843e-002 5.59447159e-004 1.72205940e-002 1.83751099e-002
      -2.51533976e-003 -4.01465641e-003 2.22482276e-003 -7.92036019e-003
      -1.20230085e-004 2.33320221e-002 2.78353749e-004 -3.86010855e-002
      -4.57915328e-002 -1.92342829e-002 6.25871774e-003 -8.64075031e-003
      1.29433451e-002 8.20400845e-003 -9.27018467e-003 -4.04275469e-002
      -2.71615405e-002 -7.34454114e-003 5.55652566e-003 1.61849763e-002
      2.19670851e-002 -5.22129412e-004 -1.75189413e-002 -3.75887356e-003
      1.12263882e-003 1.80375262e-003 -2.97510456e-002 -1.23640895e-002
      7.25307968e-003 8.78182705e-003 1.78051684e-002 2.48008072e-002
      -1.90848671e-003 -1.31132081e-002 -6.02138741e-003 8.62536859e-003
      2.33005825e-003 5.25994506e-003 1.36338556e-002 2.24278141e-002
      1.78612396e-002 1.46637429e-002 -9.36353812e-004 -2.10420080e-002
      -1.88242886e-002 -3.96316089e-002 -2.42847335e-002
      -2.96684206e-002 -7.41759874e-003 9.85628460e-004 -3.36136739e-003
      6.88489899e-003 3.23316678e-002 3.32644805e-002 1.11147147e-002
      -6.34034397e-003 1.46562615e-002 -1.35070765e-002 2.34587863e-003
      -6.68318884e-004 1.21526299e-002 -1.14064971e-002 -3.03712972e-002
      -3.15158740e-002 -2.36949418e-002 -2.16852836e-002
      -1.65773835e-002 -8.56302120e-003 1.07214914e-003 1.87483360e-003
      2.85650697e-002 3.49812247e-002 3.87189537e-002 2.34598145e-002
      3.35611738e-002 1.86555702e-002 3.54619920e-002 5.91938384e-003
      -1.85620021e-002 1.08078411e-002 -1.49897467e-002 -8.90035648e-003
      1.13258306e-002 -2.47992296e-003 -1.18500851e-002 2.99469405e-003
      -1.94976479e-003 2.32199952e-003 -4.10062913e-003 2.72444990e-002
      4.01486550e-003 -2.23565735e-002 -2.33708955e-002 -8.00619368e-003
      9.06589068e-003 -1.27957091e-002 -1.22963786e-002 2.32915045e-003
      -1.37099705e-003 -8.26925412e-003 1.74427070e-002 -1.17856134e-002
      -1.04739135e-002 -1.30115207e-002 -2.31801085e-002
      -1.69935320e-002 -1.15265213e-002 1.67507865e-002 5.15944250e-002
      -6.53064856e-003 -1.92327965e-002 -4.04251134e-003 6.21186849e-003
      -7.97183532e-003 -1.26593849e-002 -2.03894591e-003
      -4.66860645e-003 -2.69199274e-002 3.14181764e-003 -1.87262204e-002
      -1.01931328e-002 -1.29541047e-002 -4.68826517e-002
      -1.09491600e-002 1.36629166e-002 2.69523938e-003 8.48196261e-003
      -8.84297956e-003 6.15080772e-003 7.96076097e-003 8.74931272e-003
      7.67920120e-003 -1.97754744e-002 1.32843647e-002 1.55020934e-002
      -1.17311636e-002 -2.35427404e-003 -8.17664526e-003 1.79498410e-003
      -2.36023538e-004 -1.05285039e-002 2.20978702e-003 8.20908695e-004
      -3.06991395e-002 4.11582459e-003 -2.08412260e-002 1.80561971e-002
      7.80801335e-003 2.95748655e-002 1.38803516e-002 -2.43440792e-002
      -2.17226688e-002 -2.55219359e-002 -1.68488752e-002
      -4.46758932e-004 2.14789137e-002 2.01977696e-002 -2.21151183e-003
      -3.13250571e-002 -2.20459476e-002 1.04912240e-002 1.59965437e-002
      1.48214182e-004 -1.72606260e-002 2.94754449e-002 3.60023230e-002
      1.29208956e-002 1.17740259e-002 -8.08587018e-003 8.44039302e-003
      -1.74930375e-002 -1.35294003e-002 -9.94969811e-003 1.83374509e-002
      3.01379245e-002 1.92861781e-002 8.29883479e-003 -1.09436898e-003
      1.16426740e-002 9.10258200e-003 2.49179360e-003 -1.49078118e-002
      3.61501053e-002 2.04431508e-002 2.01057605e-002 1.61898136e-002
      -7.65716517e-003 -1.72604043e-002 7.06269825e-003 -1.30168665e-002
      -8.10131524e-003 -2.48863213e-002 -1.80866066e-002 2.35979841e-003
      -5.27802808e-003 8.33229627e-003 -9.41057224e-003 -3.66718732e-002
      -2.20901705e-003 -1.14503521e-002 1.32163167e-002 -1.31444877e-003
      1.08842039e-002 2.37356052e-002 -1.85380392e-002 -1.13332476e-002
      5.54011553e-004 -2.04584841e-002 -1.67334005e-002 -1.92494839e-002
      -2.22978462e-002 2.48103915e-003 -3.20047624e-002 -2.06284504e-002
      3.72748217e-003 -1.63642988e-002 -1.36823365e-002 -7.44985044e-003
      1.19470665e-003 5.17549226e-003 -3.95170739e-003 -1.90505497e-002
      -5.05029876e-003 2.91379541e-003 8.76311329e-004 4.31531621e-003
      -2.19087247e-002 -1.85563099e-002 2.64863321e-003 1.70463212e-002
      3.10758268e-003 1.86591484e-002 3.73834111e-002 -1.30711880e-004
      1.16566999e-003 -1.73290155e-003 2.25292705e-002 1.96967442e-002
      -3.10228951e-003 1.97703242e-002 -1.56512782e-002 2.25081970e-003
      1.90602802e-003 1.46513321e-002 -1.38310371e-002 -6.61001075e-003
      -9.73390229e-003 3.41220037e-003 1.45661633e-003 -5.13294246e-003
      3.36826891e-002 -8.84707645e-003 -2.25918517e-002 -6.89853448e-003
      -1.26760015e-002 -7.71936215e-003 -2.01363284e-002
      -7.07273325e-003 -3.45809422e-002 1.16837688e-003 -1.60582102e-004
      -1.32611748e-002 -2.63903141e-002 1.13803847e-002 6.96656713e-003
      2.13145316e-002 -1.64074404e-003 -4.29864414e-003 5.11334427e-002
      1.00612901e-002 1.15891173e-003 -6.76094787e-003 1.27032306e-002
      2.62637669e-003 -3.22399437e-002 -3.68995667e-002 -1.01411780e-002
      2.38198712e-002 9.23600513e-003 -5.55081852e-003 -3.13208625e-002
      -4.05181060e-003 9.13530681e-003 1.68847255e-002 -1.66220292e-002
      1.05006469e-003 -2.43495079e-003 -8.25942401e-003 1.02460729e-002
      1.80219789e-003 1.11033125e-002 -9.81550082e-004 -2.33172271e-002
      -5.22881281e-004 -3.86867411e-002 8.66120332e-004 8.57201498e-003
      1.11531364e-002 -3.18599269e-002 6.08207192e-003 1.37501303e-002
      3.57799716e-002 3.65195721e-002 1.04874428e-002 3.88946459e-002
      2.15646857e-003 -1.34435287e-002 -2.83173863e-002 -2.04709228e-002
      -8.06356687e-003 -3.55029702e-002 -4.26128246e-002
      -4.43953089e-003 1.03804469e-002 -8.02252791e-004 9.76291765e-003
      -1.94881763e-002 -2.73299450e-003 1.86020937e-002 9.47725121e-003
      -2.10386887e-003 -9.22038499e-003 -3.08961608e-003
      -2.57501733e-002 -5.15528163e-003 3.44191398e-003 2.23862263e-003
      7.52776489e-003 -1.22455526e-002 -2.08354611e-002 4.47212486e-003
      -2.59437336e-004 -3.11785061e-002 -3.44841219e-002
      -1.12914536e-002 -3.22338403e-003 2.79053790e-003 -8.57723039e-003
      -2.09885947e-002 -8.95516761e-003 -7.92200910e-004
      -1.36992726e-002 -3.31856543e-003 -1.59578528e-002
      -1.13487281e-002 -6.60570292e-003 -3.52995507e-002 2.29529524e-003
      -1.44194541e-002 5.01741096e-003 -2.59969551e-002 -1.06660072e-002
      2.77208444e-002 8.51507112e-003 1.24702426e-002 -7.06806686e-003
      -9.33566689e-003 -2.21376456e-002 -8.85920599e-003 5.18593751e-003
      4.40821471e-003 5.16390521e-003 -1.66410226e-002 -4.83511249e-003
      -3.20542529e-002 -1.95006281e-002 1.43796830e-002 1.98063664e-002
      6.65664952e-003 3.22139114e-002 2.14620251e-002 -6.34539581e-004
      7.92815536e-003 -5.71797742e-003 -1.58814415e-002 -7.48417154e-003
      6.59055833e-004 -1.06566688e-002 -6.77054049e-003 -7.23637454e-003
      -2.71903537e-003 1.51590826e-002 -5.31361904e-004 9.23645590e-003
      3.24076861e-002 6.00276887e-003 -2.10269336e-002 7.74290273e-003
      1.42479446e-002 -2.62116343e-002 -1.11372480e-002 -8.66266899e-003
      3.82008147e-003 -1.01280473e-002 -1.20090600e-003 1.55936964e-002
      -4.25130501e-003 1.07080033e-002 -1.92397027e-004 -1.56596932e-003
      -4.09232639e-003 3.02844564e-003 -3.15954797e-002 -7.54088769e-003
      -2.66221296e-002 -5.30419778e-003 2.84563052e-003 -8.24712124e-003
      5.73226204e-003 -1.83441490e-002 1.74320466e-003 2.46310839e-003
      -1.58886127e-002 -2.65570194e-003 -5.42507553e-003
      -1.35202077e-003 2.21365131e-003 4.23407601e-003 -2.94510815e-002
      -2.13773102e-002 -1.90694556e-002 -1.71875935e-002
      -8.77334177e-003 -5.38739935e-003 1.36159854e-002 -2.71788845e-003
      -8.69638473e-003 -3.63536552e-002 -2.62267720e-002 7.00433552e-003
      -2.09255386e-002 1.39205595e-002 7.00388988e-003 -3.12231155e-003
      1.27944248e-002 7.87981693e-003 -3.48901711e-002 -9.09156166e-003
      1.96109023e-002 -5.92607539e-003 -2.14138087e-002 1.90491490e-002
      3.39226201e-002 -9.79544595e-003 1.76016218e-003 -2.29833601e-003
      1.53700705e-003 -6.60485448e-003 -2.23160023e-004 1.23452414e-002
      -1.90325677e-002 -2.69848923e-003 6.75793504e-003 1.11693079e-002
      -5.33685414e-003 6.60258299e-003 4.44575679e-003 1.79549512e-002
      -4.73351870e-003 1.31736798e-002 4.79796641e-002 5.45989070e-003
      -5.39951725e-003 -2.65288837e-002 -3.29516716e-002
      -1.76019594e-002 -7.22346781e-003 5.64489234e-003 -1.72470752e-002
      -7.46069616e-003 8.46590474e-003 2.94062849e-002 -2.48756073e-003
      7.48882722e-003 -2.40098666e-002 -3.28902379e-002 -2.59222612e-002
      -2.18192842e-002 1.37316845e-002 -1.31228790e-002 -1.52030420e-002
      -3.12458258e-002 -3.85205597e-002 -1.13158366e-002
      -3.10552400e-002 1.97262876e-003 -6.73282472e-003 -3.18288384e-003
      -5.34523744e-003 -5.06154634e-003 -3.55218090e-002
      -1.46602956e-003 -3.45509015e-002 -4.09858935e-002
      -1.34843420e-002 -5.58902789e-003 2.34354250e-002 -2.17717271e-002
      -2.20464971e-002 -2.95691993e-002 -5.25360145e-002
      -2.75079645e-002 -4.23348583e-002 -9.70753282e-003
      -3.41880098e-002 2.76612565e-002 -8.42015259e-003 -1.21069737e-002
      -2.72804964e-002 -1.07768150e-002 -1.25290913e-004 3.93692963e-003
      1.51957301e-002 9.43959225e-003 3.39527763e-002 8.32386129e-003
      1.43538439e-003 -3.17066163e-002 -4.04544100e-002 -1.89233664e-002
      -1.15942992e-002 1.54598244e-002 5.93256205e-003 2.76732892e-002
      2.07688324e-002 3.34244221e-002 -9.33527481e-003 7.97251519e-003
      -5.84728532e-002 -3.61943878e-002 1.15133859e-002 -1.05369994e-002
      2.89021693e-002 1.71856035e-003 7.96174631e-003 -3.24693834e-003
      -1.81052946e-002 -1.62852537e-002 -1.55965276e-002 2.82945111e-003
      -6.74633589e-003 3.89162153e-002 2.20503081e-002 1.31235002e-002
      -3.44147272e-002 -4.46352512e-002 -6.07472025e-002
      -4.04126123e-002 -8.49765819e-003 -1.33238258e-002 1.95618663e-002
      -1.58938970e-002 -3.72270262e-003 -8.21337663e-003
      -2.35913470e-002 -9.25823208e-003 -1.94893945e-002
      -2.20268536e-002 -2.76706759e-002 2.68578287e-002 1.46410167e-002
      -1.21884362e-003 -6.63812691e-003 -3.65140550e-002
      -4.30496447e-002 -2.98409536e-002 -2.15257667e-002
      -3.27435285e-002 -1.05086551e-003 -1.93134248e-002
      -5.76717732e-003 -5.39454119e-003 -7.12199975e-003
      -3.66257527e-003 -2.67142318e-002 -1.62421912e-002
      -3.60916071e-002 1.64445098e-002 1.67568829e-002 -4.77362238e-003
      -2.69013066e-002 -3.13391574e-002 -5.14008664e-002
      -2.67508533e-002 -4.55324713e-004 -3.17375222e-003 2.43668798e-002
      -1.42438186e-003 1.35780321e-002 1.39607042e-002 1.38363959e-002
      -4.31005750e-003 -8.58199410e-003 -1.59495547e-002
      -1.47460867e-002 3.00638936e-002 3.21277753e-002 1.27131818e-002
      -2.12852266e-002 -5.90252988e-002 -3.47230099e-002
      -7.91134592e-003 -1.81625213e-003 -1.25611601e-002 1.44489426e-002
      2.79416072e-005 1.29255597e-002 1.46568064e-002 2.60781869e-002
      1.44867441e-002 3.57703003e-003 -1.39801195e-002 -1.88125018e-002
      3.24581899e-002 3.42091992e-002 1.21310223e-002 -1.75367799e-002
      -3.85111719e-002 -1.35197518e-002 -1.68526042e-002
      -3.53260003e-002 -2.07677837e-002 3.50212981e-003 -1.38565078e-002
      -8.14634934e-003 -1.36751523e-002 -1.79082938e-002
      -1.27196545e-002 -5.07179089e-002 -8.83840583e-003
      -1.24245295e-002 2.19174735e-002 -4.69717477e-003 -2.97118556e-002
      -2.48066448e-002 -2.14672094e-004 -3.14964801e-002
      -4.98122610e-002 -3.73131633e-002 -1.79131683e-002
      -6.07856223e-003 -1.49564771e-002 4.76814108e-003 -3.41230221e-002
      -8.69311672e-003 -2.01798845e-002 -3.50680090e-002
      -7.15739501e-004 2.07380429e-002 4.95662764e-002 9.54660005e-004
      -3.10950074e-002 -2.37621758e-002 7.38378707e-003 -1.25820478e-002
      1.15824752e-002 9.07457783e-004 -3.95014649e-003 1.14416201e-002
      3.13958735e-003 -3.23478272e-003 -8.63418914e-003 -1.67416944e-003
      -4.47285455e-003 -1.65866874e-002 -7.29347765e-003
      -1.01627726e-002 1.34359347e-002 1.77436741e-003 -1.15942741e-002
      -2.28224471e-002 -1.13417171e-002 1.34224223e-003 -1.53943163e-003
      -4.78514889e-003 5.15424926e-003 9.26683471e-003 -1.14375697e-002
      -2.17524869e-003 -2.09115371e-002 4.04494582e-003 -8.05488881e-003
      -1.58142559e-002 1.59600319e-003 9.71918274e-003 2.52320394e-002
      -5.35050500e-003 -2.40107141e-002 -3.82340774e-002
      -2.17626914e-002 4.73901024e-003 -1.88785456e-002 -1.62413232e-002
      -1.75193511e-002 6.36691460e-003 5.77575946e-003 2.27747448e-002
      -1.82682332e-002 4.59200674e-004 -1.36366738e-002 -3.41787152e-002
      -3.42189707e-002 -7.31901685e-003 1.57179553e-002 -9.30730440e-003
      -1.16848266e-002 -2.41442956e-002 8.80177878e-003 1.93139501e-002
      4.29896545e-003 -2.02385616e-002 -2.83903442e-002 2.77239084e-003
      1.05900038e-002 1.21743437e-002 -2.47910572e-003 -1.16593260e-002
      -6.32590745e-005 -9.64207668e-003 -3.55840698e-002
      -4.15565781e-002 -1.67325400e-002 -1.58775691e-002 1.05771108e-003
      -6.01088582e-003 2.46284101e-002 -5.95446734e-004 1.80741213e-002
      -7.12614367e-003 2.27650604e-003 7.05590611e-003 -9.95625556e-003
      1.36044240e-002 -4.13864804e-003 1.40098808e-002 8.16519000e-003
      -1.88581850e-002 7.66044669e-003 3.01591996e-002 3.60041149e-002
      1.07734427e-002 -1.53090665e-002 -4.47716825e-002 -2.99029723e-002
      2.03341991e-003 1.42168449e-002 -1.58314388e-002 -2.10723281e-002
      -1.54030081e-002 -1.48343612e-002 1.39862124e-003 -1.33441100e-002
      -1.98198557e-002 -1.75104178e-002 -2.32385360e-002
      -1.94338318e-002 -9.05681588e-003 3.31249610e-002 1.46790128e-002
      1.24293836e-002 -4.64664735e-002 -7.65896263e-003 1.89146232e-002
      1.99238490e-002 -2.11048573e-002 -2.61096768e-002 3.62932659e-003
      -2.51729060e-002 -2.75929235e-002 -2.28166785e-002
      -2.28708796e-002 -1.84945539e-002 -4.68302099e-003
      -3.51467356e-002 -3.58073413e-002 -1.74076427e-002
      -5.88597171e-003 1.01094432e-002 2.41738074e-002 2.45288238e-002
      2.56518144e-002 1.37966340e-002 -9.84915532e-003 -1.57275982e-002
      1.42287146e-002 -3.30262594e-002 -1.33923758e-002 -6.24828786e-003
      -1.22354236e-002 -1.54715106e-002 2.16301484e-003 -3.00629367e-003
      8.44627433e-003 1.19009065e-002 1.92305483e-002 6.23660116e-003
      1.59162655e-002 2.12550405e-002 1.39363101e-002 -2.39779358e-003
      -3.59140821e-002 -3.86983901e-002 -2.23215334e-002
      -3.12370677e-002 -2.01687440e-002 -1.67306904e-002
      -3.16553935e-002 -1.91583708e-002 -5.67808002e-003
      -7.70861795e-003 -2.45373901e-002 3.99284810e-003 1.73190180e-002
      1.20806349e-002 -1.70882866e-002 1.06331501e-002 3.46152633e-002
      1.21799717e-002 -1.72229894e-002 -1.96761377e-002 -9.44443792e-003
      -1.66825168e-002 -1.59171708e-002 -6.64963480e-003
      -1.99512746e-002 -3.64934606e-003 1.53385047e-002 3.36388238e-002
      1.01660574e-002 2.87010265e-003 1.99843198e-002 -6.05064631e-003
      1.70259327e-002 1.97161678e-002 1.12844119e-002 -8.73738527e-003
      -1.36104813e-002 -3.36864442e-002 3.25279124e-003 -2.65526380e-002
      -3.50198545e-003 -1.38025014e-002 -2.37647444e-002
      -4.58191223e-002 -5.25763296e-002 -2.31866278e-002
      -5.64185949e-003 2.83108559e-002 2.54161991e-002 8.48345459e-003
      -1.10540900e-003 1.03692561e-002 1.69127751e-002 3.51629429e-003
      -3.22546922e-002 -9.62215755e-003 1.04222177e-002 1.30520267e-002
      2.17680279e-002 1.38261374e-002 2.15019695e-002 -3.68856848e-003
      -3.05961911e-002 -7.19941081e-003 -1.01899598e-002 2.04198919e-002
      2.39050742e-002 1.58870756e-003 -1.70200448e-002 7.45634362e-003
      -5.15991449e-003 5.93474787e-003 -1.65245067e-002 -2.40559392e-002
      -2.23089550e-002 -1.40574016e-002 -3.24038379e-002
      -4.11469303e-002 -3.24071944e-002 -4.19096053e-002
      -3.30176279e-002 1.56775024e-002 -4.02921624e-003 3.00306696e-002
      2.23237760e-002 1.29122101e-002 1.74504984e-002 1.85640587e-003
      7.11439271e-003 -9.02671460e-003 -2.21480299e-002 -7.37161329e-003
      -1.27134600e-003 8.98297038e-003 1.49832387e-002 -7.18889851e-003
      4.54322249e-003 -1.86436120e-002 -9.05587617e-003 -1.00922713e-003
      -1.55982925e-002 2.39221733e-002 2.41225548e-002 1.80122927e-002
      1.03638414e-002 3.49590700e-004 -8.69608391e-003 1.08947642e-002
      -1.32296272e-002 -1.54594355e-003 9.66870878e-003 2.20795628e-002
      9.30435490e-003 2.18644757e-002 2.54399795e-002 3.25825326e-002
      -1.53277386e-002 3.01838358e-004 -2.08548345e-002 -1.10102324e-002
      -3.06484327e-002 -2.24924386e-002 -1.44573273e-002
      -2.10853219e-002 -1.71253383e-002 1.56286336e-003 2.16596499e-002
      1.49708176e-002 1.66629590e-002 -2.82436330e-003 1.02370735e-002
      2.73355786e-002 3.12509830e-004 1.60429645e-002 -7.42569938e-003
      6.60700770e-003 2.08794307e-002 2.52954219e-003 -2.47254502e-002
      -9.04361252e-003 -1.85843818e-002 -1.52926277e-002
      -9.54530388e-003 -3.00090443e-002 -2.41300613e-002
      -8.65988061e-003 -1.09886015e-002 1.28803747e-002 3.07872910e-002
      2.32601985e-002 3.09921540e-002 1.52682438e-002 -5.15342969e-003
      -1.22647211e-002 -1.71713326e-002 -4.70494898e-003
      -1.90236419e-002 -1.08510666e-002 6.03514444e-003 -2.88424660e-002
      -1.76440869e-002 1.13878110e-002 6.22449769e-003 7.89566804e-003
      -1.30428688e-003 1.49361324e-002 1.03957718e-002 2.32590083e-002
      1.12081980e-002 -3.56403808e-003 -5.14495000e-003 3.95034300e-003
      -1.49868033e-003 7.80191459e-003 -6.77826675e-003 -1.18598882e-002
      7.68759800e-003 -9.61516332e-003 -3.90096940e-002 -3.71594839e-002
      -3.69426608e-002 -2.90958863e-002 -1.68876145e-002 1.46583207e-002
      1.11741312e-002 -1.14113232e-003 -3.55700776e-002 -2.39358507e-002
      -1.60907954e-002 -4.21486609e-003 4.37256554e-003 -4.13020607e-004
      4.11534943e-002 3.02933976e-002 -5.08815609e-003 -1.57245677e-002
      -2.31496822e-002 -8.23468249e-003 -3.25605534e-002
      -1.77336652e-002 -2.28678193e-002 8.96615535e-003 1.58898551e-002
      2.39315853e-002 7.53855612e-003 3.39426240e-003 3.44218453e-003
      -1.48313809e-002 -7.32707325e-003 1.91816292e-003 2.35496704e-002
      2.04238798e-002 1.04192486e-002 -1.98248848e-002 -2.87879747e-003
      1.07252412e-002 -1.26371020e-002 -2.31969152e-002 -1.70332706e-003
      1.53106702e-002 -4.20159800e-003 7.93070067e-003 -5.32574058e-002
      -4.51189838e-002 -1.80496760e-002 -2.42793690e-002 4.22774395e-003
      7.22596608e-003 4.37817909e-002 3.52324471e-002 1.34827374e-002
      2.76822620e-003 -1.43684093e-002 3.80900456e-003 -2.83023845e-002
      -4.24974452e-004 -1.74644198e-002 -1.45703019e-003 2.03028647e-003
      8.86612199e-003 -2.33554058e-002 -1.19728381e-002 2.52138879e-002
      3.97048285e-003 7.83760194e-003 2.59296112e-002 3.81008238e-002
      2.74663512e-002 2.04391629e-002 -1.94141129e-003 -2.66484153e-002
      -2.00215913e-002 -3.78120802e-002 -1.85796432e-002
      -3.78324352e-002 -2.44740043e-002 -9.85590369e-003 7.41688209e-003
      4.66999598e-003 1.46823116e-002 3.15337963e-002 -2.62036547e-002
      -2.98851803e-002 -1.90950036e-002 2.61155888e-003 4.49137576e-003
      -1.36034079e-002 -5.20183891e-003 -2.40101162e-002
      -3.63533222e-003 -6.06722757e-003 1.86509173e-002 -1.65792424e-002
      2.99813133e-003 -1.14855552e-002 -7.73145305e-003 -2.35388298e-002
      -1.69673525e-002 1.69266947e-002 -1.84925199e-002 -3.39683592e-002
      -1.01274392e-002 -2.08029337e-002 -2.06871629e-002
      -2.17780899e-002 -4.07975866e-003 -1.96098890e-002
      -9.42950603e-003 -1.03864577e-002 1.22243287e-002 -2.19564177e-002
      1.10420235e-003 3.79317184e-003 2.14368999e-002 -9.56411939e-003
      -3.49234790e-003 4.32138443e-002 6.17510313e-003 1.95368892e-003
      1.06123032e-003 5.81836270e-004 6.32655714e-003 1.30423922e-002
      -8.97980994e-004 -1.42935347e-002 2.29832903e-003 1.94849465e-002
      2.86527183e-002 8.15698132e-003 8.02322384e-003 -1.09716933e-002
      -4.74514021e-003 -3.93781774e-002 -1.91026274e-002 6.84259646e-003
      -2.48598792e-002 -1.74550638e-002 4.12627030e-003 -2.20287871e-002
      -1.80253629e-002 -1.16321258e-003 -1.81794781e-002
      -2.35203952e-002 -8.62606335e-003 -8.99257511e-003 2.73995078e-003
      -9.27026104e-003 -1.81356594e-002 -7.85119273e-003
      -1.20814284e-003 -1.23569742e-003 7.62394723e-003 6.82042586e-003
      -1.71477497e-002 -3.94756123e-002 -3.20381187e-002
      -3.53765562e-002 -1.20340576e-002 -9.15420149e-003
      -1.96929127e-002 -2.88775433e-002 -9.72917769e-003
      -3.01556475e-002 -2.34918334e-002 5.16486866e-003 6.29647262e-003
      1.26486346e-002 -4.72840015e-003 -1.37359835e-002 -4.70927032e-003
      -2.05308553e-002 -5.16857468e-002 -4.02715430e-002
      -2.04400606e-002 -3.08618806e-002 -8.31504725e-003 8.32338259e-003
      -2.45479345e-002 -1.02918232e-002 -3.04629514e-003 8.02446064e-003
      1.79454461e-002 1.34092420e-002 1.47869717e-002 9.20865778e-003
      -2.05572369e-003 -9.84312687e-003 7.75947701e-003 8.56002513e-003
      -6.76777028e-003 -1.88497920e-002 -1.79052737e-003 6.82492624e-004
      1.62900798e-003 8.13533645e-003 -1.69583783e-002 -2.07297392e-002
      -9.84535832e-003 -3.01611908e-002 -2.47788522e-002 2.78290943e-003
      -1.86229832e-002 -1.22526577e-002 -1.37883490e-002
      -4.35260963e-003 3.52953235e-003 -1.25740459e-002 -3.82078178e-002
      -2.08915677e-002 -1.08220121e-002 5.06742764e-003 4.95149381e-003
      2.00443268e-002 9.06546880e-003 -4.80749272e-002 -2.77288817e-002
      -4.44628894e-002 -5.07527366e-002 -3.19999293e-003
      -2.70561036e-002 3.46267759e-003 -1.26911663e-002 -2.50457209e-002
      -2.50596441e-002 -6.92909537e-003 -4.06084172e-002
      -3.72577086e-002 -1.19292457e-002 -3.03145088e-002
      -2.26017199e-002 1.18560242e-002 -4.64807032e-003 -2.77695302e-002
      -5.19939549e-002 -7.36042932e-002 -7.04213679e-002
      -3.40284966e-002 -4.08117138e-002 -3.17299156e-003
      -1.57592930e-002 -9.62480530e-003 -5.38741797e-003 6.13726303e-003
      -8.11501779e-003 -1.72941349e-002 7.21779233e-003 6.73102681e-003
      -4.71100817e-003 -2.27503959e-004 -1.41897500e-002
      -2.40194090e-002 1.81945553e-003 -6.39415532e-002 -7.70457238e-002
      -2.09380910e-002 -8.63424595e-003 1.31520573e-002 1.03328479e-002
      2.08221842e-002 3.89688229e-003 6.22949330e-003 -1.47009250e-002
      1.32944522e-004 2.65774946e-003 3.23113956e-004 1.01070646e-002
      4.06516977e-002 3.30603272e-002 -2.19694301e-002 -5.03704436e-002
      -7.36518875e-002 -8.38528350e-002 -6.18607327e-002
      -2.76290588e-002 1.13698468e-002 -3.65574029e-003 5.45806717e-003
      1.24390740e-002 2.70289928e-002 -3.53122741e-004 1.56385284e-002
      2.59451196e-002 1.93050187e-002 1.84290204e-002 4.26611602e-002
      3.09553687e-002 -2.64139958e-002 -9.57225785e-002 -1.17090754e-001
      -7.99367651e-002 -3.66578326e-002 -5.30125611e-002
      -2.04481110e-002 -5.04301256e-003 5.65133616e-003 1.94561146e-002
      2.31542755e-002 -9.50907197e-005 -1.67654939e-002 -6.68775383e-003
      4.06350335e-003 -2.57611624e-003 -2.66475473e-002 -2.08757371e-002
      -4.92300168e-002 -5.82847074e-002 -8.42880458e-002
      -5.83317503e-002 -1.37095405e-002 -4.62653153e-002 1.06768108e-004
      -6.22084690e-003 -2.10354887e-002 1.11740222e-003 1.45169450e-002
      -1.95497600e-003 1.99974119e-003 -4.03336203e-003 6.27714815e-003
      1.18014766e-002 -3.35519505e-003 -2.48655640e-002 -7.81544484e-003
      -8.02945495e-002 -8.24031010e-002 -7.39877820e-002
      -2.33565960e-002 -1.65154450e-002 -1.05361524e-003
      -1.43080764e-003 2.37295721e-002 3.19332965e-002 4.04720269e-002
      1.10661304e-002 3.06641264e-003 1.44861257e-002 1.79341119e-002
      2.11617332e-002 1.36633236e-002 7.71321880e-004 -2.15583257e-002
      -2.43393276e-002 -2.59691682e-002 -1.52661623e-002 2.29862053e-002
      1.14346612e-002 2.78364494e-002 5.88430883e-003 1.48478923e-002
      2.51427777e-002 3.32141854e-002 1.69649273e-002 1.95050577e-003
      -9.11595114e-003 3.65706091e-003 3.36967148e-002 5.53230233e-002
      3.49825211e-002 -9.05601531e-002 -5.69056757e-002 -5.66277057e-002
      -5.15434891e-002 -1.16627458e-002 -1.38726309e-002
      -2.62769463e-004 -3.27187777e-002 -3.30878682e-002
      -2.96321735e-002 -8.56801495e-003 -3.20300669e-003 9.35672969e-003
      7.27721909e-003 3.81685386e-004 9.00590885e-003 -2.84557994e-002
      -5.78563511e-002 -9.80290845e-002 -7.42506385e-002
      -4.93115112e-002 -3.18293571e-002 -8.43933318e-003 1.10162161e-002
      1.77742471e-003 -1.46290604e-002 -2.71420763e-003 -1.17786406e-002
      -5.15024038e-003 1.89804321e-003 2.39905086e-003 -4.25613113e-003
      1.51527056e-003 2.49140756e-003 -8.20993260e-002 -9.29297805e-002
      -5.69177531e-002 -2.21386570e-002 -7.45692989e-003 2.55618449e-002
      3.87953259e-002 2.20470130e-002 3.36916260e-002 -3.24939137e-005
      -2.50047725e-003 1.45697277e-002 1.47674158e-002 1.44195789e-002
      8.95274710e-003 -1.51546868e-002 -1.59140322e-002 1.71180125e-002
      3.19674313e-002 2.61444016e-003 -6.01989292e-002 -1.47694359e-002
      -9.20349360e-003 1.34285921e-002 8.44206102e-003 2.82465909e-002
      1.98591943e-003 7.08254939e-003 1.72082465e-002 2.17863787e-002
      2.09211297e-002 1.11510223e-002 1.20655317e-002 -7.38882052e-004
      -2.05066744e-002 -2.44927849e-003 -2.45531648e-002
      -2.51880325e-002 -8.82788822e-002 -5.90555929e-002
      -2.82881558e-002 -2.52181645e-002 -2.59701442e-002
      -1.31554548e-002 -2.06084037e-003 -1.96990892e-002 1.02723129e-002
      -1.20583763e-002 -1.80186220e-002 -3.03283967e-002
      -2.69851740e-002 -1.65271647e-002 1.04139103e-002 -2.62194127e-003
      -7.62576237e-002 -1.06069863e-001 -6.17090836e-002
      -2.98126992e-002 -2.40855422e-002 -3.46847214e-002
      -3.72830778e-002 -3.79068851e-002 -6.86921831e-003
      -1.88721083e-002 1.33651346e-002 -1.70687260e-003 4.85801743e-003
      -3.26645672e-002 -2.54412107e-002 -9.48438235e-003
      -8.59291386e-003 -4.53098044e-002 -8.62093940e-002
      -6.57888725e-002 -6.34529963e-002 -7.09383702e-003 7.53957778e-003
      9.22579132e-003 -5.23472298e-003 -1.35784678e-003 -6.79332670e-003
      -3.92667856e-003 1.72558222e-002 2.86930446e-002 3.19787785e-002
      6.62789540e-003 -1.34241814e-002 -6.79254672e-003 -1.77326463e-002
      -4.25638398e-003 -1.65571589e-002 -3.45188938e-002
      -3.01844273e-002 1.99354775e-002 1.91670805e-002 4.33794875e-003
      1.02194659e-002 4.60475264e-003 1.01773981e-002 2.93027540e-003
      1.61114540e-002 4.06983867e-002 3.94223072e-002 2.03707255e-002
      -4.34690854e-003 3.53669375e-003 -1.77597720e-002 -9.47420020e-003
      -1.55749368e-002 -4.33320999e-002 -4.38380912e-002
      -1.07259285e-002 -1.83453374e-002 -2.49396600e-002
      -1.77926496e-002 -1.69604998e-002 -6.19871821e-003
      -1.58201642e-002 -1.13019943e-002 7.37205474e-003 1.39564630e-002
      -2.19959207e-002 -3.19094732e-002 -1.30280722e-002
      -4.68032211e-002 -6.19071014e-002 -9.19732600e-002
      -4.59189340e-002 -7.02148527e-002 -2.74461769e-002
      -3.36519666e-002 -7.17190234e-003 -7.82356691e-003
      -1.76238380e-002 -2.48246659e-002 -3.20765674e-002
      -2.82050855e-002 -9.05872416e-003 -1.23924008e-002
      -3.81979384e-002 -4.79097068e-002 -4.94188219e-002
      -7.56609291e-002 -1.10118151e-001 -1.25276476e-001
      -8.74238089e-002 1.15011875e-002 2.77274009e-002 1.42649235e-002
      1.21249361e-002 6.84469938e-003 2.04373095e-002 1.23756938e-002
      2.36576311e-002 2.30556689e-002 4.14441340e-002 3.13514210e-002
      1.59697272e-002 -1.46255223e-002 2.65690126e-003 -8.05240218e-003
      -1.68908779e-002 -3.06794289e-002 -1.40026994e-002
      -2.14512814e-002 2.52728723e-002 1.39374211e-002 2.08550468e-002
      1.28732231e-002 1.65533442e-002 -1.64485327e-003 1.24396393e-002
      1.18263706e-003 1.80581119e-002 1.70665104e-002 9.00053245e-004
      -2.37848386e-002 -3.60253491e-002 -2.84791868e-002
      -5.03566638e-002 -8.06085542e-002 -7.76756555e-002
      -5.22314608e-002 1.23243630e-002 3.44596221e-003 8.63803644e-003
      2.13234723e-002 -1.58821035e-003 7.94712361e-003 2.79105455e-003
      -6.12862967e-003 -4.07951360e-004 -1.99711951e-003
      -8.58692080e-003 6.75920863e-003 -1.05516658e-004 -3.23850922e-002
      -8.61704871e-002 -1.16833866e-001 -9.63519886e-002
      -6.77087903e-002 -2.41987556e-002 -2.65820716e-002
      -3.76497582e-002 -1.73005480e-002 -9.38254967e-003 7.01939035e-003
      -1.70813799e-002 -3.86295132e-002 -5.78515530e-002
      -4.76901494e-002 -3.55694778e-002 -2.38554105e-002
      -1.47298183e-002 -4.91835065e-002 -7.62959048e-002
      -1.16892457e-001 -8.19933414e-002 -1.98396873e-002 3.17809321e-002
      3.87979373e-002 2.52653565e-002 2.89743580e-002 -2.25081155e-003
      -3.83120985e-003 7.54403975e-003 -8.15516431e-003 9.53632221e-003
      6.42230129e-003 2.72932206e-003 8.24415911e-005 8.31793901e-003
      -1.57102142e-002 -4.26040106e-002 -6.00578561e-002
      -3.17788981e-002 -2.23048683e-002 1.53637887e-003 -5.93084982e-003
      -9.84827708e-003 1.16741145e-002 -1.61168352e-003 -5.41906385e-003
      -4.58115526e-003 -3.11384611e-002 -3.69536057e-002
      -4.80293408e-002 -1.45740742e-002 -1.32158892e-002 8.72955099e-003
      -4.41916622e-002 -6.56339005e-002 -6.01990037e-002
      -4.39528935e-002 -1.50824320e-002 -3.35194878e-002
      -4.84259240e-002 -4.33177575e-002 -2.93002520e-002
      -8.55328981e-003 5.39199961e-003 -1.25012109e-002 -4.02779914e-002
      -4.65285406e-002 -3.40970010e-002 -1.72672793e-002
      -9.59453825e-003 -1.60166845e-002 -1.46194333e-002
      -2.33987886e-002 -4.88032848e-002 -2.46722680e-002
      -1.85652915e-002 -3.28381024e-002 -3.93814668e-002
      -3.62960547e-002 -1.97863653e-002 -7.93861505e-003
      -1.45756518e-002 -7.26678316e-003 -3.86268608e-002
      -1.74144395e-002 -1.59017853e-002 -2.14338233e-003
      -7.54794525e-003 -2.73450371e-002 -8.39481782e-003
      -1.29226847e-002 -1.73181370e-002 4.70437901e-003 -8.36973451e-003
      -1.26573732e-002 -3.15400548e-002 -1.56943332e-002 5.63770998e-003
      -4.55222605e-003 -1.64859724e-004 -1.89571939e-002
      -4.17136848e-002 -5.52937202e-002 -6.02100007e-002
      -1.14482986e-002 -2.51831077e-002 -1.32491514e-002
      -2.69801654e-002 -2.42197625e-002 -3.07086520e-002
      -1.71845406e-002 -1.31955063e-002 -1.97221618e-002
      -3.56474817e-002 -1.25965131e-002 -1.52073614e-003
      -7.35081593e-003 1.07599038e-003 -1.08956024e-002 -4.37033027e-002
      -4.77478914e-002 -3.84651236e-002 -1.56603418e-002
      -7.59795494e-003 5.26136346e-003 -7.82775879e-003 -1.12689324e-002
      -1.87309086e-002 -7.60484999e-003 -3.41585986e-002
      -5.51608717e-003 -8.49278830e-003 -3.66515629e-002
      -3.43195498e-002 -6.94433460e-003 -3.14330123e-002
      -3.24731171e-002 -3.72238345e-002 -1.68795772e-002
      -2.36878414e-002 1.62184369e-002 6.10820716e-003 1.85729563e-002
      -1.61175220e-003 -6.48769736e-003 -1.34856096e-002
      -7.30729429e-003 -7.41742738e-003 -1.07000424e-002
      -3.15167755e-003 -1.80312041e-002 -1.94690507e-002 7.76915113e-003
      1.40210707e-003 -2.91588176e-002 -1.72675978e-002 -2.16312576e-002
      2.12879423e-002 2.42679752e-002 4.51966794e-003 1.95509568e-002
      1.27253635e-003 2.48917821e-003 7.99339917e-003 1.27738470e-003
      -2.88455281e-002 -1.27434134e-002 -1.73481423e-002
      -3.13555859e-002 -8.58805701e-003 -1.69579927e-002
      -4.14398499e-003 -1.80570241e-002 -4.18708846e-002
      -2.58269086e-002 -1.40243666e-002 7.03454157e-003 1.70911178e-002
      5.00666760e-002 5.14006708e-003 1.77659988e-002 -2.97926413e-003
      -2.31976975e-002 -7.88839720e-003 2.51581278e-002 2.62206700e-002
      5.97974472e-003 8.99546593e-003 4.81612282e-003 -8.42346799e-006
      -1.63996704e-002 1.03793060e-002 -3.13448673e-003 2.54588183e-002
      1.94336213e-002 2.42242534e-002 5.79680577e-002 2.24705134e-002
      3.88986915e-002 1.60062760e-002 -1.24022942e-002 -3.07608489e-003
      -1.02402354e-002 1.11532435e-002 5.57955867e-003 -4.11651516e-003
      2.54639890e-003 2.02709734e-002 -3.49867949e-003 -1.22916121e-002
      -2.86403988e-002 1.03677595e-002 5.84449270e-004 5.36180858e-004
      5.61545324e-003 -7.67546147e-003 -1.28255533e-002 2.05017254e-003
      7.26604485e-004 -1.04179746e-002 1.49035016e-002 1.36368871e-002
      1.27367787e-002 1.43767241e-002 -8.70728458e-004 -5.50789153e-003
      1.22811422e-002 -2.84908339e-002 -3.83557491e-002 -1.15162125e-002
      9.86217335e-003 -3.15937097e-003 1.68852240e-003 -1.05102286e-002
      -2.18627919e-002 -2.77931197e-003 -1.44529948e-002
      -7.78932869e-003 2.84039285e-002 5.09111397e-002 2.49066632e-002
      5.12084598e-003 7.62625458e-003 5.40548097e-003 -7.62496842e-003
      1.30155776e-002 -1.84619762e-002 8.52102600e-003 2.97014229e-003
      -4.30361228e-003 6.48323307e-003 -1.70565639e-002 1.61942339e-003
      -7.62562966e-003 -1.73693579e-002 -3.15723615e-003 2.14051995e-002
      5.83907142e-002 3.55203040e-002 3.99726778e-002 9.50675458e-003
      3.12315486e-002 3.27772163e-002 -8.14423896e-003 -6.48061000e-003
      -4.05309169e-004 8.98863096e-003 7.38613773e-003 1.83383450e-002
      -1.62280090e-002 -1.81351304e-002 -7.67088309e-003
      -2.55431905e-002 -2.79784352e-002 -2.08427906e-002
      -5.29896654e-002 -4.22561541e-002 -1.88566875e-002 1.12048704e-002
      7.53795914e-003 3.05969249e-002 -2.45839972e-002 -2.62119230e-002
      1.83842692e-003 -3.40077956e-003 2.24537007e-003 8.69094580e-003
      5.65810837e-002 2.55466998e-002 1.59925930e-002 -2.93666013e-002
      -2.64472030e-002 -2.35735737e-002 -2.44913157e-002
      -1.62243228e-002 -3.02427411e-002 1.58814923e-003 1.32512832e-002
      1.15487976e-002 -1.92556586e-002 -2.63801846e-003 4.10888046e-002
      2.79016495e-002 3.34557109e-002 2.70988867e-002 6.28715381e-002
      3.04186512e-002 1.14863338e-002 -2.65050773e-002 -5.39966598e-002
      -4.26201932e-002 -5.90144135e-002 -3.23888026e-002
      -9.37238615e-003 8.24189372e-003 2.95491200e-002 1.53034739e-002
      -4.33011726e-002 -3.44926864e-002 -1.82873511e-003
      -6.21526223e-003 1.30077619e-002 3.52594373e-003 3.30707990e-002
      6.08254597e-003 -3.74980504e-003 -6.78606927e-002 -1.45454435e-002
      -2.41043270e-002 -3.81165445e-002 -2.99226120e-002
      -3.35374437e-002 -3.00607234e-002 -5.93768619e-003
      -6.72854343e-003 -2.41223667e-002 -1.69610381e-002 3.36089209e-002
      7.48983445e-003 1.95129681e-002 -3.53790401e-003 5.46286255e-003
      1.28580397e-002 -5.08527411e-003 -3.76785286e-002 -4.18537157e-003
      -3.99334216e-003 -2.97316350e-003 -6.58539450e-003
      -4.04104106e-002 -1.15440357e-002 8.17002542e-003 2.67500128e-003
      -1.29409404e-002 5.47385355e-003 2.76603512e-002 -6.18873583e-003
      9.06658638e-003 1.05917500e-003 1.62013620e-002 1.37872947e-002
      1.97823681e-002 -1.04462625e-002 -1.07969681e-003 3.26720178e-002
      7.66160525e-003 -6.41896669e-003 -2.56740842e-002 -2.79584173e-002
      -7.48639274e-003 -7.80250086e-003 -2.43050810e-002 5.94176585e-003
      8.84805154e-003 -1.03567885e-002 -5.96634950e-003 1.46391345e-002
      5.04456181e-003 -8.60452466e-003 5.05098607e-003 -3.14025544e-002
      1.14844665e-002 1.65134366e-003 -6.21266710e-003 -1.75633505e-002
      -4.65531759e-002 -4.69344184e-002 -2.15023551e-002
      -9.44380835e-003 -3.94203439e-002 -2.52505764e-002 1.31478189e-002
      -5.87898307e-003 -8.28327052e-003 -1.58611103e-004
      -6.97623007e-004 -2.54882453e-003 -6.22615824e-003
      -1.42607661e-002 -8.80014151e-003 7.77242891e-003 -2.47481819e-002
      -3.76480706e-002 -5.98745719e-002 -7.52415210e-002
      -4.91866618e-002 -6.22504987e-002 -2.75526401e-002
      -2.49110479e-002 1.71005353e-002 1.59880798e-002 1.26674622e-002
      2.47620102e-002 1.64299272e-002 -8.43551196e-003 -5.52590471e-003
      -2.77055502e-002 -1.94091555e-002 -2.00108159e-002
      -5.63209131e-002 -6.58166558e-002 -5.63443117e-002
      -6.73266947e-002 -5.00161573e-002 -4.86789010e-002
      -2.61582471e-002 -1.34342276e-002 -9.50041320e-003
      -2.81486847e-002 -2.99561210e-002 -1.11647416e-002
      -5.26992744e-003 -1.51341856e-002 -1.60909649e-002
      -3.67857106e-002 -8.86100531e-003 -3.68067473e-002
      -6.51309937e-002 -7.07700178e-002 -3.69811095e-002
      -5.47421090e-002 -2.17810795e-002 -2.28662845e-002 1.02256443e-002
      2.11176500e-002 1.00744078e-002 -1.95077136e-002 -1.17957378e-002
      -1.06149269e-002 8.06595082e-004 3.16243097e-002 3.50096934e-002
      1.13160321e-002 -8.39698594e-003 -1.53588708e-002 -4.35201414e-002
      -5.55604212e-002 -5.61966226e-002 -7.14403540e-002
      -6.94202036e-002 -7.64632151e-002 -3.29032764e-002
      -1.23536950e-002 1.80394761e-002 4.60163830e-003 4.57576010e-003
      7.78834242e-003 1.18218679e-002 -6.77616801e-003 -2.86027882e-003
      -1.80210415e-002 1.80397034e-002 -4.41129319e-003 -4.53200657e-003
      -2.14396268e-002 -1.09754223e-002 -1.94837078e-002
      -3.19501460e-002 -3.84594947e-002 -7.32806744e-004 2.97848321e-002
      4.41013798e-002 2.24955752e-002 1.25496397e-002 1.20234322e-002
      1.21650798e-002 2.72661783e-002 2.26907488e-002 2.08797324e-002
      -4.84715179e-002 -8.35466087e-002 -1.03228234e-001
      -1.14236370e-001 -7.80197904e-002 -6.66882619e-002
      -3.69096808e-002 -1.43000651e-002 -5.77986008e-004 7.87161943e-003
      -3.93652095e-004 -2.16553286e-002 -1.18653942e-002
      -1.49002448e-002 -7.02138431e-003 1.87924560e-002 2.82257013e-002
      1.06834406e-002 -2.62920950e-002 -5.12653738e-002 -7.63284564e-002
      -1.16512619e-001 -9.85308364e-002 -5.93502857e-002
      -3.82520705e-002 -2.13534236e-002 -3.52157615e-002
      -2.94399913e-002 -5.86512079e-003 -3.88359325e-003 2.55473400e-003
      1.14309480e-002 8.41261446e-003 3.17893364e-003 1.89113226e-002
      1.14478078e-002 -1.07163275e-002 -2.19926406e-002 -3.67872864e-002
      -7.66880736e-002 -6.61145598e-002 -3.91194448e-002
      -3.18019418e-003 -1.33027285e-002 7.66948506e-004 2.16016080e-002
      3.41875367e-002 1.83432065e-002 8.96334182e-003 4.15935880e-003
      1.68712670e-003 1.63833387e-002 -1.07219233e-003 1.05561363e-003
      3.75882233e-003 4.64640674e-004 -2.99459472e-002 -5.27460724e-002
      -2.31772978e-002 -2.99806893e-002 7.08644371e-003 -4.67625121e-003
      -2.40473170e-002 -1.29809324e-002 1.81894582e-002 1.33446082e-002
      2.22704578e-002 1.99909937e-002 6.12103054e-003 -3.42759560e-003
      -9.56318714e-003 -5.47957327e-003 -7.10196048e-003
      -2.34105531e-002 -4.05822694e-002 -5.03783040e-002
      -2.92184185e-002 -2.80124862e-002 -4.09665704e-002
      -3.54113616e-002 -1.63851567e-002 -2.30887532e-002
      -5.83491847e-003 -3.92855750e-003 -8.88196938e-003
      -7.99105316e-003 -1.02772862e-002 -7.00596021e-003
      -5.69520425e-003 -2.02157311e-002 -1.79599486e-002
      -7.71474233e-003 -2.69416533e-002 -1.30523853e-002 1.25538707e-002
      5.48993796e-003 -3.03723005e-004 -2.84037925e-002 -1.53802400e-002
      -2.33748136e-003 3.31733027e-003 3.19932611e-003 -1.42912520e-002
      -3.26965787e-002 -2.99130306e-002 -2.19606906e-002 1.49542121e-002
      -2.07977071e-002 5.23833605e-003 -1.65376887e-002 -1.02283796e-002
      -1.20806415e-002 1.92140210e-002 7.98130594e-003 1.01321153e-002
      7.15541327e-003 -8.13208334e-003 -1.37097863e-002 -2.36893119e-003
      -4.91150375e-003 9.64273140e-003 8.23630393e-003 -4.12196433e-003
      -1.30628636e-002 -2.01686099e-002 -2.94716172e-002
      -1.68714747e-002 -6.35413220e-003 6.00794889e-003 -1.14289187e-002
      1.16252769e-002 1.85765009e-002 2.26143794e-003 9.82587971e-003
      -2.96436064e-003 7.50955846e-003 2.43415460e-002 5.31885249e-004
      -9.10612196e-003 2.73331447e-004 -2.39653960e-002 -3.11692916e-002
      -3.21721844e-002 -4.91166301e-002 -2.65655089e-002 2.16353312e-002
      7.76113430e-003 2.09859777e-002 2.70959474e-002 3.05342358e-002
      3.45366634e-002 -4.51341690e-003 4.47210157e-003 2.09202059e-002
      1.17974030e-002 -2.82280752e-003 -6.32891152e-003 -1.87694747e-002
      -4.08906415e-002 -2.57792324e-002 2.79744826e-002 -9.08717106e-004
      -3.28101926e-002 -1.03875445e-002 -1.37132406e-002
      -2.04874537e-004 4.95989621e-003 -2.61005759e-003 -9.76671278e-003
      -3.32971327e-002 -5.73985092e-003 1.14902612e-002 1.09560108e-002
      -1.74171031e-002 -1.21779246e-002 1.19208712e-002 -4.59991023e-002
      -2.76694987e-002 -1.49262901e-002 -2.37399247e-002
      -2.18440779e-002 2.34103366e-003 9.81515390e-004 -4.47905855e-003
      1.21715041e-002 2.22858172e-002 1.15666119e-002 3.17937345e-003
      3.57917184e-003 1.17406147e-002 2.38098148e-002 1.55186569e-002
      1.05601546e-004 1.94968097e-002 -8.05569720e-003 -1.87003501e-002
      -2.46250834e-002 -3.64629254e-002 -4.26731445e-002
      -3.61824930e-002 -1.79650541e-002 -4.22727177e-003
      -1.07264072e-002 -2.11903024e-002 -1.55617232e-002
      -4.25786376e-002 -1.39058800e-002 -5.23035554e-003
      -1.41527867e-002 -1.40515817e-002 -1.57348206e-003 2.16028485e-002
      -2.67269034e-002 -1.80351343e-002 -2.76764967e-002
      -4.58451360e-002 -3.52552310e-002 -1.99590437e-002
      -9.07750148e-003 -9.16162133e-003 -1.09017519e-002
      -2.55639236e-002 -2.14311983e-002 -3.17924842e-002
      -2.11748574e-003 5.95795177e-003 1.19026974e-002 -8.57501570e-003
      -3.50853503e-002 3.80273140e-003 -4.02435660e-002 -1.66556966e-002
      6.48807501e-004 -2.27728561e-002 -2.50404328e-002 -1.33051677e-002
      6.25799084e-003 4.77353483e-003 -1.84230064e-003 -1.17079830e-002
      1.10150557e-002 1.34035656e-002 2.14010105e-003 -4.29493748e-003
      1.10499794e-002 2.02805325e-002 -1.02486927e-002 8.22756905e-003
      -2.99755279e-002 -1.97606627e-002 3.12786479e-003 -1.95030291e-002
      -3.04955356e-002 -3.17954794e-002 3.41354893e-003 1.71735492e-002
      5.01536345e-003 -1.85475741e-002 -1.28747905e-002 -4.24042121e-002
      -1.95727795e-002 -4.11872230e-002 -3.89329046e-002
      -3.36256884e-002 -3.00826840e-002 -2.16255500e-003
      -1.79665983e-002 -1.02835922e-002 4.78620408e-003 -2.15538014e-002
      -7.51225743e-003 -2.62427004e-003 3.15006338e-002 4.27057669e-002
      4.39998023e-002 3.98840336e-003 2.35506799e-002 5.70721552e-003
      2.39361376e-002 -3.34669277e-002 -2.71440484e-002 -1.30664073e-002
      -9.71869379e-003 -8.89223348e-003 -2.62480471e-002
      -6.84874365e-003 3.38495872e-003 -4.70250985e-003 -5.07214442e-002
      -2.27456056e-002 -1.60019547e-002 -4.70966334e-003 3.62785440e-003
      -1.89043779e-003 5.71344327e-003 2.30256971e-002 1.17889913e-002
      -5.90002351e-003 -1.35429353e-002 7.62047851e-003 -6.84385654e-003
      -4.21342673e-003 -7.52779422e-003 -3.02845202e-002
      -1.28920916e-002 -4.10599746e-002 -6.99543059e-002
      -3.29002365e-003 1.76299643e-003 -8.94879829e-003 -6.21430762e-003
      -2.19750088e-002 -2.67918147e-002 7.41157029e-003 -1.39476554e-002
      -4.66086389e-003 -1.49508798e-002 -5.46621450e-004
      -2.03587674e-002 -5.83461449e-002 -2.41109245e-002
      -3.48677225e-002 -5.21573797e-002 -8.54644179e-002
      -4.18419503e-002 -1.30516635e-002 1.32718869e-002 1.02724284e-002
      7.49210594e-003 -7.47373793e-003 6.45854557e-003 1.26553243e-002
      1.21267159e-002 -3.71643491e-002 -3.65782939e-002 -1.63713377e-002
      -1.23010520e-002 -1.31902657e-002 4.98626707e-003 7.92606734e-003
      3.56395543e-003 -1.65088028e-002 -2.24031694e-002 2.03216933e-002
      2.99816374e-002 2.00710557e-002 1.16115157e-002 -2.11443603e-002
      -1.57051217e-002 -1.66517356e-003 -4.15568464e-002
      -1.59305017e-002 -1.01576168e-002 -4.33222996e-003
      -1.89943034e-002 -1.98773667e-002 1.40972156e-002 1.25097325e-002
      2.33935155e-002 -1.79676730e-002 -5.42624407e-002 3.75165441e-003
      9.43115074e-003 -6.40914729e-003 -5.37685072e-003 -1.95839629e-002
      -1.33044329e-002 -4.91226139e-003 -1.81097798e-002 2.89599225e-003
      -9.32171848e-003 9.06787626e-003 9.48936399e-003 -2.01421678e-002
      -2.34386232e-002 -3.65666114e-002 -4.42861840e-002
      -6.94403648e-002 -7.04547241e-002 -4.86093201e-002
      -2.79335994e-002 -2.06730310e-002 -1.68054625e-002
      -2.73933727e-002 -2.20840853e-002 -1.30971521e-002
      -4.09233794e-002 -5.40537685e-002 -5.94695024e-002
      -3.74511294e-002 -2.48281341e-002 -3.76812257e-002
      -8.27132612e-002 -7.21457526e-002 -6.58432841e-002
      -8.40467587e-002 3.71658523e-003 5.14565110e-002 3.98567878e-002
      3.16879526e-002 2.00556647e-002 -4.06816043e-003 -1.06646502e-002
      -9.02900100e-003 -8.11918173e-003 1.77678466e-002 3.35738785e-003
      2.28025150e-002 7.60529749e-003 8.96482356e-003 -4.48412681e-003
      -7.39920745e-003 1.31913899e-002 -1.82713587e-002 -4.51220199e-002
      -2.26457529e-002 1.44904722e-002 1.80232450e-002 1.82305016e-002
      1.48712099e-002 2.50714738e-002 -2.98707304e-003 -3.14490236e-002
      -9.24941804e-003 -3.67360488e-002 -1.32947518e-002
      -3.46674323e-002 -5.63139981e-003 -4.48760577e-002
      -4.19826955e-002 -3.94935310e-002 -4.15966585e-002
      -2.10084338e-002 -7.14670913e-003 -2.66970345e-003 8.33124295e-003
      1.27014769e-002 -1.20929712e-002 -2.85393302e-003 2.94946687e-004
      -1.31214261e-002 -4.19149920e-002 -7.01620132e-002
      -2.89429743e-002 -3.45804356e-002 -2.38381326e-002
      -3.50074843e-002 -2.21681967e-002 -4.23805527e-002
      -3.36701982e-002 -1.83480158e-002 -2.64750496e-002
      -3.06039900e-002 -5.93299232e-003 -2.24510543e-002
      -1.18346047e-002 2.62483046e-003 -7.13841431e-003 6.05432782e-003
      -2.58667581e-002 -5.81182279e-002 -4.56498563e-002
      -4.65206318e-002 -8.45514052e-003 -2.96044517e-002
      -3.30685452e-002 -4.44359481e-002 -2.52765678e-002
      -1.94095951e-002 -9.30259190e-003 2.21661273e-002 2.33481526e-002
      1.17772296e-002 -7.11787899e-004 2.37956233e-002 1.64870936e-002
      -1.02074351e-002 -2.19498761e-002 -3.63344774e-002
      -2.77287550e-002 -2.67971642e-002 -7.67796882e-004
      -2.26679258e-002 -2.11662650e-002 -1.96526833e-002
      -7.82338250e-003 -6.46314351e-003 -1.73811112e-002 2.29289592e-003
      3.85118276e-003 -1.86199937e-002 -5.78314625e-003 1.79957002e-002
      2.03461573e-002 1.05844419e-002 6.25249697e-004 -1.81954429e-002
      -3.37244421e-002 -2.38707829e-002 -3.08719222e-002
      -4.48122844e-002 -2.65055634e-002 -3.16083319e-002
      -2.23687608e-002 -2.56553181e-002 -3.15884538e-002
      -1.40533037e-002 -1.44639565e-002 -2.24111751e-002
      -8.22454225e-003 3.15241865e-003 -5.03857061e-003 5.08911093e-004
      -4.99120401e-003 -1.61100458e-002 -1.53931780e-002
      -3.64871584e-002 -1.62624978e-002 -3.76894884e-002
      -2.07035448e-002 -2.66094562e-002 -2.74359062e-002
      -3.40734958e-003 9.87748336e-003 2.09202684e-004 4.68567759e-003
      -8.39824695e-003 -1.27442684e-002 1.54901873e-002 5.71089424e-003
      1.09712770e-002 -1.36214180e-003 2.67766346e-003 -1.76865216e-002
      -3.90727147e-002 -1.43613946e-002 -1.36248656e-002
      -1.37736313e-002 -1.67522822e-002 -1.42401326e-002 9.11335554e-003
      -9.10736993e-003 5.22518624e-003 3.93322157e-003 -2.52325479e-002
      6.30353054e-004 4.31684731e-003 8.15474149e-003 -1.61426584e-003
      -1.19717941e-002 -4.07423116e-002 -3.16432044e-002
      -3.01152300e-002 -2.99296826e-002 -3.16235833e-002
      -2.01569125e-002 -3.51030566e-002 -2.91293710e-002 2.27403380e-002
      2.54809260e-002 1.09688789e-002 1.51403202e-002 -1.02641853e-002
      -1.46434316e-002 1.18129253e-002 6.30385149e-003 1.13915820e-002
      4.12346330e-003 -3.25297825e-002 -2.42098104e-002 -3.68024781e-002
      -1.53581137e-002 -1.23117296e-002 3.93345114e-003 -1.64968558e-002
      -6.41354546e-003 -4.04332206e-002 -4.32206830e-003 4.79570264e-003
      1.36611629e-002 -1.45650757e-002 -1.27180824e-002 1.45099638e-002
      -8.85380432e-003 5.02030039e-003 -1.20101664e-002 -1.90753918e-002
      -1.84082519e-002 -3.04809138e-002 -1.46318944e-002
      -3.49428691e-002 -2.50639543e-002 -5.06764725e-002
      -5.51711842e-002 -2.82595623e-002 -1.23808580e-002 4.72592376e-002
      2.57463548e-002 1.45091228e-002 -2.96151848e-003 3.47644091e-002
      3.55983302e-002 3.08641186e-003 -1.70387793e-002 -3.08364462e-002
      -3.82402092e-002 -2.40774099e-002 4.34195949e-003 -3.32771167e-002
      -2.43283957e-002 -3.49159278e-002 -5.24008535e-002
      -2.01545376e-002 1.19080534e-002 1.86140556e-002 1.70688592e-002
      -8.15160945e-003 -3.01041417e-002 7.92104844e-003 1.21072233e-002
      4.33409074e-003 -3.62742902e-003 -2.55121272e-002 -1.22016305e-002
      -3.12696677e-003 -1.46503132e-002 -6.99884724e-003 1.10890735e-002
      1.00019006e-002 -1.45874107e-002 -1.52931353e-002 3.44930328e-002
      5.72677739e-002 3.48093808e-002 2.06549242e-002 1.27837490e-002
      4.06185947e-002 4.53685224e-002 -5.12215914e-003 1.01936201e-003
      -1.87143069e-002 -2.41244379e-002 -9.95616196e-004 3.65583673e-002
      1.43540679e-002 1.54755777e-002 1.12901470e-002 -1.48047814e-002
      -2.66421307e-002 -6.86809281e-003 -2.77130120e-002
      -2.41832938e-002 -6.20071031e-003 -2.16417946e-003 1.63337346e-002
      -2.87207146e-003 -3.90433222e-002 -2.14552209e-002
      -2.65387185e-002 1.40723493e-002 2.09273007e-002 2.75372025e-002
      2.01577861e-002 1.42255574e-002 1.55381439e-002 -2.56783571e-002
      -6.38970453e-003 -3.31134396e-003 -1.80775970e-002
      -1.96713638e-002 -1.24014597e-002 -2.52218861e-002
      -1.92376059e-002 -8.18424579e-003 -4.40646075e-002
      -1.80019811e-002 2.81600151e-002 1.97420213e-002 3.85169983e-002
      1.41771566e-002 -2.04082206e-003 1.09928772e-002 2.53370125e-002
      -2.28182916e-002 -1.11567285e-002 1.47448592e-002 -2.25472249e-004
      -6.65370328e-003 1.40197075e-003 -2.05540080e-002 -5.59453329e-004
      -1.94494836e-002 -4.61951494e-002 -2.85255853e-002
      -2.39694417e-002 -4.87609766e-003 2.41456032e-002 1.73266754e-002
      1.01579279e-002 5.28365606e-003 2.03295629e-002 5.01329685e-003
      -2.13491488e-002 -6.24998379e-003 -2.20367294e-002
      -3.13124694e-002 -2.02042498e-002 -2.30016280e-002
      -2.77179908e-002 -2.15661656e-002 -2.52161175e-002
      -1.07989078e-002 2.95322947e-002 2.55358797e-002 4.41168174e-002
      2.02681292e-002 4.65764105e-003 8.91705323e-003 3.25519107e-002
      -3.16633210e-002 1.51803251e-002 2.91771081e-004 -6.75448310e-003
      -3.85664403e-002 -5.39806373e-002 -6.85756803e-002
      -5.41471392e-002 -3.63127552e-002 -5.84926046e-002
      -2.34991647e-002 5.40745631e-003 -6.01534732e-003 4.83722612e-003
      1.23014925e-002 -1.62663707e-003 -1.03564877e-002 -2.62930444e-005
      -1.30913639e-002 1.20597519e-002 1.88091528e-002 9.19026043e-003
      -1.15555059e-002 -4.26535197e-002 -5.86318634e-002
      -4.94552143e-002 -6.42321184e-002 -3.16102989e-002 1.00091901e-002
      3.60374860e-002 2.75461841e-002 3.82364243e-002 3.27612311e-002
      2.83958819e-002 6.72278646e-003 2.07974184e-002 7.11094681e-003
      -1.02798278e-002 -1.25197647e-003 -1.21670719e-002
      -3.18449996e-002 -3.23933922e-002 -4.89328690e-002
      -3.64278965e-002 -3.40555869e-002 -6.26993552e-002
      -5.57939894e-002 2.30465401e-002 5.39226644e-003 2.50332411e-002
      8.71353503e-003 -3.81184462e-003 6.04253029e-004 1.55995451e-002
      -3.26082483e-002 1.66295678e-003 2.69945990e-002 3.61086205e-002
      1.46586599e-003 -1.30570354e-002 -3.45367417e-002 -1.67406145e-002
      -1.57469288e-002 -2.76269577e-003 8.43045767e-003 5.72736487e-002
      3.46848071e-002 6.91148266e-002 3.81996296e-002 2.11767741e-002
      1.88386552e-002 1.96520779e-002 -8.94520339e-003 -1.88285504e-002
      -2.27566194e-002 -1.78355072e-002 -4.62281629e-002
      -6.66791946e-002 -8.14223737e-002 -9.06546116e-002
      -1.04469851e-001 -6.91515803e-002 -4.36085574e-002
      -2.06880365e-002 -1.50346383e-002 1.16442898e-002 1.17513137e-002
      4.02992358e-003 -1.80434622e-002 -1.09706968e-002 -4.90652630e-003
      4.83720517e-003 8.78107175e-003 2.33424231e-002 -8.08946323e-003
      -2.51590367e-002 -3.03782783e-002 -3.76481898e-002
      -7.17159659e-002 -4.90817465e-002 -1.67973563e-002 1.23669887e-002
      1.26158539e-003 8.67359806e-003 2.43751495e-003 9.26424563e-003
      -2.35110405e-003 -6.69794437e-003 1.01556405e-002 -8.65278207e-003
      8.30919016e-003 2.28747409e-002 -1.09209139e-002 -4.48176898e-002
      -5.89747243e-002 -5.82028180e-002 -5.11586368e-002
      -5.99922203e-002 -3.44948247e-002 3.67389480e-003 7.52288010e-003
      1.84696279e-002 1.97508335e-002 -4.94538015e-003 3.33833252e-003
      -1.69142929e-003 -8.06436688e-003 1.89917069e-002 2.13728119e-002
      4.22924533e-002 1.88366994e-002 -2.43994985e-002 -2.28565242e-002
      -1.65953897e-002 -1.81471296e-002 -2.67886948e-002
      -1.32149262e-002 1.58130750e-002 1.68451071e-002 9.84480977e-003
      1.80739276e-002 2.30534133e-002 1.63831562e-002 1.94596052e-002
      1.68983638e-002 -2.96623614e-002 -9.67081077e-003 -1.50685823e-002
      -4.16154265e-002 -2.64554713e-002 -3.62027586e-002
      -1.91892777e-002 -3.90262119e-002 -9.66973789e-003 4.14027832e-003
      3.30595560e-002 2.16927659e-002 1.15411794e-002 -1.08261942e-003
      1.41971244e-003 -7.84559269e-003 -2.54115835e-002 -8.62593856e-003
      -1.71440709e-002 -1.02626458e-002 -1.23829134e-002
      -2.04794761e-002 6.50413288e-003 -2.36350652e-002 2.74490030e-003
      -1.15206866e-002 -1.61315054e-002 -1.31257409e-002 1.78093370e-002
      8.69633444e-003 -6.29652757e-003 -1.20176040e-002 -1.31610716e-002
      -9.35045164e-003 -1.79764759e-002 -1.53663149e-002
      -2.14320645e-002 -8.00523628e-003 1.96146257e-002 -1.35810636e-002
      -3.04204207e-002 -3.20520923e-002 -1.10552553e-002
      -3.37101333e-002 1.43477530e-003 -5.38142771e-003 1.27922203e-002
      2.06150562e-002 1.33538747e-003 1.27603544e-003 1.19368946e-002
      -6.05364377e-003 5.13731502e-004 1.17043324e-003 -2.90483646e-002
      -3.34378369e-002 -2.18509287e-002 -5.24038710e-002
      -2.21429635e-002 -3.18788551e-002 -2.90314071e-002
      -1.85918082e-002 -7.38211535e-003 -2.61079017e-002
      -4.66183247e-003 -2.04731431e-002 -3.27259302e-002
      -2.31537353e-002 -1.89255960e-002 2.33164406e-003 -1.35272332e-002
      -2.37414204e-002 1.11855101e-002 7.42814969e-003 1.05222296e-002
      -8.01660866e-003 3.35171968e-002 -2.61888467e-003 1.59424525e-002
      1.80617664e-002 6.51940797e-003 -9.75209661e-003 1.33706331e-002
      -2.91554560e-003 -3.25592374e-003 3.82132758e-003 -1.42111452e-002
      1.19834878e-002 1.36919413e-002 -2.16074567e-003 -1.19284289e-002
      -1.78856589e-002 5.24718431e-004 -2.06702612e-002 1.35141993e-002
      -2.51245423e-004 2.34619994e-002 1.70291774e-002 -1.70892179e-002
      -2.00006019e-004 1.24334171e-002 -1.17314737e-002 -1.96145605e-002
      1.12679964e-002 -7.05609377e-003 8.90446547e-003 -5.16371010e-003
      -3.23150903e-002 -1.01926383e-002 -1.74475629e-002
      -1.68246627e-002 -3.45177576e-002 4.83173924e-003 -3.87396365e-002
      -9.99037176e-003 1.04691237e-002 1.08378092e-002 -1.71825960e-002
      -1.21017231e-003 1.61856273e-003 -1.03159687e-002 5.03358105e-003
      -1.99368708e-002 9.67817381e-003 9.29751247e-003 -2.98753660e-002
      -2.07887893e-003 -2.69646049e-002 -9.88596398e-003
      -2.61331890e-002 -2.38565393e-002 -5.07791080e-002 2.44545960e-003
      -2.28226325e-003 -1.50003973e-002 -2.73647555e-003
      -1.91113818e-002 -1.29990876e-002 -2.87794396e-002 2.15472113e-002
      -2.58734841e-002 -1.30526710e-003 -3.36084486e-005
      -9.34565323e-004 9.95378476e-003 -7.22628506e-003 4.61971108e-003
      -3.67178698e-003 7.65739195e-003 1.21332780e-002 2.88967397e-002
      -1.79746747e-003 -2.01259591e-002 -1.64572932e-002 2.73442175e-003
      -1.38359694e-002 -3.67571414e-003 3.48360911e-002 1.98743977e-002
      2.02889089e-002 1.02814008e-002 3.83533048e-003 -1.27605186e-003
      -2.36431733e-002 8.94801039e-003 -1.26602659e-002 -1.98504841e-003
      1.36939064e-002 2.80769989e-002 -1.44064454e-002 -2.02973243e-002
      -2.45482940e-002 -1.14205424e-002 -1.47555834e-002 5.44631248e-003
      3.49869356e-002 6.05938071e-003 1.32855680e-002 1.15084732e-002
      1.03200478e-002 1.31112952e-002 -3.14560309e-002 -4.11868095e-003
      -1.56835001e-002 -2.22981926e-002 -3.44357677e-002 2.73318812e-002
      2.56776577e-003 -3.38014588e-002 -3.08847078e-003 -2.26017367e-002
      -1.12453969e-002 -1.84565131e-002 2.89840996e-002 1.39312977e-002
      2.91625652e-002 -3.39617790e-003 2.74390429e-002 1.10846816e-003
      -2.72390228e-002 -4.67991550e-003 -2.36638896e-002 6.83861552e-003
      7.56140426e-003 2.83909626e-002 8.79123714e-003 -5.85985137e-003
      1.92254386e-003 -9.55385156e-003 -2.15966422e-002 -2.41190977e-002
      7.49156717e-003 -6.43577287e-003 3.01654916e-004 -1.31199919e-002
      3.78236524e-003 -2.01603174e-002 -4.03003581e-002 -2.15678546e-003
      7.69370701e-003 1.25395982e-002 1.91349145e-002 3.15326676e-002
      8.59651831e-004 1.23441014e-002 -2.46665757e-002 -2.63127685e-002
      -2.45693680e-002 -1.77069362e-002 -5.47280628e-003
      -5.16162207e-003 -3.13388486e-003 1.44255231e-003 -1.21534374e-002
      -1.61902383e-002 2.06969492e-003 1.57253109e-002 3.29370648e-002
      3.74845341e-002 2.27695405e-002 3.92685756e-002 1.85786486e-002
      3.82812396e-002 -1.27951307e-002 -5.24337776e-003 -1.35867195e-002
      -9.70197562e-003 -2.12896783e-002 -1.94178801e-002 1.72536485e-002
      -2.78023211e-003 -1.39381634e-002 -2.90282890e-002
      -4.14112508e-002 -1.23450346e-002 -1.78722646e-002
      -7.52523541e-003 1.81620382e-002 2.57536303e-002 3.13738175e-002
      -3.14050261e-003 3.31042893e-003 -6.69698697e-003 -3.31308953e-002
      -4.72966954e-002 -1.96945444e-002 -1.82255805e-002
      -2.68274583e-002 -1.49856592e-002 -2.37671919e-002 3.48111568e-003
      -4.59380681e-003 1.67329144e-003 -1.08600920e-002 -3.45334550e-003
      2.29700599e-002 2.36214995e-002 5.16847111e-002 4.29586368e-003
      4.64741187e-003 1.68839768e-002 -6.24738168e-003 -4.88356389e-002
      -4.06331345e-002 -2.18530912e-002 -1.64989568e-003 1.19221071e-002
      1.22703547e-002 -3.39045152e-002 -3.74148553e-003 1.92888137e-002
      8.40220507e-003 1.13296285e-002 3.90175777e-003 1.59367907e-003
      -1.51548092e-003 6.92886254e-003 -1.25970598e-002 -7.95526896e-003
      -1.86727494e-002 -2.29167975e-002 -1.35161150e-002 4.73030086e-004
      2.81615071e-002 3.10336682e-003 -1.84640922e-002 -1.92555878e-002
      -1.19610829e-002 2.08952446e-002 2.86712032e-003 -7.96620175e-003
      -3.27377692e-002 -8.59160628e-003 -1.24932788e-002
      -4.13698554e-002 -2.03922167e-002 -1.40389930e-002
      -1.37750739e-002 -1.76168233e-002 -8.66856240e-003 9.52151895e-005
      1.85488630e-002 4.11362350e-002 1.45433389e-003 -3.40596307e-003
      3.92541382e-003 1.15390709e-002 -1.49756260e-002 -5.08753723e-003
      8.20823852e-003 -1.81989409e-002 5.19461464e-003 -3.06190643e-003
      3.91795021e-003 3.48509639e-003 -2.47546025e-002 -4.46883366e-002
      -3.21429223e-002 -2.02956069e-002 -4.21352405e-003 1.32870730e-002
      1.08482018e-002 9.47997905e-003 -1.50472298e-002 1.79019626e-002
      -9.33816284e-003 -1.31723341e-002 -2.20704004e-002
      -1.57926138e-002 -2.37971824e-002 -1.12218838e-002 8.70695512e-004
      3.30930240e-002 -1.19011384e-002 -1.25271464e-002 -6.62202295e-003
      -5.86231751e-003 3.96745559e-003 5.19404411e-002 2.53154710e-002
      -8.09573475e-003 3.36989276e-002 3.72231007e-002 1.71129201e-002
      5.96941973e-004 -1.64909437e-002 -3.67841194e-003 -2.58233561e-003
      -2.51385160e-002 -9.78123583e-003 -9.75995604e-003 7.34454300e-003
      -6.70455024e-003 2.07721046e-003 -4.82922362e-004 3.89746344e-003
      3.29179056e-002 -5.47389966e-003 -7.21524656e-002 -1.77295282e-002
      2.28202399e-002 4.40755190e-004 7.84398895e-003 -7.11560342e-003
      9.27408505e-003 -1.42512154e-002 -4.51896116e-002 -2.43579056e-002
      -4.63137589e-002 -4.75985333e-002 -4.94753569e-002
      -3.43960784e-002 -5.34783639e-002 -2.69536916e-002
      -1.93190668e-002 -4.46352139e-002 3.37392860e-003 7.98386056e-003
      5.29918261e-003 -6.37816219e-003 -6.07423205e-003 -2.03162357e-002
      -6.63026981e-003 -8.80510733e-003 5.31680696e-003 4.39887820e-003
      -8.87108513e-007 -1.42986290e-002 -1.54391723e-002
      -2.33462639e-002 -1.16939815e-002 3.02488380e-003 3.94341871e-002
      4.49365377e-003 -3.41333747e-002 5.89096511e-004 8.66488670e-004
      7.90320220e-004 1.70038082e-002 -3.58198141e-003 1.85318701e-002
      3.17397825e-002 -7.71286851e-003 -2.48653330e-002 -1.52086315e-003
      -5.72665595e-003 -1.72356516e-002 -1.68295372e-002
      -1.66022032e-002 5.88092720e-003 1.73340533e-002 -2.52375249e-002
      -3.08427252e-002 -4.81351418e-003 2.43305545e-002 2.42600143e-002
      1.40756657e-002 1.05228908e-002 3.62920500e-002 5.46326721e-003
      -4.37558368e-002 -4.36274484e-002 -3.99798937e-002
      -3.82551886e-002 -3.24653536e-002 -2.27712002e-002
      -1.79960448e-002 -9.00839176e-003 2.22995225e-003 -1.48146255e-002
      -4.02408838e-002 -2.10168082e-002 4.02974430e-003 1.29089635e-002
      -1.47191286e-002 -1.54650947e-002 7.06531759e-003 -2.14190059e-003
      -3.09476163e-002 -6.24683462e-002 -6.59197792e-002
      -6.98193088e-002 -5.05909435e-002 -6.91695288e-002
      -5.28895631e-002 -4.06059362e-002 -5.33750989e-002
      -5.03002368e-002 1.61192212e-002 1.60711575e-002 8.67001247e-003
      2.23177969e-002 2.34479029e-002 1.79006476e-002 2.78398097e-002
      5.11306673e-002 -1.36394678e-002 -2.16443054e-002 6.43943716e-003
      -6.41867332e-003 -1.71929169e-002 -1.13713695e-003
      -1.61267929e-002 -7.38306995e-003 6.80305436e-003 1.39427101e-002
      -1.28528606e-002 2.20182333e-002 1.80304423e-002 2.11951733e-002
      8.65095481e-003 1.22610088e-002 1.39148785e-002 2.39904821e-002
      -2.60613970e-002 -3.61769050e-002 -1.97834279e-002
      -4.06708233e-002 -4.56906781e-002 -3.85257937e-002
      -2.46467292e-002 -3.30778733e-002 -2.42095590e-002
      -2.22244002e-002 1.29956880e-003 -7.73132453e-003 3.32490471e-003
      1.28572807e-002 -7.51224393e-003 -1.59640796e-002 -1.30630303e-002
      -2.48539727e-002 -2.80765221e-002 -5.30673079e-002
      -6.76164627e-002 -4.21272479e-002 -3.37898172e-002
      -2.82008983e-002 -8.10185447e-003 -1.22816488e-003
      -3.23583446e-002 -1.44605460e-002 5.52779704e-004 4.36029863e-003
      2.75064143e-003 -1.22093057e-004 -1.56726129e-002 -2.68108062e-002
      -2.13810671e-002 4.71536955e-003 2.01882571e-002 -9.42890905e-003
      -5.64906448e-002 -3.91062163e-002 -2.36051101e-002
      -1.05499756e-002 1.44945104e-002 8.25066399e-003 -1.61353890e-002
      -1.57589912e-002 2.43126275e-003 -1.12831371e-003 1.93010345e-002
      1.32380538e-002 2.15719249e-002 6.17844611e-003 2.89320509e-004
      -1.47863701e-002 -3.50341201e-002 -3.77813093e-002
      -5.11515774e-002 -4.85456996e-002 -3.38820592e-002
      -9.42615420e-003 -2.20879577e-002 -5.70018264e-003
      -1.29606882e-002 4.02076030e-003 -3.53336893e-003 -6.95574190e-003
      2.72836592e-002 1.30692832e-002 3.68582718e-002 1.81587301e-002
      8.97202175e-003 6.23550685e-003 -1.34341158e-002 -2.95142625e-002
      -4.75462936e-002 -4.29882295e-002 -4.06068005e-002
      -1.74688771e-002 -5.63191203e-003 -3.70763848e-003
      -4.80675604e-003 -1.77035257e-002 -3.22744660e-002
      -2.14296230e-003 1.36853829e-002 -8.68292619e-003 -2.18054634e-002
      -3.31969485e-002 -2.83127334e-002 1.05526438e-002 1.12238275e-002
      -2.26627197e-002 -2.82811336e-002 -2.23668441e-002
      -2.08860971e-002 -1.70965064e-002 8.28885194e-003 8.36162549e-003
      1.69432035e-003 -3.31167504e-002 -3.02099753e-002 2.16327645e-002
      5.73588945e-002 1.73510723e-002 2.12323498e-002 5.50775416e-003
      -5.23411762e-003 1.92658522e-003 -1.89987998e-002 -4.60980311e-002
      -2.14823615e-002 -1.64033640e-002 -2.25115623e-002 8.78446549e-003
      2.19118744e-002 -2.22724606e-003 2.85141612e-003 -2.93851104e-002
      -6.00454174e-002 -1.88441537e-002 8.53926502e-003 6.76711882e-003
      8.41464847e-003 -5.91891538e-003 2.43862486e-003 4.89258673e-003
      -3.26910545e-003 -4.65897247e-002 -3.26867066e-002
      -3.57352383e-002 -4.30587269e-002 -2.46200282e-002
      -4.22405684e-003 -2.17292029e-002 -2.00755857e-002
      -6.23332709e-002 -5.23323119e-002 9.74750426e-003 4.26225252e-002
      9.79097746e-003 2.93332543e-002 2.46513970e-002 8.69232044e-003
      8.67530517e-003 -2.02459879e-002 -3.68989781e-002 6.04786025e-003
      -6.99156430e-003 -1.26822228e-002 2.31488980e-002 2.59196311e-002
      -2.22634412e-002 -4.87299450e-003 -4.26625237e-002 6.37905963e-004
      1.14089390e-002 1.09026888e-002 2.56629963e-003 2.04617754e-002
      -1.20265957e-003 1.72656979e-002 -2.75558475e-002 -3.97061184e-002
      -2.37188879e-002 -1.41413771e-002 -2.86373775e-002 6.39553089e-003
      7.25696608e-003 9.82320588e-003 -3.80152953e-003 -9.75220872e-004
      -1.56076020e-002 -3.37984748e-002 -2.61165537e-002
      -3.04306131e-002 -1.99961588e-002 6.93463115e-003 -1.17650218e-002
      -6.50436501e-004 -2.70412713e-002 1.44109933e-003 9.49052442e-003
      4.03367281e-002 6.39720121e-003 2.21306086e-002 4.57620365e-004
      3.85658420e-003 -1.28866639e-002 7.27468403e-003 -3.41636650e-002
      1.27178561e-002 2.15428621e-002 2.19766628e-002 2.12208163e-002
      1.48022091e-002 5.41253667e-003 -1.14005655e-002 -6.25989959e-002
      -6.95149675e-002 -4.57457565e-002 -8.51729605e-003
      -3.61355469e-002 -2.48087570e-003 -1.09829335e-002 1.09292418e-002
      2.64502261e-002 2.26949044e-002 3.35845212e-003 -3.93122137e-002
      -2.57643424e-002 7.28393346e-003 7.94233382e-003 8.10262281e-003
      5.72051795e-004 -2.02115346e-003 -3.45241353e-002 -2.98998132e-002
      -2.55493671e-002 -7.18041882e-003 -2.89592054e-002
      -4.24975064e-003 -2.28818860e-002 -7.25076022e-003
      -1.43565016e-003 1.53216859e-003 -3.57231796e-002 -3.40819955e-002
      -2.19511539e-002 -2.38365754e-002 -1.03941197e-002
      -7.17398943e-003 -1.77018363e-002 -2.01250538e-002
      -5.03330417e-002 -6.73379377e-002 -6.62039071e-002 1.56153203e-003
      -1.42246792e-002 1.75726023e-002 7.26485439e-003 1.28829023e-002
      2.48677447e-003 -1.07592170e-003 -3.49427275e-002 -4.35399031e-003
      1.71501245e-002 2.22270750e-002 1.74660012e-002 2.28680763e-002
      2.08293064e-003 1.42326485e-002 -9.34392493e-003 -3.52044590e-002
      -3.39125805e-002 3.51849720e-002 4.67097536e-002 4.57623452e-002
      3.14321443e-002 2.29511522e-002 1.87346544e-002 7.50760594e-003
      7.02666410e-004 -3.35278213e-002 -2.02020183e-002 -8.78552534e-003
      2.95868260e-003 -1.06348079e-002 -9.76760685e-003 -1.77156590e-002
      -4.88233864e-002 -6.69122860e-002 -7.03133866e-002
      -5.77385016e-002 -3.50312963e-002 -1.95754357e-002
      -2.05419655e-003 1.42541751e-002 1.35348849e-002 -1.22527108e-002
      -1.73572544e-002 -2.78422926e-002 -9.31205042e-003
      -1.65571598e-003 7.41323922e-003 1.06515381e-002 9.49218217e-003
      8.53348337e-003 -7.01917801e-003 -5.21357246e-002 -3.32144015e-002
      -2.27005053e-002 1.91466715e-002 2.33065784e-002 3.01559432e-003
      1.60661787e-002 3.26219550e-003 -9.22493171e-003 1.07802851e-002
      -1.26243671e-002 1.35947866e-002 1.42028779e-002 -4.83219186e-003
      -5.82770538e-003 -4.74778078e-002 -4.65992913e-002
      -4.40389402e-002 -9.05261189e-002 -8.15029070e-002
      -1.33419661e-002 -6.59337966e-004 -7.73073547e-003
      -1.03617925e-002 -1.98963769e-002 8.54649697e-005 -8.15864373e-003
      -1.14278803e-002 2.10519116e-002 4.03076895e-002 4.45180051e-002
      2.41739396e-002 -1.18416187e-003 -1.98464412e-002 -1.34366425e-002
      -2.30405992e-003 -2.14921441e-002 -2.90649105e-002 3.24700982e-003
      -6.95388019e-003 -1.69075020e-002 3.34805390e-003 2.89489049e-003
      1.69971362e-002 1.89466272e-002 7.26305181e-003 -3.94422710e-002
      -1.01475501e-002 -7.45392544e-003 -1.55573217e-002 1.14634393e-004
      -3.64153869e-002 -4.61136103e-002 -4.83987145e-002
      -8.80693570e-002 -8.78222436e-002 -6.10477999e-002
      -2.20306981e-002 -2.39307471e-002 -5.26246279e-002
      -4.80252020e-002 -5.18817343e-002 -3.63319032e-002
      -1.18551971e-002 1.32292602e-002 4.54077274e-002 3.98927182e-002
      1.16932997e-002 2.18524449e-002 6.74006809e-003 -2.45566275e-002
      -7.87417963e-003 -2.59625632e-002 -3.77669521e-002 5.52660692e-003
      -1.63533539e-002 -3.52574959e-002 -1.70135498e-002
      -1.00115696e-002 -1.86752379e-002 -1.12108393e-002
      -2.77334102e-003 8.08497984e-003 1.82991121e-002 2.75002643e-002
      -3.10991122e-003 -5.78538235e-003 -1.41478311e-002
      -7.42786657e-003 -3.20805758e-002 -2.42663622e-002
      -2.84830965e-002 -5.88579709e-003 -1.08772907e-002
      -3.88103612e-002 -1.52328620e-002 -2.51442473e-003
      -8.07692483e-003 1.26322601e-002 1.70110855e-002 -3.07763088e-003
      -1.55420238e-002 -2.58872565e-002 -4.64419276e-002
      -1.77113935e-002 -3.04918028e-002 -2.89511699e-002
      -2.30522305e-002 -2.53666304e-002 -4.10847478e-002
      -1.86315943e-002 -4.23567705e-002 -7.38123581e-002
      -4.36461456e-002 -3.08146160e-002 -1.40866656e-002
      -2.72203749e-003 -1.01470733e-002 2.35831272e-002 2.43851561e-002
      2.79080272e-002 -3.54377273e-003 1.86931826e-002 8.29998776e-003
      -1.28519069e-002 -1.18983295e-002 -3.17916274e-002
      -3.43869515e-002 -2.48013977e-002 -2.34471280e-002
      -5.50087951e-002 -1.68964937e-002 2.24682371e-004 -2.44452548e-003
      8.04399233e-003 5.69029758e-003 1.25203719e-002 3.59919760e-003
      1.60775837e-002 -1.28038938e-003 -1.23627558e-002 -2.56640911e-002
      -1.13371201e-002 -1.03901895e-002 -3.82304452e-002
      -4.34477888e-002 -1.51771614e-002 -4.08757068e-002
      -6.69379532e-002 -4.51760292e-002 -2.59184837e-002
      -2.18469296e-002 1.11055991e-003 -1.97807848e-002 -1.37831375e-003
      -6.37101242e-003 -3.56063829e-003 -4.69273562e-003 1.16521670e-002
      -2.91227903e-002 -2.87546514e-004 1.48662571e-002 9.51466337e-003
      8.99409316e-003 -3.67057323e-003 -1.24856317e-002 -3.98229063e-002
      -4.84063430e-003 -3.15668434e-002 5.39188925e-003 1.57146174e-002
      -1.26330452e-002 5.67223784e-003 -3.77542451e-002 -6.81987638e-003
      -1.45364655e-002 -2.06888318e-002 -4.04731631e-002 9.28250793e-003
      9.42393206e-003 -1.45520112e-002 3.95294232e-003 -1.83500145e-002
      1.32691476e-003 -3.40808630e-002 5.40567935e-003 -2.08145138e-002
      2.73085013e-002 2.10059006e-002 2.08617002e-002 5.90417953e-003
      -3.49869719e-004 2.25270819e-002 1.38209965e-002 3.24453823e-002
      2.45595933e-003 2.36097146e-002 4.46184352e-003 4.38138749e-003
      9.92413610e-003 2.62837913e-002 1.90295116e-003 -3.05098798e-002
      -5.85657544e-003 -4.38792296e-002 6.73556584e-004 -3.69812921e-003
      -1.46022262e-002 -1.36972079e-002 -4.77609299e-002
      -2.51717791e-002 -9.81508009e-003 4.96958569e-003 5.12722321e-003
      1.65180378e-002 1.70276798e-002 1.21607501e-002 -4.39536106e-003
      1.05164470e-002 3.82231884e-002 -8.85418057e-003 1.08166942e-002
      -1.58618484e-002 3.75401638e-002 6.48553530e-003 1.25316891e-003
      2.03750096e-002 -1.58326887e-002 9.97335277e-003 -1.89453159e-002
      -1.40665621e-002 -3.07502598e-002 3.14554246e-003 2.61610337e-002
      -6.34256657e-003 -4.52794554e-003 -2.67234142e-003 2.06097309e-002
      -1.08275861e-002 1.92342252e-002 1.18508413e-002 3.01145799e-002
      2.32141395e-003 2.79176738e-002 -1.88274812e-002 -1.78821795e-002
      -2.83174496e-003 -2.96539012e-002 1.80447977e-002 -7.02047581e-003
      1.20467565e-003 3.55442390e-002 2.03835089e-002 2.55636349e-002
      1.12011572e-002 7.91799556e-003 -1.35085918e-003 1.68269444e-002
      5.35963848e-003 -9.88288666e-005 -1.14379795e-002 -4.94071282e-003
      7.30593503e-003 -9.01390892e-003 -4.81730374e-003 -1.45537332e-002
      9.79518145e-003 1.51098159e-003 1.09600732e-002 2.23079175e-002
      -1.65799949e-002 -3.05371694e-002 1.68032665e-003 3.73072997e-002
      6.10158360e-003 3.15662809e-002 1.91330127e-002 5.45144528e-002
      6.83187041e-003 1.73543096e-002 -1.79175474e-002 4.76630172e-003
      -1.00729745e-002 -2.39817183e-002 2.39375290e-002 -6.45670108e-004
      1.01419212e-002 2.95507032e-002 5.83604677e-003 1.53726563e-002
      9.16296791e-004 -2.96749640e-003 -6.68280618e-003 3.06652095e-002
      1.75138167e-003 1.32526213e-003 -1.32003743e-002 3.75384954e-003
      -3.15920711e-002 -2.54234970e-002 -1.23534417e-002
      -1.93890035e-002 1.88802043e-003 7.32258719e-004 6.56774594e-003
      2.99031083e-002 5.68881631e-003 6.24561263e-003 3.30855465e-003
      -2.39810161e-002 -2.71225683e-002 -1.99237335e-002
      -1.54261058e-002 -8.18023551e-003 6.60849735e-003 -9.06311721e-003
      7.77057139e-003 -1.04118523e-003 -1.06560364e-002 -2.61544082e-002
      -1.70282088e-002 -1.86045878e-002 -9.91119258e-003 3.19219157e-002
      -1.83471318e-004 -2.09561773e-002 1.33792404e-002 9.40789003e-003
      -2.94040088e-002 -7.36910477e-003 1.18056145e-002 1.05119711e-002
      3.45811956e-002 3.65621597e-002 -2.03832891e-002 -5.31576714e-003
      -1.95191391e-002 -2.60030087e-002 1.88174099e-002 -3.89704877e-003
      1.36088775e-002 1.53735932e-002 -8.54577695e-004 1.75383836e-002
      -7.28192739e-004 -6.65478408e-003 -1.16536338e-002
      -1.18797929e-004 -3.27717811e-002 -1.82585120e-002
      -1.71167329e-002 -1.24450708e-002 -6.20380370e-003
      -2.00507678e-002 -1.76444650e-002 -2.11155936e-002 1.77133810e-002
      -2.32082885e-002 -5.78685803e-003 1.38422856e-002 2.40548085e-002
      1.45346327e-002 3.38913091e-002 4.29660045e-002 1.51007287e-002
      -5.53859718e-005 -1.22091677e-002 -2.08330015e-003
      -4.36466932e-003 1.55106997e-002 -2.61431746e-002 -1.04612159e-002
      -2.18438115e-002 -2.92786974e-002 -2.81489622e-002
      -3.08265183e-002 -5.22512980e-002 1.67631777e-004 -8.54729023e-003
      -1.09331710e-002 4.98615252e-003 1.15016173e-003 -3.80029567e-002
      -9.28420573e-003 3.43632535e-003 -1.26503389e-002 8.07173736e-003
      -2.04251311e-003 -2.00250931e-003 -1.29616838e-002 4.07434581e-003
      -1.45823164e-002 -2.77176742e-002 -4.30998653e-002
      -2.72466466e-002 6.04622811e-003 2.84197251e-003 1.01692267e-002
      3.81842218e-002 8.05463269e-003 -1.07693318e-002 -1.26336673e-002
      -2.98715371e-004 1.75642068e-004 1.49513287e-002 3.34089913e-004
      -2.56834645e-002 -3.95824276e-002 -2.86460500e-002
      -2.17054337e-002 -6.88741216e-003 -4.43615466e-002
      -4.51175086e-002 -2.05230918e-002 -2.87435693e-003
      -1.34898107e-002 2.94888932e-002 2.64554713e-002 -1.06494762e-002
      3.15424264e-003 -9.76806786e-003 -1.22805322e-002 -2.48219296e-002
      -1.11077297e-002 -4.85629030e-003 -2.39625457e-003 7.81098707e-003
      3.32206651e-003 4.76207770e-003 -2.60830149e-002 -9.99328308e-003
      5.74502684e-002 -4.29050531e-003 -1.65690726e-003 4.67765927e-002
      2.39116512e-002 3.03957378e-003 -8.39602295e-003 -5.06848982e-003
      -3.29949125e-003 -4.57941042e-003 -6.03088457e-003
      -3.33756185e-003 -3.76751013e-005 -7.43627874e-003
      -5.65894647e-003 -2.09305491e-002 -2.87297834e-002
      -2.31229719e-002 -6.40968420e-003 -1.80233475e-002
      -3.41291204e-002 7.66749354e-003 -7.79507682e-003 1.13208336e-003
      -2.00748965e-002 1.91413492e-004 3.52265127e-003 7.98218418e-003
      -1.32186860e-002 -2.84931269e-002 5.01438137e-003 -9.24152136e-003
      -2.02274267e-002 2.90232711e-003 -9.50191729e-003 -1.06406808e-002
      1.87605489e-002 -2.92938333e-002 -4.00984995e-002 -1.55509422e-002
      -8.98120925e-003 -1.11586694e-002 -3.14351059e-002
      -1.40336268e-002 3.52604198e-003 9.00212768e-003 -2.73626279e-002
      -2.96833999e-002 -2.50492641e-003 2.23804899e-002 2.06088237e-002
      8.96162353e-003 -6.45125343e-004 1.46489043e-003 4.18729745e-002
      -2.83681024e-002 -1.64838657e-002 3.43760550e-002 2.24512015e-002
      2.63292659e-002 -4.21055499e-003 8.83994251e-003 5.79921203e-003
      7.81112118e-004 -2.36576982e-002 -3.80198807e-002 4.24559508e-003
      3.10239848e-002 1.67998020e-002 1.59196649e-002 8.06599110e-003
      1.33661618e-002 2.99749523e-002 -4.19533588e-002 -4.73078564e-002
      3.21113765e-002 1.35243991e-002 9.08926409e-003 -1.59890857e-002
      1.01928134e-002 1.55791119e-002 1.38827255e-002 -3.60190794e-002
      9.34025552e-003 2.10939981e-002 -2.55953101e-003 -1.64679310e-003
      -4.65230027e-004 2.96660117e-003 4.10623057e-003 3.49710882e-002
      -2.40889136e-002 -4.07670513e-002 -1.68483872e-002 6.62948994e-004
      -1.51133379e-002 -7.78308883e-003 -1.06406519e-002
      -1.09057012e-003 1.12676974e-002 8.97739735e-003 -1.15842102e-002
      3.26478928e-002 3.86610627e-003 -1.95943080e-002 -1.00497026e-002
      -1.39991147e-002 -1.24495896e-002 1.78768896e-002 -2.05328707e-002
      -6.39215261e-002 -2.73783505e-002 -3.49227525e-002
      -4.57369871e-002 -3.04037854e-002 -3.48311327e-002
      -4.28059138e-002 -1.49307745e-002 -5.38947433e-003
      -1.60957836e-002 1.48415584e-002 1.19883595e-002 1.07319783e-002
      1.71158127e-002 2.18118839e-002 1.92959849e-002 3.15771103e-002
      -4.06550057e-002 -4.96181287e-002 4.45986353e-003 2.15176120e-002
      2.35789530e-002 7.75510119e-003 1.98178571e-002 2.92801298e-002
      3.75150181e-002 -9.31877457e-003 -1.38892420e-002 1.28759779e-002
      -1.77780278e-002 -2.79988796e-002 -9.74930450e-003
      -1.17623480e-002 -1.69104189e-002 3.23487539e-003 -1.99844651e-002
      -3.48102115e-002 -1.00049498e-002 -9.84459184e-003
      -7.38026248e-003 2.36938242e-003 -1.40204038e-002 -3.00671924e-002
      -4.29267762e-003 -3.35050896e-002 -6.13976875e-003 4.76153567e-003
      2.26184446e-002 5.56318508e-003 2.35989429e-002 4.24088212e-003
      4.52104630e-003 -1.35267796e-002 -2.11868268e-002 -2.16758195e-002
      -2.22844537e-002 -1.94060523e-002 -2.50076354e-002
      -1.14389863e-002 -2.89393160e-002 -2.33566053e-002
      -1.59214158e-002 1.52595965e-002 -3.08827497e-002 -8.71433970e-003
      2.56858841e-002 3.27905156e-002 3.90556492e-002 2.16797981e-002
      4.44391556e-003 -3.04403976e-002 -4.43956032e-002 -4.95283417e-002
      -2.17833444e-002 -3.45623158e-002 -4.97595109e-002
      -3.43517549e-002 -1.54872239e-002 -2.50354875e-002
      -2.13697702e-002 -1.89767666e-002 -1.88353367e-003 9.15580615e-003
      -1.76994677e-003 -4.65733605e-003 7.49542098e-003 1.57228054e-003
      -1.36034545e-002 -1.18859364e-002 -2.78861839e-002
      -1.11280968e-002 6.07387046e-004 7.51906354e-003 -6.34675939e-003
      1.60650406e-002 -2.09933594e-002 -1.71762817e-002 8.70853197e-003
      3.39435437e-003 -1.74562186e-002 -2.64190249e-002 -7.08811264e-003
      -4.15107328e-003 -1.95422154e-002 -2.03423314e-002
      -3.45654488e-002 -4.49090898e-002 -5.06198145e-002
      -3.15714814e-002 1.93057526e-002 -8.20548832e-003 -1.80843286e-002
      -6.05110265e-003 -2.70597711e-002 -1.35649545e-002 3.73569527e-003
      2.24965299e-003 -3.85423824e-002 -1.49506526e-002 2.83702859e-003
      1.87001582e-002 1.84433796e-002 -1.69871247e-003 2.53774156e-003
      2.49378802e-003 -3.43565270e-002 -4.50934172e-002 -6.87455619e-003
      -1.84659809e-002 -2.19526738e-002 -2.78857928e-002
      -2.45481357e-002 -3.20720859e-002 -2.78331563e-002
      -3.22245434e-002 -3.85342911e-002 9.45830997e-003 2.16247514e-002
      2.02622022e-002 1.91657767e-002 1.33391777e-002 4.09694128e-002
      4.33370061e-002 -8.14334489e-003 -1.96434520e-002 1.33302528e-002
      5.20205498e-003 7.84621108e-003 -3.93710518e-003 -6.41607586e-003
      -6.75222930e-003 -1.56077417e-002 -3.59430239e-002
      -3.08368318e-002 -3.27101238e-002 -3.09210047e-002
      -1.70613620e-002 -2.17070412e-002 -3.18606459e-002
      -1.86197534e-002 -2.08884962e-002 -3.85043398e-002
      -4.46208417e-002 1.82713140e-002 2.59215478e-003 -3.95061681e-003
      -7.63070630e-003 -2.83317268e-002 -2.32414696e-002
      -3.58387008e-002 -7.28774909e-003 3.18541494e-003 7.24591955e-004
      -5.24836592e-003 2.05276310e-002 2.15558428e-002 1.06679909e-002
      3.82526070e-002 1.80266071e-002 -3.66163366e-002 -5.87145723e-002
      -3.09542399e-002 -7.88595571e-005 1.50625198e-003 -1.16491737e-002
      -4.04790863e-002 -2.00479589e-002 -3.14079300e-002
      -8.04055762e-003 2.02176422e-002 3.18946540e-002 3.59290317e-002
      5.33146076e-002 2.63501666e-002 1.28255244e-002 -2.33861879e-002
      -6.62501305e-002 -6.90725297e-002 -4.74046916e-002
      -1.89896785e-002 -3.86129767e-002 -5.66882128e-003 9.25421846e-005
      1.09062036e-002 4.02019061e-002 2.96272431e-002 1.07955057e-002
      -5.63286990e-003 6.28962740e-003 2.72175558e-002 4.75000255e-002
      2.57089157e-002 1.04271276e-002 3.38767888e-003 -2.89152246e-002
      -2.38842219e-002 -1.20617812e-002 -2.64506713e-002
      -4.78719734e-002 -3.71867754e-002 -2.13253219e-002
      -2.48304140e-002 -5.63220819e-003 5.42152999e-003 -1.46648595e-002
      -1.24778347e-002 2.78927591e-002 3.04283183e-002 3.37182507e-002
      1.47454077e-002 6.31604251e-003 7.07149366e-003 -1.74373724e-002
      -4.11313698e-002 -3.51888798e-002 -6.97655184e-003
      -3.20277438e-002 -1.64311714e-002 8.13443027e-003 1.56343598e-002
      1.11669349e-002 1.75299100e-003 -2.22412702e-002 -4.94309366e-002
      -2.01167865e-003 8.10457394e-003 1.15796737e-002 1.42156053e-002
      2.31098966e-003 1.35619743e-002 -5.40344277e-004 -1.40604321e-002
      1.16801634e-002 8.19289405e-003 -2.86699794e-002 -2.36179363e-002
      -1.46977007e-002 -2.10316796e-002 -2.64283251e-002
      -3.80702093e-002 -5.89649901e-002 -1.88659187e-002
      -3.09500797e-003 8.28958303e-003 1.24173742e-002 -5.03046345e-003
      -1.99330179e-003 -1.97500136e-004 -3.90014723e-002
      -4.48589884e-002 -3.98567691e-002 -6.62423223e-002
      -5.99801391e-002 -4.56977300e-002 -1.64328627e-002
      -1.42806033e-002 -2.38388148e-003 -1.04547301e-002
      -9.55462176e-003 -2.91358903e-002 -4.68399283e-003
      -3.72167298e-004 1.14256656e-002 1.31464275e-002 1.49118332e-002
      2.80878376e-002 1.82000967e-003 -1.24862017e-002 -2.35213917e-002
      -4.18663770e-002 -1.31592564e-002 6.04705047e-003 7.32271094e-003
      6.19564671e-003 4.64848569e-003 -1.29213538e-002 -7.64882145e-003
      -2.18644366e-002 -1.56580824e-002 -7.58534344e-003
      -8.21879320e-003 -2.14700047e-002 -7.61243841e-003
      -9.49517544e-003 -4.44364324e-002 -3.31398882e-002
      -1.57460812e-002 -2.11844761e-002 -7.31959343e-002
      -5.64765856e-002 -1.79000180e-002 -1.91216692e-002
      -2.59313732e-002 -1.65353790e-002 -1.82496980e-002 1.08045461e-002
      2.21162159e-002 1.81572903e-002 1.37826027e-002 1.27034457e-002
      2.55679823e-002 2.01413445e-002 -2.20950022e-002 -1.04484996e-002
      -2.39228532e-002 -5.85604459e-002 -2.63748784e-002
      -4.65147607e-002 9.20879748e-003 2.36832798e-002 1.98248448e-003
      1.89928263e-002 1.67461876e-002 -2.51290295e-002 -2.38037482e-002
      6.41545234e-003 -1.11459075e-002 -1.45226568e-002 -2.06782278e-002
      -1.80882569e-002 -2.88710967e-002 -6.62278756e-002
      -8.55511203e-002 -6.37828782e-002 -5.45481965e-002
      -2.75668651e-002 -4.53154668e-002 -4.12467457e-002
      -3.86717208e-002 -4.21064384e-002 -1.87046081e-002 2.66404878e-002
      1.72665007e-002 2.93887444e-002 2.72283563e-003 6.96061039e-003
      -7.88617064e-004 -1.38569903e-002 1.51881808e-002 8.45224038e-003
      -1.95197780e-002 -6.80180080e-003 -1.83146764e-002
      -1.90150440e-002 -9.73895099e-003 -2.47220863e-002
      -2.34670136e-002 -1.77877732e-002 1.43481549e-002 -2.41058357e-002
      -1.60124828e-003 1.37788141e-002 -5.47356158e-003 -1.14935944e-002
      -1.61085054e-002 -2.74896137e-002 -6.08783029e-002
      -4.70755473e-002 -7.84547850e-002 -9.44544226e-002
      -5.55028021e-002 -4.90190126e-002 -3.53772752e-002
      -2.72109546e-002 -2.75329333e-002 -3.28707062e-002
      -3.05350982e-002 2.24194489e-003 2.09259912e-002 2.46470012e-002
      1.84863899e-002 1.63955856e-002 3.16548976e-004 1.37105035e-002
      1.03869801e-002 1.47806313e-002 1.00392140e-002 4.46383003e-003
      -1.01349978e-002 3.80076142e-003 -1.08845998e-002 -1.04537569e-002
      -1.24860909e-002 -1.96707621e-003 -1.43153395e-003 6.36479398e-003
      6.27460238e-003 1.89908575e-002 1.13624847e-002 1.33683393e-002
      -5.94491605e-003 -3.28959450e-002 -3.88207808e-002
      -2.93267518e-002 -3.37452516e-002 -2.68344451e-002
      -2.54189204e-002 -3.92628610e-002 -2.50860900e-002
      -1.89241264e-002 -1.06907571e-002 9.47562454e-004 -3.78817087e-004
      -1.65038127e-002 -2.35205679e-003 1.94307808e-002 9.19349026e-003
      -5.53364353e-003 -1.37645714e-002 -3.51548493e-002
      -3.62368338e-002 -3.45049798e-002 -3.99020016e-002
      -3.06839701e-002 -1.98016595e-002 -3.90713401e-002
      -6.05631657e-002 -4.63298485e-002 -3.84676270e-002
      -2.76824962e-002 -3.76422629e-002 8.29623919e-003 1.17700920e-002
      2.01511644e-002 2.33112015e-002 -6.85672788e-003 -2.01586504e-002
      -1.65213179e-002 -4.96240929e-002 -3.10163815e-002
      -1.85810421e-002 -1.84092876e-002 -1.36768185e-002
      -1.70569308e-002 -3.14018168e-002 -2.93482747e-002
      -1.97508913e-002 -3.92265478e-003 -2.31015077e-003 1.80555508e-002
