<?xml version="1.0"?>
<opencv_storage>
<my_svm type_id="opencv-ml-svm">
  <svm_type>C_SVC</svm_type>
  <kernel><type>LINEAR</type></kernel>
  <C>1.0000000000000000e-002</C>
  <term_criteria><epsilon>1.1920928955078125e-007</epsilon>
    <iterations>2147483647</iterations></term_criteria>
  <var_all>9504</var_all>
  <var_count>9504</var_count>
  <class_count>2</class_count>
  <class_labels type_id="opencv-matrix">
    <rows>1</rows>
    <cols>2</cols>
    <dt>i</dt>
    <data>
      0 1</data></class_labels>
  <sv_total>1</sv_total>
  <support_vectors>
    <_>
      -1.48132099e-002 5.10291755e-003 3.67342099e-003 1.56029910e-002
      4.21040365e-003 1.26681104e-002 1.10340174e-002 4.71706968e-003
      -2.89440434e-002 -2.40094010e-002 7.20874453e-003 4.71017178e-004
      1.51769714e-002 7.43826525e-003 1.39841642e-002 7.46317487e-003
      3.58888926e-003 -2.05754507e-002 -1.27478372e-002 2.83056102e-003
      7.61390198e-003 3.62129137e-002 1.51601546e-002 1.72845330e-002
      1.08908154e-002 1.68438405e-002 -3.95467412e-003 -3.70416744e-003
      1.45057542e-002 2.84573087e-003 2.27211379e-002 1.80569403e-002
      1.33004989e-002 7.06253632e-004 -1.21417467e-003 -2.33371425e-002
      -2.70446055e-002 -2.01497204e-003 6.00105431e-003 1.48757244e-004
      -4.24023811e-003 1.00690406e-002 2.85122800e-003 5.00490982e-003
      -2.66383067e-002 -1.14323553e-002 1.59554258e-002 1.64316632e-002
      2.17252076e-002 9.58915986e-003 1.24879647e-002 1.22423284e-003
      2.59992899e-003 -3.39454710e-002 -2.93295253e-002 6.83646090e-003
      1.13058733e-002 2.38207299e-002 -4.78202477e-003 1.81572754e-002
      8.40045512e-003 1.21820243e-002 -5.86987240e-003 -3.15455650e-003
      1.30676255e-002 -4.04253509e-003 1.22262286e-002 4.02800459e-003
      -1.25217263e-003 -9.29558557e-003 -7.94823002e-003
      -3.07637751e-002 1.97092351e-003 8.17098282e-003 1.70097016e-002
      2.91949734e-002 7.48976134e-003 1.09575158e-002 8.68128613e-004
      7.18739058e-004 -1.19768232e-002 -1.32746082e-002 6.42693558e-005
      7.93655682e-003 2.38849949e-002 1.83245968e-002 2.92366627e-003
      -1.38166093e-003 3.77273117e-003 -3.44846002e-003 1.98585054e-004
      1.54616241e-003 1.23316636e-002 1.50140906e-002 3.97385331e-004
      -3.65589932e-003 -6.23532105e-003 -1.39635419e-002
      -3.35347615e-002 -3.15825455e-002 -2.15752646e-002
      -6.07701391e-003 1.95468683e-002 6.46961341e-003 5.71024045e-003
      6.52664853e-003 1.43877175e-002 -1.36270002e-003 -1.71034373e-002
      1.82434116e-002 1.70533434e-002 2.37492155e-002 -4.86235513e-004
      2.24724431e-002 6.16108859e-003 3.09063937e-003 -1.78462770e-002
      -1.69626307e-002 -6.61352091e-003 -1.04182176e-002 1.27098504e-002
      -5.90365380e-004 -1.07539156e-002 -1.87816955e-002
      -1.45220533e-002 -2.40176041e-002 -1.81331150e-002 1.22875683e-002
      1.16989464e-002 2.82515748e-003 -1.34776235e-002 2.80750589e-003
      -2.37099826e-002 -2.28105485e-002 -4.19694073e-002
      -3.21153887e-002 -3.06703877e-002 -1.29546495e-002 7.63911474e-003
      8.58105661e-004 -7.13839335e-003 5.06296055e-004 -4.91008209e-003
      -2.14824602e-002 -3.50593589e-003 4.82168375e-003 3.19290230e-005
      5.05845342e-003 2.63190683e-004 -1.11042410e-002 -8.03243835e-003
      -9.45772137e-003 -2.79702041e-002 -2.53021829e-002
      -6.36415929e-003 7.62255350e-003 2.03107186e-002 6.46001566e-003
      1.66535564e-002 1.33048967e-002 8.30707513e-003 -3.31485132e-003
      5.59383479e-004 2.14892849e-002 5.33327181e-003 7.54431589e-003
      2.27314001e-003 2.84627033e-003 -9.98826232e-004 -9.12043266e-003
      -3.37114148e-002 -3.49325389e-002 -1.50192678e-002 1.57824554e-003
      1.03147933e-002 1.44815240e-002 1.33428564e-002 1.40638733e-002
      -6.22230442e-003 -1.40916510e-003 -1.21492771e-002 1.11480597e-002
      1.25879087e-004 -5.00218477e-003 -1.04119750e-002 -8.95485841e-003
      -1.28351450e-002 -1.28715057e-002 -2.36502830e-002
      -1.94252823e-002 -1.06190974e-002 2.73846299e-003 9.47442558e-003
      6.92730583e-003 1.23666273e-002 1.21743679e-002 1.64137583e-003
      -1.85639504e-002 3.68205504e-003 2.68545616e-002 -2.83700507e-003
      7.41326530e-003 -1.06073460e-002 2.66797491e-003 -7.83372670e-003
      -5.44983428e-003 -3.48782577e-002 -3.82030606e-002
      -2.10462660e-002 -1.97929144e-002 6.75585866e-003 -1.30084081e-004
      5.91857312e-003 1.78573246e-004 -3.26389843e-003 -9.34899598e-003
      6.58908320e-005 1.41475080e-002 1.21818911e-002 1.16589861e-002
      -5.22033224e-005 1.05380910e-002 1.41190831e-002 7.04264222e-003
      -2.60559488e-002 -2.94995252e-002 -1.12422388e-002
      -6.72465516e-003 1.18191959e-002 1.74662378e-002 9.55327693e-003
      6.96554268e-003 -5.33847604e-004 2.31596688e-003 6.36907015e-003
      2.03175638e-002 2.26169825e-002 2.40594056e-002 1.12680821e-002
      1.82097685e-002 2.10528299e-002 1.30857537e-002 -3.66688967e-002
      -3.46537642e-002 -7.07477622e-004 9.08974651e-003 2.07706168e-002
      3.03832684e-002 1.97444316e-002 1.26377959e-002 1.82442144e-002
      1.70932822e-002 -6.13632263e-004 1.47832669e-002 -1.04764411e-002
      -1.53985852e-003 -2.04549055e-003 2.23216275e-003 -1.56466535e-003
      7.59875344e-004 -2.45059207e-002 -3.17114331e-002 -2.55929232e-002
      -2.11548284e-002 -2.64068553e-003 2.96340510e-003 -4.77485871e-003
      -1.55531173e-003 -6.95887068e-003 -2.57211411e-003
      -4.12599230e-003 9.94406547e-003 -7.87738420e-004 1.27236592e-003
      5.88498591e-003 4.51288559e-003 4.56457352e-003 9.82794329e-004
      -2.79136505e-002 -2.75069475e-002 -1.81942713e-002
      -3.40908067e-003 1.85242910e-002 2.33319849e-002 -3.43284756e-003
      6.92171464e-003 6.67481311e-003 -4.95425891e-003 -8.64507107e-004
      1.81112792e-002 1.87281780e-002 2.18647085e-002 2.79248636e-002
      2.24416424e-002 1.63193680e-002 1.64255928e-002 -4.31406312e-003
      -1.22211603e-002 -5.69019094e-003 -1.44481678e-002 3.98431718e-003
      2.01378111e-002 1.40062626e-002 1.06974142e-002 1.26498053e-002
      3.19765438e-003 -5.66461124e-003 3.20737110e-003 3.92606482e-003
      1.56444833e-002 1.57193094e-002 1.25968913e-002 1.15914932e-002
      1.78522617e-002 -5.97754261e-003 -1.06784888e-002 -3.45796198e-002
      -3.15527134e-002 -1.06277652e-002 7.24984845e-003 8.13533552e-003
      5.05420379e-003 1.20363384e-002 1.96969020e-003 -1.32629480e-002
      9.58710676e-004 -5.46366035e-004 7.24643352e-004 3.45426216e-003
      -9.43516381e-004 6.19607000e-003 7.60828843e-003 -5.95753314e-003
      -7.82939047e-003 -2.01237807e-003 -7.02978286e-004 2.25794632e-002
      1.68342646e-002 7.78356474e-003 1.26556018e-002 9.89789143e-003
      -1.10821454e-002 -1.26768751e-002 -9.05269571e-003
      -2.16221483e-003 -1.09614024e-003 -1.38273695e-002 4.19411017e-003
      -3.57135618e-003 4.96449973e-003 -2.12357305e-002 -1.23271700e-002
      -2.76346095e-002 -1.20556522e-002 2.29129801e-003 1.17971869e-002
      1.47526991e-002 6.41820859e-003 9.33152717e-003 9.84720886e-004
      1.91302542e-002 3.18018283e-004 2.04937183e-003 1.09524485e-002
      6.40226109e-003 1.82776190e-002 1.64165534e-002 1.42728463e-002
      1.83085760e-003 -5.18091861e-003 -1.52372764e-002 -7.19901593e-003
      4.33433888e-004 2.05564462e-002 1.69983879e-002 1.15339495e-002
      1.17788753e-002 1.88460946e-002 2.79581524e-003 -5.23682078e-003
      -4.78440803e-003 -9.83846956e-004 -7.82632385e-004 1.14278225e-002
      6.05221745e-003 3.38507933e-003 -3.08721457e-002 -2.45336927e-002
      -8.97731911e-003 -1.99000724e-003 9.04785283e-003 1.36030056e-002
      1.14118792e-002 6.06475864e-003 -1.32875871e-002 -2.71300529e-003
      1.07967434e-002 -5.28899208e-003 -1.89773797e-004 -1.87016104e-003
      -7.60741066e-003 -1.60059368e-003 2.91928230e-003 1.01686278e-002
      -1.20001901e-002 -8.84036347e-003 -2.46773381e-002
      -8.60533211e-003 -3.42904264e-003 1.50839686e-002 1.98348407e-002
      1.23881334e-002 1.41386883e-002 1.78295057e-002 9.29276645e-003
      -9.58983321e-003 -9.24190693e-003 -5.82942739e-003
      -2.46836860e-002 -1.27338599e-002 -1.24965729e-002
      -7.01850653e-003 -3.30489539e-002 -2.52982881e-002
      -2.58537047e-002 -1.70763228e-002 -1.82264962e-003 8.56636744e-003
      -1.33451016e-003 -2.93033407e-003 -8.62309523e-003 1.32116033e-002
      -3.30408243e-003 -3.96778109e-004 -3.77349113e-003 1.47593115e-003
      4.61387855e-004 1.93578366e-003 4.27544117e-003 2.52550095e-003
      -1.17127942e-002 -5.29990066e-003 5.27310790e-003 -1.75354220e-002
      8.12889135e-004 1.59618612e-002 1.30120218e-002 1.49062742e-002
      5.38310874e-003 4.67403885e-003 1.07220802e-002 2.56290985e-003
      -5.44017041e-003 -8.00513010e-003 -5.10059064e-003
      -4.06347029e-003 -8.04637652e-003 -4.22363542e-003
      -1.75842736e-002 4.39569959e-003 -1.28000928e-002 -2.71776821e-002
      -2.28673443e-002 3.02897161e-003 5.24218241e-003 1.49269113e-002
      1.90337729e-002 1.16331642e-002 -3.59476684e-003 -3.68421851e-003
      4.66340408e-003 2.81809596e-004 -1.52185690e-002 -1.34279355e-002
      -5.49556687e-003 -4.52087075e-003 -4.38017026e-003
      -1.13245146e-003 -2.71968055e-003 -7.14482740e-003 1.31472212e-003
      2.21415795e-002 1.14592826e-002 8.91015027e-003 2.82042689e-004
      1.80218834e-002 6.87010260e-003 -1.86646648e-003 8.44005775e-003
      2.31096614e-003 -1.81633036e-003 2.73623131e-003 -3.39925056e-003
      -3.97685450e-003 -1.34559125e-002 -1.63600966e-003
      -1.47014139e-002 -1.71907749e-002 -1.08158635e-002 8.40466283e-003
      3.01583344e-003 1.26227355e-002 1.16293887e-002 2.16510445e-002
      1.66312885e-002 6.13124669e-003 -3.05406004e-003 -4.91201133e-003
      3.92483361e-003 -4.88174730e-004 -1.02063119e-002 -1.03552984e-002
      -5.20127686e-003 -8.18721298e-003 -1.42654050e-002
      -2.21960358e-002 -1.09143816e-002 6.08985964e-003 1.90162263e-003
      6.51430665e-003 1.62821189e-002 1.59132145e-002 1.41718863e-002
      1.45088807e-002 1.28497006e-002 2.67661689e-003 1.15942219e-002
      2.85611651e-003 -1.29558356e-003 -1.74438749e-002 -1.08438777e-002
      -1.17229298e-002 -9.16041993e-003 4.59244149e-003 8.87200143e-003
      1.29434299e-002 7.89187755e-003 -5.42197376e-003 9.44695156e-003
      1.02244513e-002 1.45961558e-002 8.57852865e-003 1.88396294e-002
      1.07948212e-002 1.30940210e-002 1.71007903e-003 -6.37963135e-003
      -1.85668748e-002 -2.13312749e-002 -1.33065535e-002
      -2.72369832e-002 -2.34214086e-002 -1.04173804e-002
      -1.07834104e-003 -2.78966920e-003 1.22100266e-003 1.65259186e-002
      2.27517001e-002 1.41638110e-003 1.46882311e-002 2.00722776e-002
      8.01607221e-003 1.65061187e-002 -7.99036177e-004 -8.67610797e-003
      -3.20392065e-002 -2.41135415e-002 -1.86739285e-002
      -1.99864376e-002 -7.57624675e-003 1.96337746e-003 1.26141515e-002
      6.46631932e-004 -1.51163572e-002 -2.13048863e-003 1.10391811e-004
      2.03489903e-002 7.94437528e-003 -6.21808344e-004 -3.29187489e-003
      3.55915719e-004 1.56258710e-003 3.81447840e-003 -3.32402554e-003
      3.10721574e-004 2.23782868e-003 -4.62599611e-003 7.70345004e-003
      1.57587528e-002 1.60549618e-002 1.99086145e-002 6.62624836e-003
      6.14286168e-003 1.58201903e-002 1.47804050e-002 1.70632254e-003
      -1.08764991e-002 -1.59893855e-002 -1.48889543e-002
      -1.69700477e-002 -1.69125162e-002 -1.24807665e-002
      -2.52832659e-002 -1.30064217e-002 -1.60708129e-002 4.35205351e-004
      1.50441956e-002 1.29005201e-002 1.98601112e-002 2.79743988e-002
      1.40015678e-002 1.67610254e-002 7.73385307e-003 1.09830629e-002
      7.33581325e-003 -2.64167273e-003 -4.55219718e-003 -1.26293469e-002
      -1.08875390e-002 -1.50900437e-002 -2.69166869e-003 9.42982733e-004
      -2.50985799e-003 -6.92031346e-004 4.99821920e-003 1.80991851e-002
      5.81160514e-003 -2.46004248e-003 -5.54157933e-003 -3.76845640e-003
      1.36785069e-002 -2.31457409e-003 -1.33679779e-002 -1.81611590e-002
      -1.47249969e-002 -2.83817444e-002 -1.78710259e-002
      -1.94871891e-002 -2.61780303e-002 -7.30440812e-003
      -1.37682296e-002 -1.52162798e-002 -1.07468967e-003 1.38796857e-002
      2.60246103e-003 7.31457211e-003 1.70648508e-002 8.44594929e-003
      2.01896369e-003 -3.88064631e-003 -8.43159482e-003 -1.37074478e-002
      -5.80191752e-003 -2.12143641e-002 -7.58471852e-003
      -8.49420670e-003 -1.92591380e-002 -5.43002738e-003
      -8.41123704e-003 4.00459999e-003 1.07284132e-002 2.07690615e-002
      1.87476929e-002 2.04908568e-002 1.77847650e-002 7.46596092e-003
      -6.01449469e-003 -3.10544530e-003 -2.67701247e-003 1.57089450e-003
      -1.31586450e-003 -1.92815270e-002 -7.19148666e-003
      -5.14313625e-003 -4.48816828e-003 -7.22398981e-003 4.46131080e-003
      1.68121271e-002 2.36799158e-002 2.58231722e-002 1.56667642e-002
      7.17740506e-003 6.34588301e-003 1.43055094e-003 3.00954329e-003
      -2.43111653e-003 -8.54659732e-003 -8.32341332e-003
      -9.14550386e-003 -3.13777924e-002 -2.03940216e-002
      -1.48639912e-002 -1.78974476e-002 -1.51800283e-003
      -1.04792025e-002 -6.73362007e-003 -7.19384465e-004 1.51086012e-002
      1.07096322e-002 9.79353115e-003 1.93202179e-002 1.18389437e-002
      -6.55064499e-003 -1.24773500e-003 -4.63635009e-003 1.19472714e-002
      7.81289022e-003 -2.20544487e-002 -2.10142303e-002 -1.16713913e-002
      -4.55892785e-003 -1.23665081e-002 -1.23806321e-003 7.39150541e-003
      4.82833851e-003 1.22496160e-002 1.10135488e-002 2.01808382e-003
      6.49654074e-003 1.13434289e-002 -2.20698360e-002 -1.66889522e-002
      -7.15816207e-003 -6.05274411e-003 -5.02908183e-003
      -4.74695396e-003 -6.33656560e-003 -9.72619746e-003
      -4.48267814e-003 -3.65821645e-003 3.00171669e-003 1.08324038e-002
      7.89068360e-003 1.67122316e-002 7.59333698e-003 1.01469448e-002
      -1.40684540e-003 2.82381987e-003 -6.58765947e-003 -4.16435814e-003
      -1.16386195e-003 -4.29959688e-003 3.60430265e-003 7.52582354e-003
      2.28610914e-003 2.01414782e-003 3.56661808e-003 1.21288598e-002
      4.35932074e-003 -9.37883960e-005 -6.57587731e-003 1.60308380e-003
      -4.37678740e-004 4.17495240e-003 4.58829524e-003 8.72432906e-003
      -1.38298729e-002 -1.27931526e-002 -1.21906726e-002
      -3.61977122e-003 2.71156337e-003 -8.53758864e-003 -7.02483580e-003
      -7.64210150e-003 -1.67464511e-003 -6.47561625e-003
      -1.92159103e-004 3.49107664e-003 3.48073430e-003 1.64001510e-002
      1.11601688e-002 8.04404076e-003 -3.14778509e-003 2.02860706e-003
      -1.95837254e-003 1.29098562e-003 -1.17150741e-002 -1.19611043e-002
      8.00187327e-003 1.43246655e-003 -4.71839588e-003 3.06725065e-004
      9.77638178e-003 3.53521458e-003 6.30516233e-003 1.09186713e-002
      2.79571605e-003 8.40376131e-003 6.41751382e-003 1.09528201e-002
      1.59835815e-002 1.70995034e-002 -7.66679132e-003 -1.96436056e-004
      -3.43399309e-003 -7.95512367e-003 3.33682168e-003 2.12973100e-003
      5.70644066e-003 1.17120403e-003 1.46848848e-002 1.25599951e-002
      7.98854139e-003 -1.55148620e-003 -1.01530124e-002 -3.76711832e-003
      -9.00077634e-003 -1.51301781e-002 -3.48713226e-003
      -1.35797611e-003 1.27718700e-002 4.62684454e-003 -7.31291389e-003
      -1.27487658e-002 -6.30025286e-003 -4.28504404e-003
      -6.09995285e-003 -7.65658822e-003 4.73231729e-003 2.12801667e-003
      -6.48047309e-003 8.30930599e-004 7.84546323e-003 1.17078852e-002
      3.26844235e-003 -3.72621813e-003 7.42070377e-003 3.13087646e-003
      9.58070904e-003 8.09135195e-003 -9.69082490e-003 -6.01198711e-003
      1.67904086e-002 8.61441251e-004 -5.94356051e-003 2.90968595e-003
      1.38986185e-002 7.33287772e-003 4.86797071e-004 1.28760319e-002
      1.71642529e-003 -3.10904463e-003 -6.13008766e-003 8.20695248e-004
      5.48987510e-003 1.31733455e-002 1.09179076e-002 1.03472853e-002
      3.56732635e-003 -3.22868256e-003 1.16744582e-002 -1.76520576e-003
      -9.90084372e-003 -1.12428116e-002 -4.80682217e-003
      -1.43599752e-002 -1.93214472e-002 2.15112674e-003 1.05562517e-002
      -5.41823963e-003 -5.37866168e-003 -5.40806912e-003
      -3.02690361e-003 5.41736558e-003 -1.74767394e-002 -1.13470107e-003
      4.35911911e-003 -4.62246872e-003 4.96052112e-003 1.53825143e-002
      5.09459199e-003 -1.65982245e-004 -3.75896543e-002 -1.78327933e-002
      7.53606390e-003 1.16520347e-002 2.37782672e-002 1.50689771e-002
      1.54533964e-002 2.23985524e-003 4.18440439e-003 -1.32376226e-002
      -1.97213832e-002 2.12065037e-002 1.98236872e-002 1.80273931e-002
      -1.35122531e-003 1.42080402e-002 4.64750826e-003 2.98689323e-004
      -2.57571060e-002 -1.28761651e-002 -1.21455977e-003
      -1.29991099e-002 6.43228646e-003 5.58447232e-003 1.05955999e-003
      -5.70603786e-003 -6.48141932e-003 -1.39067732e-002
      -5.26366523e-003 1.56137545e-003 -4.16764175e-004 9.45204776e-003
      5.63284382e-003 3.24054696e-002 7.99897499e-003 -7.14146020e-003
      -3.27741802e-002 -3.48043218e-002 8.45442340e-003 1.61632039e-002
      2.39018444e-002 2.51231389e-003 1.95368510e-002 1.74473238e-003
      -8.25787522e-003 -7.84013327e-003 -6.95863133e-003 2.57347915e-002
      9.23775975e-003 1.20838471e-002 -9.81011777e-004 1.78803299e-002
      1.54449912e-002 4.22495091e-003 -1.64340846e-002 -1.77821387e-002
      6.38380088e-003 -1.46953948e-003 6.98796147e-003 -7.82223884e-003
      6.69833785e-003 -8.94134864e-003 -6.25377579e-004 -3.83200636e-003
      -6.42800005e-004 2.20568608e-002 2.14472506e-002 1.66082848e-002
      -6.11190498e-003 6.50232052e-003 -1.44361367e-003 -2.25626165e-003
      -2.32630372e-002 -1.73880141e-002 -5.40623581e-003
      -1.68085657e-002 7.10610254e-003 -3.02245695e-004 -6.74742507e-003
      -1.34815797e-002 -1.00113852e-002 -2.37874265e-004 3.72549956e-004
      2.37726215e-002 2.25389693e-002 1.30146099e-002 -1.39112836e-002
      3.61838029e-003 -1.82826482e-002 -1.29587054e-002 -3.59321684e-002
      -4.13796753e-002 -9.98118799e-003 -1.06746322e-002
      -7.32671050e-003 -1.23589877e-002 -1.33712171e-002
      -7.70348031e-003 -3.58535349e-003 -1.05906324e-002
      -5.45211788e-003 1.39106493e-002 1.39630921e-002 1.55974682e-002
      -1.53888119e-002 -2.93797930e-003 2.46354542e-003 3.46523267e-003
      -1.28538497e-002 -1.27521493e-002 4.13496653e-003 -1.00688925e-002
      -2.78283027e-003 -3.27567174e-003 -2.24453630e-003
      -1.00801000e-002 -2.93462537e-003 7.52001954e-003 -1.21039059e-002
      3.91002744e-003 1.35455560e-003 1.73302609e-002 -1.51568139e-002
      5.73947467e-003 -3.69042996e-003 6.96672685e-003 -3.80367017e-003
      -6.05592923e-003 3.37472098e-004 -1.72181688e-002 -1.74356438e-002
      -8.24391656e-003 -1.77735854e-002 -1.69970281e-002
      -7.88516924e-003 -1.00382268e-002 -5.03865816e-003 1.23669393e-002
      1.57657973e-002 8.05760734e-003 -9.40787140e-003 6.96240086e-003
      7.95296335e-004 6.44736132e-003 -1.45304818e-002 -1.46696744e-002
      6.18699426e-003 -6.17533457e-003 9.69875371e-004 -7.30250380e-004
      -3.51608358e-003 -5.21552376e-003 -1.04545699e-002
      -1.45926196e-002 5.24888840e-003 2.17991527e-002 8.66361521e-003
      1.59060676e-002 -7.54743954e-003 3.09358467e-003 6.17858442e-003
      6.63586706e-003 -1.80121735e-002 -2.02690735e-002 -1.53938374e-002
      -2.24318281e-002 -2.56640837e-003 -2.50448065e-004 4.45309281e-003
      -7.09021138e-003 -2.17948738e-003 9.19791637e-004 -1.99500509e-002
      -5.06960647e-003 7.79104559e-003 2.16561686e-002 -1.43594947e-003
      2.47277990e-002 1.60114449e-002 2.40883548e-002 1.36563852e-002
      4.39585187e-003 6.89260708e-003 -1.62531482e-003 -5.36884833e-003
      -8.82953312e-003 -1.90203097e-002 -1.87117960e-002
      -1.91096608e-002 -2.61196159e-002 -1.45201180e-002 1.82114367e-003
      4.22323123e-003 1.59274563e-002 -2.59720325e-003 3.99012398e-003
      1.14453211e-002 6.88588293e-003 -6.11606520e-004 -9.39958263e-003
      -8.70970264e-003 -1.86144691e-002 -9.62766074e-003 2.49996129e-003
      -7.61974743e-003 -6.60385750e-003 -1.40610347e-002
      -2.26600859e-002 1.44088995e-002 2.06132140e-002 -1.46374037e-003
      1.33531587e-002 1.05484938e-002 8.47868808e-003 8.07033572e-003
      8.61281715e-003 -1.38287945e-002 -1.90215949e-002 -1.09985722e-002
      -1.73832625e-002 -3.63854365e-003 -2.03176821e-003 4.16842848e-003
      4.06554621e-003 3.01003875e-003 1.01387212e-002 -8.09690740e-004
      1.27699906e-002 -5.12922765e-004 8.82695895e-003 2.03614365e-002
      1.12982036e-003 3.59186530e-003 1.13154892e-002 -9.07735620e-003
      -1.73782334e-002 -2.39037164e-002 -1.02801193e-002
      -1.20755740e-005 8.92333221e-003 6.11992320e-003 1.44279301e-002
      1.86933558e-002 9.62947868e-003 -2.76748789e-003 5.73314913e-003
      1.22175040e-002 1.63811073e-002 7.12206401e-003 1.26762595e-003
      1.58052687e-002 9.18948278e-003 -1.28977299e-002 -1.38110733e-002
      -2.86927982e-003 -6.54211175e-003 -3.17392568e-003 2.24992633e-003
      5.15293004e-003 9.34775360e-003 1.82504545e-003 -4.14112676e-003
      1.22420338e-003 -8.40541266e-004 -1.59423687e-002 2.36095442e-003
      -3.83767532e-003 -1.99382566e-002 1.40053115e-003 4.41902876e-003
      -3.70718306e-003 -2.15553772e-002 -2.36764792e-002
      -1.69904400e-002 -1.13200145e-002 1.13910465e-002 1.70057155e-002
      2.37404648e-002 1.93653926e-002 1.16116293e-002 4.57415869e-003
      7.96437450e-003 1.45797664e-003 1.45398092e-003 7.49214692e-003
      -7.64683704e-004 5.79556311e-003 1.00443065e-002 -9.67512198e-004
      -8.97418894e-003 -1.51249524e-002 -4.91345348e-003 1.37357032e-002
      1.58650037e-002 1.30371517e-002 2.01414432e-002 2.62038093e-002
      1.56780910e-002 -2.93380255e-003 2.20665056e-003 3.79040954e-003
      2.69542332e-003 2.40709446e-003 1.02832848e-002 3.04531492e-003
      -1.31994451e-003 -1.84489116e-002 -1.29364701e-002
      -1.98537428e-002 -8.76729377e-003 4.67556436e-003 1.93744712e-002
      2.42621358e-002 2.34311372e-002 1.72584634e-002 1.69472545e-002
      -5.63269621e-003 -7.87509326e-003 -2.46681236e-002
      -4.99062845e-003 -1.73098408e-003 -1.52677968e-002 1.76172843e-003
      1.32848797e-002 7.66907772e-003 -6.90407958e-003 -1.07578924e-002
      -4.21520695e-003 -3.95395886e-003 1.26859257e-002 1.54673103e-002
      1.70324836e-002 1.88540667e-002 3.83893406e-004 -2.27816440e-002
      -1.28094573e-002 -3.06131579e-002 -3.43006011e-003 6.53095404e-003
      1.16821146e-002 1.46211088e-002 2.22365675e-003 -4.29838756e-003
      -6.43708091e-003 -4.11086919e-004 -4.00703400e-003
      -3.28233768e-003 1.48058208e-002 1.88046936e-002 2.85257790e-002
      1.56723093e-002 1.45563055e-004 -9.74842813e-003 -1.23424847e-002
      -3.15209664e-003 2.78422696e-004 -7.30957312e-004 3.00293067e-003
      7.72297941e-003 5.43752965e-003 -1.25086745e-002 -1.15530640e-002
      -1.42474156e-002 -1.24386428e-002 -4.22743475e-003 2.04939675e-002
      2.40030047e-002 2.54448820e-002 1.91137027e-002 9.36910324e-003
      -1.43312030e-002 -1.77236032e-002 -2.89234449e-003 1.09187304e-003
      -1.35037787e-002 -8.61358456e-003 -4.53441637e-003 3.52314994e-004
      -1.19170342e-002 -1.21093104e-002 -2.57564597e-002
      -1.06770582e-002 -1.07056769e-002 1.25525715e-002 5.85415727e-003
      6.67928997e-003 5.93059696e-003 -8.75323452e-003 -2.35991869e-002
      -2.94883735e-002 -8.97389464e-003 3.78895458e-003 1.42018972e-002
      1.41747259e-002 1.97674204e-002 2.04239599e-003 -2.64998269e-003
      1.72905717e-003 -1.00037013e-003 2.93590804e-003 5.44938399e-003
      2.29959842e-002 2.76110955e-002 4.27625589e-002 1.72943193e-002
      1.15837750e-003 -4.08192314e-002 -1.82803087e-002 8.81903712e-003
      8.08719732e-003 2.06170175e-002 1.13745835e-002 1.25938114e-002
      1.13875568e-002 1.28935359e-003 2.97461404e-003 -1.12748304e-002
      1.11088343e-003 -2.06417125e-003 1.97164863e-002 2.81641521e-002
      2.81230547e-002 -8.13673658e-004 -2.50983033e-002 -2.81008314e-002
      -1.36555322e-002 -3.52243602e-004 4.29033395e-003 -1.26838135e-002
      -5.74663095e-003 -3.38968565e-003 -5.05744293e-003 1.97288371e-003
      -3.36057344e-003 -1.63270570e-002 -7.91168772e-003
      -1.18304754e-003 1.44901378e-002 1.28300553e-002 8.52356944e-003
      3.32832616e-003 -1.07377125e-002 -1.33515690e-002 -1.37312068e-002
      -6.31984649e-003 -6.89321291e-003 -5.21593727e-003
      -1.29057013e-003 -1.77835417e-003 1.79025915e-003 1.04673789e-003
      5.87390503e-004 -1.32064428e-002 -2.04592687e-003 -7.17354531e-004
      4.68462892e-003 7.52097694e-003 2.35400954e-003 -1.25921732e-002
      -7.65321404e-003 -3.84565517e-002 1.89000869e-003 1.11610964e-002
      1.08853607e-002 1.79064889e-002 1.10136308e-002 7.80521426e-003
      7.44142104e-003 1.64964404e-002 4.86043282e-003 -8.48580524e-003
      2.80445977e-003 1.00717051e-002 2.31088344e-002 4.25777361e-002
      3.80575098e-002 -6.08135900e-003 -3.67326811e-002 -3.06847021e-002
      -1.39354216e-002 -1.77196576e-004 -5.84075868e-004 1.14544388e-002
      5.21547534e-003 5.95221575e-003 1.05259148e-002 2.20818315e-002
      1.66786835e-002 8.07583239e-003 1.69869997e-002 1.84311010e-002
      3.00284605e-002 3.26215848e-002 1.59444977e-002 -1.68951377e-002
      -3.51906344e-002 7.66177988e-003 -1.23425701e-003 4.81630955e-003
      6.58662431e-003 3.37259262e-003 2.25983094e-003 4.32962738e-003
      5.56853425e-004 1.49299332e-004 1.39769260e-002 -6.04615128e-003
      1.41112390e-003 6.28188346e-003 1.01073161e-002 6.01633498e-003
      -7.96087726e-004 -7.79389963e-003 -4.17416031e-003
      -5.33931050e-003 -2.84577650e-003 2.39926460e-003 3.72083485e-003
      -2.57413834e-003 -9.94524173e-003 -3.35449469e-003
      -2.06486024e-002 -1.19325519e-002 5.85475122e-004 -3.80275445e-003
      7.46390410e-003 7.98826013e-003 1.97501369e-002 8.52226000e-003
      -1.01314327e-002 -1.47726219e-002 -2.89616850e-003 1.24160135e-002
      1.22822095e-002 1.37933977e-002 1.77142881e-002 1.32157998e-002
      5.35369245e-003 8.75696633e-003 1.01780454e-002 1.55781023e-002
      1.99275985e-002 7.88212009e-003 1.68406274e-002 1.57316253e-002
      2.18678769e-002 1.40761901e-002 2.65471637e-003 -2.48922259e-002
      -2.11412646e-002 1.77232595e-003 3.03594698e-003 9.01578274e-003
      8.38216767e-003 3.85918422e-003 -9.28302947e-003 -1.44256349e-003
      -1.15241511e-002 2.36057886e-003 1.14713833e-002 1.42213132e-003
      1.12421103e-002 5.98200038e-003 6.77695218e-003 5.04140218e-004
      -1.53935608e-002 -3.90738770e-002 -2.47707237e-002 1.33976163e-002
      6.00124896e-003 9.38044395e-003 -3.83079937e-003 -5.01413131e-003
      -1.04824910e-002 -7.29422737e-003 -1.42035456e-002
      -5.68736624e-003 5.80647145e-004 -4.87696519e-003 2.72894884e-003
      1.35696633e-002 1.94546040e-002 6.51657209e-003 -6.36902731e-003
      -1.44485449e-002 -4.21513245e-003 2.19771527e-002 5.26560657e-003
      4.11232607e-003 -1.16682975e-002 -1.44773265e-002 -2.67497785e-002
      -1.89428125e-002 -1.94261521e-002 -1.75033789e-002
      -6.06537971e-004 -1.65832154e-002 -1.96213648e-002
      -7.00944057e-003 3.73767153e-003 -7.10955122e-003 -5.50741516e-003
      4.98187216e-003 2.34485008e-002 1.47886770e-002 2.47237878e-003
      2.15117563e-003 -5.46980463e-003 -5.00679668e-003 -1.29528753e-002
      -3.80665716e-003 -1.05825691e-002 7.76892342e-003 1.11036357e-002
      9.51676164e-003 1.88046247e-002 2.08771117e-002 1.78977624e-002
      4.14398964e-003 -1.39506171e-002 -2.85005532e-002 -1.02546280e-002
      1.56933013e-002 -2.89586349e-003 -9.08695627e-003 -2.48972457e-002
      -2.33505163e-002 -2.20647343e-002 -1.78432632e-002
      -1.32606681e-002 -1.45589653e-002 -6.01792289e-003
      -1.81909767e-003 -4.79297386e-003 9.49134119e-003 2.26930305e-002
      7.55140465e-003 -5.87373553e-003 -7.38201523e-003 1.01666758e-002
      1.81909110e-002 4.97649657e-003 2.31787562e-003 -7.80091016e-003
      -1.42227337e-002 -3.12028937e-002 -3.24779600e-002
      -2.44426187e-002 -3.99079733e-003 5.24948933e-004 -1.07695097e-002
      -2.21356358e-002 -7.56840827e-003 4.04045358e-003 8.49993841e-004
      3.47579038e-003 1.90062206e-002 3.50812227e-002 1.66963730e-002
      7.24391034e-003 1.04820849e-002 7.88716879e-003 5.29395835e-003
      -1.68087669e-002 -1.94778927e-002 -1.79808326e-002
      -7.47336261e-003 -1.30654294e-002 -9.60105844e-003
      -1.03564672e-002 -5.36847813e-003 1.89412420e-003 4.56024054e-003
      4.22537187e-003 1.58144720e-002 2.78916806e-002 2.00691987e-002
      -1.36486907e-002 -2.09856499e-002 -2.57080290e-002
      -2.13912241e-002 -2.49235351e-002 -2.43377872e-002
      -1.27956541e-002 -1.09318718e-002 1.93902303e-003 -1.61570881e-003
      4.01174941e-004 6.92944927e-003 1.02226166e-002 1.24884462e-002
      9.81868058e-003 1.68618653e-002 3.06284297e-002 2.07999311e-002
      -5.01510082e-003 -1.61320604e-002 -1.32009573e-002
      -9.89396498e-003 -1.57017335e-002 -1.96942482e-002
      -1.41319744e-002 -1.42104533e-002 -1.85671437e-003 2.27734866e-003
      9.72815324e-003 9.36877076e-003 -5.56771597e-003 1.25496099e-002
      -1.80940540e-003 1.98595282e-002 2.37429291e-002 -2.49605463e-003
      1.16214971e-003 -1.79523660e-003 -9.29781236e-003 -3.18144006e-003
      -1.28690833e-002 -5.59445191e-003 -9.48592275e-003
      -9.56508610e-003 -1.47723733e-002 -1.70438252e-002
      -8.00371356e-003 -1.08841173e-002 6.56662881e-003 2.14769761e-003
      -3.31845513e-004 -3.16761713e-003 6.33001467e-003 6.33738982e-003
      5.92277572e-003 -6.71761204e-003 -3.25019617e-004 4.63343784e-003
      5.99197403e-004 -3.06275138e-003 1.02876953e-003 8.37594829e-003
      8.34568124e-003 2.69160746e-003 9.02027078e-003 3.13242804e-003
      1.02599077e-002 1.50290979e-002 2.95667048e-003 3.72228445e-003
      9.12700407e-003 -8.87058966e-004 -9.02578514e-003 -2.14069206e-002
      -1.15576955e-002 -1.07796649e-002 -1.46690756e-002
      -2.12037917e-002 -2.35881396e-002 -2.13971846e-002
      -1.63103864e-002 -1.73962899e-002 1.71468349e-003 3.14219203e-003
      2.42425501e-003 1.69911468e-003 -9.09572374e-003 -2.45508808e-003
      6.99152378e-003 2.12191953e-003 -1.06067667e-002 -1.67100858e-002
      -1.66305546e-002 -1.59636866e-002 -9.27377120e-003
      -1.03261983e-002 -2.95902835e-003 6.33529248e-003 1.49692199e-003
      5.02692908e-003 1.10971583e-002 1.56780370e-002 7.44681899e-003
      4.41024592e-003 2.20593903e-003 1.40913809e-002 6.70840126e-003
      9.09673888e-003 -3.24690109e-003 -8.46257806e-003 5.17150015e-003
      6.60304399e-003 -3.62000824e-003 -1.43726813e-002 -7.27050938e-003
      8.63881037e-003 1.57225151e-002 -2.60234834e-003 5.26163401e-003
      2.26383982e-003 -8.01986025e-004 -6.74385810e-003 -8.72266758e-003
      -7.52349058e-003 -7.09147519e-003 4.14792215e-003 2.83296104e-003
      9.02732369e-003 1.07657919e-002 1.09446570e-002 -7.35740829e-003
      -1.74523443e-002 -1.44083463e-002 -6.77329162e-003
      -5.45095466e-003 -2.04776824e-002 -7.43473554e-003
      -2.14217114e-004 -8.33160244e-003 -1.75831504e-002
      -8.97413865e-003 -1.25560258e-002 -4.32361820e-004
      -3.10933939e-003 -2.82780994e-002 -2.38472112e-002
      -1.59196500e-002 -1.40538672e-002 -8.40175431e-003
      -4.20281338e-003 -9.70354129e-004 1.29152350e-002 1.16793271e-002
      -1.39137381e-003 -1.91538231e-004 1.16330078e-002 4.40385425e-003
      -5.65547077e-003 -3.13427672e-003 2.82027642e-003 -3.18117603e-003
      -2.36172811e-003 -1.22479489e-002 -1.41580962e-002 5.17494569e-004
      -4.60198289e-003 -6.39614649e-004 -8.42314214e-003
      -1.12456530e-002 -2.85983924e-003 -3.95227410e-003
      -1.24915298e-002 -6.43292814e-003 4.46182443e-003 5.29570226e-003
      3.77077190e-003 -1.04677118e-003 9.52183211e-004 2.23347615e-003
      -5.75252390e-003 1.42634986e-003 5.38214250e-003 1.34460665e-002
      1.45686241e-002 3.44762616e-002 1.27788540e-002 2.06252909e-003
      -3.19593623e-002 -3.09820976e-002 -1.23282801e-002 6.72231603e-004
      1.59339998e-002 -7.05849845e-003 1.57034304e-002 -5.67163900e-003
      -1.04854908e-002 -6.59952452e-003 -8.57144874e-003 7.13473558e-003
      -5.73957898e-003 2.67152442e-003 4.00741206e-004 1.59913506e-002
      2.21971478e-002 1.85189489e-002 3.86286015e-003 -1.10201584e-002
      1.69324200e-003 -1.08355505e-003 -2.16699974e-003 -1.38265630e-002
      4.65875119e-003 -1.13526976e-003 3.13480361e-003 -3.72616434e-003
      -4.08866350e-003 4.64285910e-003 5.81201538e-003 4.35158331e-003
      5.09621063e-003 2.13093795e-002 1.26740271e-002 1.54914754e-002
      -2.29633432e-002 -3.29667889e-002 -2.04567537e-002
      -7.65292719e-003 6.74888492e-003 -1.20542254e-002 9.51730646e-003
      3.19239427e-003 9.23351943e-003 2.25142998e-004 -1.03534684e-002
      -8.42149742e-003 -8.73323530e-003 -6.75676856e-004 3.53355962e-003
      9.86151770e-003 9.58527718e-003 2.56497320e-002 -5.04002906e-003
      -1.31982472e-002 9.82804224e-003 2.00651889e-003 -4.66008531e-003
      -7.06130126e-003 1.05468268e-002 4.51378757e-003 2.47797021e-003
      -4.18304512e-003 -7.40742730e-003 -7.80110247e-004
      -6.73947670e-003 8.75142403e-004 -1.36704110e-002 -2.39453535e-003
      5.25652245e-003 1.26416963e-002 8.47011618e-003 8.57196562e-003
      6.41959347e-003 -1.14319986e-002 -4.39576106e-003 -7.44354678e-003
      -5.04985917e-003 -4.64416482e-003 1.28703634e-003 4.93893074e-003
      -7.60809937e-003 -3.85211967e-003 -1.04143014e-002 1.00478372e-002
      -4.12200252e-003 6.95533073e-003 -5.71351359e-003 3.87456175e-003
      -2.12799269e-003 8.48596450e-004 -1.72208238e-003 -1.48347458e-002
      -1.50300600e-002 -5.65804262e-003 -7.60881975e-003
      -6.65126182e-003 4.49379382e-004 -5.29866526e-003 -3.93531704e-003
      -1.12837916e-002 -8.92064068e-003 1.55321113e-003 -6.95626205e-003
      2.32520606e-003 -8.63291556e-004 1.15376264e-002 -7.09767221e-004
      4.38987045e-003 2.26377603e-002 4.65139141e-003 1.38667261e-003
      -3.07377055e-003 6.08802401e-003 1.48360606e-003 -2.68203137e-003
      -8.76303762e-003 -2.18424015e-003 -7.03675579e-003
      -8.18424579e-003 -1.26438390e-003 -5.54298470e-003 1.78332464e-003
      -1.39167784e-002 -1.37592983e-002 -1.16682285e-002
      -1.57821632e-003 1.26294596e-002 -3.74095934e-003 -4.46797954e-003
      2.82994309e-003 9.59595200e-003 8.98213533e-004 -3.11292312e-003
      -1.57346725e-002 -5.67072397e-003 -3.77277436e-004
      -7.19715655e-003 6.96547283e-003 9.11651645e-003 1.54822608e-002
      6.81707915e-003 1.63318161e-002 1.63420606e-002 1.30695188e-002
      2.92993686e-003 -8.85007344e-003 -1.24908285e-002 -6.92838198e-003
      -7.42507447e-003 -2.84670200e-003 3.31822410e-003 -5.96203655e-003
      -2.20429823e-002 -9.40494519e-003 -2.26946343e-002
      -1.81451160e-002 7.39380892e-004 1.33908298e-002 8.00438877e-003
      6.47968240e-003 5.03823441e-003 2.06469162e-003 -1.00504672e-002
      -9.84184816e-003 3.89117585e-003 3.99224414e-003 -1.04248999e-002
      3.50466976e-003 2.86111329e-003 -1.74150541e-002 -5.60335675e-003
      -9.59635060e-003 -2.27536410e-002 -1.28790932e-002
      -1.09416181e-002 5.35128033e-003 -9.11429245e-003 1.82330690e-003
      9.79642756e-003 1.33876875e-002 1.07257236e-002 -1.74088497e-003
      -4.48959228e-003 5.81274449e-004 8.28363933e-003 3.06453928e-003
      5.00017637e-003 -1.11942096e-002 -1.68158021e-002 -1.52173070e-002
      -4.56665643e-002 -3.51319760e-002 -2.65921298e-002
      -1.56128528e-002 -2.10773963e-002 7.05199270e-003 5.85367065e-003
      9.87866707e-003 -6.30604522e-003 -1.43971667e-002 1.22636799e-002
      8.26097094e-003 1.77091621e-002 1.96607336e-002 1.06522515e-002
      -6.03847858e-003 -1.62681732e-002 -1.03487717e-002
      -1.98853780e-002 -2.25280803e-002 -4.40423470e-003
      -5.04222326e-003 1.53686488e-002 1.13328695e-002 -7.31191924e-003
      -4.93688136e-003 3.09375973e-005 -6.85617980e-003 7.38149462e-003
      9.69997328e-003 -3.05324839e-003 1.26806330e-002 1.10620642e-002
      -1.06124487e-003 -1.13983303e-002 -2.11075936e-002
      -4.06735539e-002 -3.53502035e-002 -2.61256117e-002
      -2.23046914e-002 8.80684331e-003 8.43180344e-003 -8.77997372e-005
      -3.94239929e-003 -1.41181727e-003 -2.97513790e-003 2.92046764e-003
      1.38331763e-002 1.77772511e-002 2.11821254e-002 1.40309855e-002
      1.91104738e-003 -2.50137877e-003 1.47419539e-003 -3.87673154e-002
      -4.08322662e-002 -9.79160983e-003 4.15754085e-003 4.71791811e-003
      9.50111076e-003 9.69167799e-003 2.06739362e-003 7.82880597e-005
      -7.43308337e-004 2.05728076e-002 1.92953255e-002 1.40827522e-002
      2.59673372e-002 1.93275996e-002 1.29143586e-002 -5.99773228e-003
      -1.75894480e-002 -3.23501863e-002 -4.37888652e-002
      -1.76851973e-002 -7.34480098e-003 -4.06503561e-004 3.00707063e-003
      1.24634914e-002 3.24851996e-003 4.43276530e-003 3.16180778e-003
      1.42467590e-002 1.90449990e-002 1.91670861e-002 1.94452349e-002
      1.74565297e-002 1.21325254e-002 -1.24035375e-002 -2.99449619e-002
      -5.58125973e-002 -3.75830308e-002 -2.70918645e-002
      -2.82266624e-002 -5.85243432e-003 1.56118609e-002 1.90151967e-002
      1.28056770e-002 1.55630028e-002 4.14196867e-003 -1.69375748e-003
      8.01327731e-003 1.68966483e-002 1.58336163e-002 1.48287239e-002
      -6.98366668e-004 -2.51071490e-002 -2.73164939e-002
      -3.93497646e-002 -1.61398351e-002 -9.88702290e-003
      -4.88298759e-003 1.35818664e-002 1.29568847e-002 1.38308415e-002
      1.12291565e-002 1.49985589e-002 6.09136047e-003 2.48037395e-003
      5.74106583e-003 1.25059439e-002 1.94773730e-002 1.90470424e-002
      -4.08286043e-003 2.20474228e-003 -2.20263451e-002 -2.54510865e-002
      -3.06490157e-002 -3.56751913e-003 5.06735116e-004 -1.29685548e-004
      6.70055300e-003 1.79074258e-002 1.53323170e-002 1.89672559e-002
      9.02619306e-003 1.82692613e-003 9.27768089e-003 1.75016727e-002
      1.17895445e-002 1.70704089e-002 6.71380572e-003 1.24705955e-003
      -1.33534800e-002 -7.13313418e-003 2.33854144e-003 3.60349799e-003
      1.01345144e-002 1.39522897e-002 1.60339717e-002 1.21954503e-002
      1.61231384e-002 1.31696379e-002 1.69752643e-003 -3.91678233e-003
      -3.26738320e-003 -3.10339779e-003 6.02200162e-003 2.58248486e-002
      2.07613036e-002 -3.28212641e-002 -3.73802483e-002 -2.95047518e-002
      -1.61938202e-002 -3.09462147e-003 8.99832870e-004 8.65430851e-003
      -7.39885028e-004 2.70355074e-003 -3.56372166e-003 -4.42090211e-003
      3.93904839e-003 6.24225475e-003 4.81855404e-003 6.70339633e-003
      2.75018401e-002 8.13951530e-003 -5.86505188e-003 -4.05740924e-002
      -1.59390979e-002 -1.81598775e-002 -1.68638618e-003 6.73614070e-003
      8.16424843e-003 -9.64316772e-004 -3.58416670e-004 9.26480256e-003
      -5.58829261e-003 -1.20892413e-002 -1.69836951e-003 4.15999116e-003
      6.78447261e-003 1.91883929e-002 2.72450279e-002 -1.15141850e-002
      -2.51234472e-002 1.84761954e-003 -1.10298377e-002 -8.59626196e-003
      2.87867640e-003 4.97870659e-003 1.01753585e-002 1.11258812e-002
      4.10369132e-003 8.23642651e-004 2.28258618e-003 2.16256292e-003
      4.57778195e-004 1.55742990e-003 -5.39030042e-003 -1.44393574e-002
      -5.35441504e-004 1.56510398e-002 2.50441898e-002 -8.73027928e-003
      5.49095590e-003 -1.71274983e-003 8.92059598e-003 8.12535267e-003
      1.17715327e-002 -4.51631192e-003 -5.02244337e-003 2.16412591e-003
      -6.87976088e-003 7.50249857e-003 5.35041606e-003 9.39195324e-003
      5.38967364e-003 -4.09596274e-003 1.93153438e-003 5.79681387e-003
      1.84702240e-002 -6.24577813e-002 -2.41124406e-002 -1.61961801e-002
      -4.58125910e-003 -5.52079349e-004 -1.20761979e-003
      -1.56581111e-003 -7.88669940e-003 1.17001301e-002 -6.74439594e-003
      -1.08595230e-002 -6.59448514e-003 -2.77782651e-003 3.19330860e-003
      2.67827455e-002 2.22640485e-002 -2.42611580e-002 -5.54059558e-002
      -5.83272986e-002 -3.75358276e-002 -1.16875013e-002
      -1.25908060e-002 -2.70885241e-004 -3.54956742e-003 6.49616728e-003
      4.16084938e-003 1.97235309e-002 7.74904294e-003 1.06242001e-002
      7.99086504e-003 1.17028682e-002 1.22959353e-002 1.04286727e-002
      -4.89960145e-003 -3.87540832e-002 -4.18138504e-002
      -1.87001508e-002 1.04710506e-002 5.41337347e-003 3.66136432e-003
      5.53136878e-003 2.94660637e-003 -4.37097019e-003 -4.16459050e-003
      -2.47247261e-003 -3.04634962e-003 9.94997565e-003 6.41965773e-003
      3.99615010e-003 -6.79927063e-004 -2.13746144e-003 4.18454502e-003
      9.60798003e-003 1.22240335e-002 -1.41875679e-002 1.27232019e-002
      1.51489666e-002 7.24312291e-003 8.52460694e-003 6.30493602e-003
      8.84837005e-003 5.61309094e-003 1.33544467e-002 1.58376563e-002
      1.91112589e-002 2.23106947e-002 2.35789884e-002 1.00155827e-002
      4.45020478e-003 1.44501217e-002 2.01531760e-002 3.64922127e-003
      -3.32388617e-002 -1.41348355e-002 -3.80101660e-003 2.49159336e-003
      8.65198486e-003 6.13340409e-003 1.36090890e-002 7.72041036e-003
      8.60594120e-003 1.36847999e-002 1.24828052e-002 2.69276812e-003
      4.69893031e-003 6.92548603e-003 -9.79755819e-003 -1.49914930e-002
      -5.12985140e-002 -4.24206108e-002 -3.37796621e-002
      -1.84844434e-002 -1.04004759e-002 -2.81873811e-003 2.39322660e-003
      -3.88345262e-003 -5.25323790e-004 -9.73919313e-003
      -2.59479508e-003 4.51420667e-003 5.48591278e-003 -1.19322445e-002
      -1.93865281e-002 -2.98246555e-002 -5.07489778e-002
      -5.55142164e-002 -7.38491789e-002 -6.23627678e-002 1.56509969e-002
      2.41489820e-002 1.61874555e-002 1.25637492e-002 1.25053320e-002
      1.23433731e-002 1.66461542e-002 1.21220928e-002 1.87620856e-002
      2.58199628e-002 2.39483472e-002 2.39783674e-002 2.28814445e-002
      1.23302219e-002 1.50038218e-002 2.15847399e-002 1.67659037e-002
      1.64056402e-002 7.62241427e-003 3.11082434e-002 1.95134878e-002
      1.93950236e-002 1.36607001e-002 1.65139567e-002 1.71363987e-002
      9.17601213e-003 5.50212245e-003 1.70531422e-002 1.36217363e-002
      4.99183731e-003 2.00429256e-003 -1.20100062e-002 -7.22074090e-003
      -6.43992424e-003 -2.67085638e-002 -2.59561148e-002
      -1.75953936e-002 -7.38705322e-003 -9.10917111e-003
      -3.08456132e-003 1.25163165e-003 -1.16467258e-004 5.11264428e-003
      -6.38474943e-004 1.32652922e-002 1.49193490e-002 1.18933255e-002
      4.13597794e-003 1.04292873e-002 -3.25527298e-003 -2.84520108e-002
      -4.84112054e-002 -5.87391295e-002 -4.69109938e-002
      -2.74744797e-002 -2.74192728e-002 -1.90354064e-002
      -1.67535786e-002 -1.47693651e-002 -7.88654666e-003
      -5.49601717e-003 -4.43359185e-003 -1.04576303e-002
      -1.09494077e-002 -8.78817588e-003 -8.60649254e-003 5.57659892e-003
      -9.01178457e-003 -3.51250395e-002 -5.28691709e-002
      -5.11311628e-002 -3.00984904e-002 6.01792894e-003 2.93187741e-002
      2.50628218e-002 2.08792444e-002 1.79288648e-002 1.55614838e-002
      1.63086727e-002 2.09636968e-002 2.12256797e-002 2.11411212e-002
      1.45392241e-002 7.01875752e-003 1.72179341e-002 6.98492443e-003
      2.79551750e-004 -2.55840388e-003 -1.41066881e-002 -2.63064611e-003
      -9.05425102e-003 8.53179209e-003 7.89529644e-003 9.70604178e-003
      1.63598675e-002 1.32205747e-002 1.62710678e-002 1.85498465e-002
      1.71741582e-002 6.10121852e-003 -6.65501808e-004 6.61067525e-003
      2.10580211e-002 -5.42942667e-004 -1.16971489e-002 -3.00872251e-002
      -2.38375217e-002 -5.34923468e-003 -1.05223404e-002
      -2.79002786e-002 -2.80812867e-002 -2.50343420e-002
      -1.92251727e-002 -1.40382918e-002 -7.48411380e-003 1.08242105e-003
      -8.67787376e-003 -1.99111085e-003 -6.12764386e-003
      -7.11778237e-004 1.97533169e-003 -1.23981461e-002 -1.71260685e-002
      -1.65856853e-002 -1.02956546e-002 -7.23716803e-003
      -1.07083796e-002 -2.74202172e-002 -2.99745593e-002
      -2.59637814e-002 -1.45742074e-002 -1.76352337e-002
      -2.19105650e-002 -1.38628650e-002 -1.37631046e-002
      -1.35183276e-003 -9.32611711e-003 3.12015344e-003 -5.27813518e-003
      -1.44626852e-002 1.06220087e-003 -7.79888686e-003 -1.47263589e-003
      5.65066701e-003 -7.57188245e-004 -3.80312023e-003 -5.05158817e-003
      8.84962734e-003 9.02144611e-003 7.78775429e-003 1.42237209e-002
      1.15105268e-002 1.14595508e-002 3.93925561e-003 -4.39469656e-003
      6.41715480e-003 3.67867923e-003 -8.90735164e-003 -1.24030793e-002
      -1.24307005e-002 -1.35717960e-002 -5.60359005e-003
      -9.05728433e-003 -1.48960780e-002 -1.07261669e-002
      -7.66472751e-003 -5.50088612e-003 -9.80048440e-003
      -4.96955682e-003 6.38661627e-003 6.68013981e-003 2.58732238e-003
      -1.64404735e-002 5.71896601e-003 -5.50386868e-003 -4.31459071e-003
      -5.26719075e-003 -8.04373901e-003 -6.12408435e-003
      -5.65967103e-003 -6.89515192e-003 -1.37271825e-002
      -2.58633606e-002 -2.25853994e-002 -1.72838029e-002
      -1.49948644e-002 -2.58921068e-002 -2.15797406e-002
      -1.16780894e-002 1.19721971e-003 -8.61725025e-003 7.94339925e-003
      9.34596267e-003 3.40273348e-003 6.08918862e-003 -9.00205784e-003
      -9.76304896e-003 8.85776896e-003 -1.58472301e-003 -1.25556821e-002
      -1.83327552e-002 -2.67098472e-002 -2.99146809e-002
      -2.16294583e-002 -1.67112872e-002 -1.32995509e-002 7.67907500e-003
      -1.17227121e-003 6.94940053e-003 1.66833568e-002 1.73324626e-002
      7.82246049e-003 1.09501404e-003 -3.54378228e-003 6.30793907e-003
      1.02426400e-002 -3.08891525e-003 -7.99639896e-003 -2.38470417e-002
      -2.21391413e-002 -1.30141471e-002 -1.96199957e-002
      -1.51526053e-002 -9.12618265e-003 4.89688944e-003 7.39930477e-003
      -1.80253957e-003 1.30717326e-002 1.61293373e-002 1.80950519e-002
      1.17553016e-002 4.95938025e-003 -4.11375100e-003 1.51178928e-003
      -2.18939409e-003 1.18188537e-003 -4.73422464e-003 -9.39990301e-003
      -1.52450949e-002 -2.22633239e-002 -1.23280408e-002
      -1.29669160e-002 1.49830170e-002 1.00756157e-002 1.68157537e-002
      1.94610693e-002 2.61163320e-002 2.42604278e-002 1.76751278e-002
      1.19607700e-002 5.70715964e-003 1.80995243e-003 -7.32153514e-003
      -2.58929860e-002 -1.94625072e-002 -3.02184578e-002
      -2.63209511e-002 -1.89124029e-002 -8.42137961e-004 7.80477596e-004
      1.45735415e-002 2.78570107e-003 2.54105893e-003 9.36116837e-003
      1.33473864e-002 4.14923765e-003 -7.15531921e-003 -9.83588584e-003
      -2.98866013e-004 2.90051987e-003 2.47035432e-003 -8.13768990e-003
      -1.30630517e-002 -1.69423651e-002 -5.12677291e-003
      -4.05841181e-003 -9.36466269e-003 -4.96818684e-003
      -9.99549031e-003 -7.57582439e-003 -9.57827177e-003
      -3.28662340e-003 -1.15979766e-003 1.00397621e-003 -5.67344367e-004
      -9.22585092e-003 -2.29757163e-003 1.15524083e-002 -1.20799504e-002
      -4.76178993e-003 1.20021738e-002 -5.53649059e-003 -1.60462651e-002
      -1.59825664e-002 -4.21963539e-003 -7.96489231e-003 1.97964683e-002
      7.42702279e-003 1.59762185e-002 1.29134748e-002 8.05463921e-003
      3.40416911e-003 -5.91919012e-003 -4.49522305e-003 -6.94536278e-003
      -1.10022649e-002 6.68171793e-003 5.16774273e-003 2.10457947e-002
      6.10028487e-003 1.91236213e-002 -1.66308528e-004 5.30200824e-003
      2.10439786e-003 1.28713166e-002 5.37814805e-003 2.64983880e-003
      -1.11558586e-002 -6.93946751e-003 -1.20509649e-002
      -1.36235980e-002 -9.61757451e-003 1.59421310e-004 7.35523365e-003
      -1.09146340e-002 -6.96389051e-003 -7.81667698e-003
      -4.95612342e-003 -6.90031098e-003 1.01203537e-002 3.43988766e-003
      2.16399245e-002 -9.23919119e-003 -1.90258864e-002 -7.41605321e-003
      7.02532881e-004 5.72327850e-003 6.05347122e-005 1.63904801e-002
      3.36947525e-003 1.36382021e-002 -7.94572011e-003 -7.12322583e-003
      -1.27046909e-002 -1.50611636e-003 6.17762515e-003 -2.24684860e-004
      2.48753442e-003 8.78853537e-003 1.93024706e-002 -1.87173230e-003
      -5.26880985e-003 1.11351386e-002 1.68985724e-002 1.22224754e-002
      9.40903276e-003 2.09067222e-002 -6.72400711e-005 8.31167959e-003
      -1.04067922e-002 -2.75367536e-002 -2.25379933e-002
      -9.11950786e-003 -7.77499285e-003 -9.72602423e-003 7.23534683e-003
      5.99677907e-003 7.68412463e-003 -1.16981426e-002 -1.62333846e-002
      -1.84216187e-003 3.53167811e-003 5.93867805e-003 9.58685856e-003
      1.24037182e-002 -2.27358844e-003 9.64076724e-004 -3.28146257e-002
      -1.06894905e-002 -4.90620965e-003 -2.29712692e-003
      -5.82634297e-004 -2.93328543e-003 -9.85461054e-004
      -4.30495897e-003 7.01246690e-003 -6.98453141e-003 -5.96060092e-003
      4.84969839e-003 4.68505081e-003 1.55467028e-002 1.69626102e-002
      1.15595860e-002 2.92376662e-003 8.46903119e-003 -1.05128540e-002
      2.06742063e-003 -7.46367220e-003 6.70202251e-004 6.49106503e-003
      -2.54988833e-003 2.33490905e-003 1.08144870e-002 1.20550878e-002
      5.64458966e-003 9.65735503e-003 2.04122737e-002 9.19524860e-003
      1.02364877e-002 8.83078948e-003 1.40178585e-002 4.69423039e-003
      5.22643211e-004 -2.59491778e-003 1.01654720e-003 -1.98064256e-003
      -4.42176685e-003 -4.81596030e-003 -2.70085428e-002
      -2.03803517e-002 -5.02340961e-003 -1.35951526e-002
      -4.02715243e-003 6.85155159e-003 2.51631942e-002 1.34781711e-002
      6.23478135e-003 1.92776024e-002 1.90587100e-002 -7.76625471e-004
      -7.61639280e-003 -1.68051720e-002 6.45117648e-003 6.75166782e-004
      -9.27006186e-004 1.23342092e-003 -6.66525681e-003 -2.48180442e-002
      -2.23533250e-002 -4.99184383e-003 -3.39943636e-003 4.12555877e-003
      9.00904648e-003 3.97449359e-003 1.40087660e-002 1.98800489e-002
      1.21328617e-002 6.09898893e-003 2.20108335e-003 5.01182536e-003
      -3.10645904e-003 -7.02846609e-003 -2.28208210e-002
      -3.17908973e-002 -5.40897436e-002 -4.46684361e-002
      -3.44957523e-002 -2.95321941e-002 2.70584575e-003 6.55482698e-004
      2.38129441e-002 2.24472135e-002 2.41585933e-002 3.63082252e-002
      1.90958790e-002 5.29691204e-003 -8.94371595e-004 -3.92693048e-003
      -3.83138168e-003 -1.48972990e-002 -3.67561467e-002
      -3.05770375e-002 -4.17052433e-002 -2.57878937e-002
      -1.60860550e-002 -7.94658717e-003 1.41789084e-002 1.45888915e-002
      1.77309494e-002 8.39525741e-003 4.43569472e-004 1.13652721e-002
      1.05588883e-002 2.78181769e-003 2.30681826e-003 -1.03242500e-002
      -1.53077561e-002 -1.82817020e-002 -4.86267954e-002
      -4.55140807e-002 -3.39074805e-002 -1.72037669e-002
      -1.43498117e-002 6.13828888e-005 1.92443486e-002 1.59208775e-002
      8.65193456e-003 -2.31283321e-003 3.76627408e-003 8.75523407e-003
      1.33443866e-002 2.20237896e-002 1.79031137e-002 -4.51837346e-004
      -5.73561899e-003 -1.51717756e-002 -2.45821327e-002
      -3.22493576e-002 -4.93843034e-002 -3.76227200e-002
      -8.15737154e-003 -6.63905451e-003 1.30617172e-002 1.23915961e-002
      3.08720879e-002 1.93752740e-002 1.51618086e-002 1.82440169e-002
      1.15117747e-002 3.94514995e-003 1.33154972e-004 -2.94638192e-003
      -3.44653963e-004 -6.16880273e-003 -2.18834523e-002
      -1.78315844e-002 -2.41091475e-002 -5.91984158e-003
      -5.64202259e-004 1.02664409e-002 2.62865331e-002 1.96329225e-002
      2.82711908e-002 1.83014087e-002 6.12710416e-003 9.81464516e-003
      9.80155356e-003 1.00685786e-002 9.46439616e-003 2.67695310e-003
      -1.18664457e-002 -1.68675706e-002 -3.75424661e-002
      -3.71269472e-002 -2.30125468e-002 -7.75816990e-003
      -1.98920351e-002 -9.82823502e-003 6.99443417e-003 -5.62515634e-004
      3.71687114e-003 -5.27402386e-003 3.94594250e-003 8.20161495e-003
      1.16505809e-002 1.72166321e-002 1.46210222e-002 4.50544758e-003
      -1.39320102e-002 -1.25868842e-002 -2.92587653e-002
      -4.48902622e-002 -1.78721212e-002 -7.13395141e-003
      -2.26248279e-002 -1.37537848e-002 -1.03554351e-003
      -1.08350217e-002 -2.68205791e-003 -2.04716576e-003 7.21540488e-003
      1.08999992e-002 1.30187459e-002 7.96941202e-003 7.05958204e-003
      -3.62379506e-004 -3.90668458e-004 -3.94821260e-003
      -1.54457046e-002 -2.37602144e-002 -1.30823012e-002
      -4.68466105e-003 -4.34389338e-003 3.08183976e-003 1.51981376e-002
      4.13978100e-003 1.98525395e-002 5.84011385e-003 7.30128027e-003
      6.51492178e-003 8.59859679e-003 8.80710501e-003 1.02811232e-002
      -2.74682348e-003 -1.12362579e-002 -6.23060204e-003
      -1.69988032e-002 -2.43854336e-002 -8.88556056e-003
      -1.61665248e-005 2.15867651e-003 -2.63979961e-003 -1.09916087e-002
      -9.95939504e-003 1.24550983e-002 -4.81751951e-004 1.70988925e-002
      1.15969097e-002 7.87099637e-003 2.10223626e-003 -1.29003532e-003
      -1.36297978e-002 -5.87021373e-003 -1.74349803e-003
      -1.43189682e-002 -2.29448378e-002 2.33899103e-003 6.48121815e-003
      -1.63928345e-002 -1.06476219e-002 2.78043817e-003 9.93098365e-004
      7.33795250e-003 9.93449986e-003 7.66498456e-003 1.08074872e-002
      1.61435194e-002 1.19562456e-002 3.12615535e-003 -2.24427762e-003
      -1.34662557e-002 -6.00349531e-003 -1.34811858e-002
      -3.86196212e-003 -4.64807218e-003 5.82068926e-003 -8.28854449e-004
      7.13946531e-003 2.11136625e-003 2.60704197e-003 5.46337850e-003
      3.86889884e-003 -2.73344154e-003 -1.02216052e-002 -1.14439055e-003
      -6.86792471e-003 5.86456666e-003 -8.95906519e-003 -3.56035098e-003
      -6.01165975e-003 -6.76987832e-003 -1.48899863e-002
      -2.62471125e-003 1.64793599e-002 3.16237682e-003 3.07122036e-003
      -2.06468441e-003 -4.09198197e-004 1.05208866e-002 1.30446106e-002
      2.13701352e-002 2.26679090e-002 1.21203419e-002 6.91011036e-003
      3.98596050e-003 -1.50716230e-002 -1.12041244e-002 -6.28736336e-003
      2.77205463e-003 -9.96623468e-003 -3.05513036e-003 1.76664311e-002
      4.65451926e-003 1.06843533e-002 4.30297339e-004 -1.25217158e-003
      8.01162608e-003 1.10158068e-003 -4.09716507e-003 1.25552039e-003
      -4.48359177e-003 -1.19812312e-002 -7.57952733e-003
      -2.65458431e-002 6.19045401e-004 3.78322578e-003 6.30166382e-004
      8.67926609e-003 4.99059586e-003 9.25553218e-003 1.18410178e-002
      1.14316586e-002 9.11994185e-003 1.58002134e-002 1.49758551e-002
      2.97956029e-003 1.48591760e-003 -1.04716071e-003 -1.02035329e-002
      -1.21196695e-002 1.34425173e-002 1.49247712e-002 -2.15097374e-004
      7.17371795e-003 5.72701590e-003 4.19741310e-003 1.72301680e-002
      9.56438109e-003 -4.76633850e-003 -8.75410158e-003 -1.77808420e-003
      7.52399268e-004 1.87720377e-002 -7.22090073e-004 -3.20170098e-003
      1.80192906e-002 -6.00038096e-003 -1.30617479e-002 -3.57039203e-003
      1.45286368e-002 -1.44632915e-002 -5.39938407e-003 -4.78169852e-004
      4.51082923e-003 1.07468208e-002 8.52759928e-003 1.60511993e-002
      1.56394541e-002 9.62625910e-003 9.14725568e-003 7.45816575e-003
      -1.36920216e-003 -1.21399639e-002 -1.22670848e-002
      -1.40786190e-002 -1.60392169e-002 -1.48556279e-002
      -1.92540046e-002 -1.82635821e-002 -9.46621690e-003 3.88944987e-003
      7.24337948e-003 3.37419775e-003 -7.98920542e-003 -4.15639393e-003
      -6.62473170e-003 -1.41357696e-002 -1.00630419e-002
      -3.73745733e-003 -5.42249950e-003 -1.54653648e-002
      -9.75308288e-003 -2.32600886e-002 -1.99092813e-002
      -2.06116252e-002 -1.73435211e-002 -1.41926780e-002 9.26063955e-003
      4.80776327e-003 -1.66133209e-003 -3.42254317e-003 -2.19802442e-003
      -1.02925980e-002 -6.47237385e-003 -1.23905595e-002
      -1.09163737e-002 4.67998115e-003 -2.67049344e-003 -3.49888043e-003
      9.16688517e-003 -1.12703778e-002 -6.07291702e-003 2.21632188e-003
      1.01612201e-002 -1.00999018e-002 7.76929408e-003 1.31550767e-002
      8.81395303e-003 6.52460242e-003 7.81994872e-003 1.54156899e-002
      2.00841557e-002 1.78124271e-002 1.24659054e-002 1.78374182e-002
      2.90161427e-002 2.99039222e-002 2.62820236e-002 1.18566565e-002
      4.73179156e-003 2.57882550e-002 9.26967338e-003 -2.54763495e-002
      -7.85988662e-003 1.28564402e-003 1.07398666e-002 -7.90447742e-003
      -9.22027510e-003 -1.25007303e-002 -1.27515104e-002
      -2.10918318e-002 -2.46567838e-002 -2.18476169e-002
      -1.35842459e-002 -2.41839606e-002 -9.81091708e-003
      -2.45999005e-002 -1.98780242e-002 -1.67452041e-002
      -1.79235842e-002 -1.88692156e-002 8.65812995e-004 2.06244681e-002
      2.18025744e-002 1.44116851e-002 1.32901249e-002 2.13401355e-002
      1.42300325e-002 3.63217760e-003 -6.14375155e-003 -4.94858343e-003
      2.40008021e-003 -1.78258179e-003 -3.99027392e-003 -9.35092568e-003
      -1.42798433e-002 4.71280469e-003 -1.17626637e-002 -2.94001903e-002
      -4.73827356e-003 -8.72588065e-003 -6.26565423e-003
      -5.40768588e-003 1.33558200e-003 1.27243679e-002 1.05580818e-002
      9.55195352e-003 6.30361680e-003 5.27895195e-003 1.79412644e-002
      2.36954149e-002 3.75011982e-003 1.36252902e-002 -3.39730643e-003
      6.11489266e-003 -1.83940753e-002 -3.03077586e-002 -3.27539910e-003
      -8.05691630e-003 -2.14966922e-003 -4.47844621e-003 1.78761804e-003
      6.23168843e-003 6.01466605e-003 -6.43269764e-003 6.85777573e-004
      -4.48136078e-003 -6.73533592e-004 8.65472946e-003 -1.83243193e-002
      5.47204632e-003 -1.25800248e-003 -1.97295863e-002 -3.13188359e-002
      -3.08951605e-002 -7.17766350e-003 2.29957420e-003 -5.80433640e-004
      -6.17621234e-003 -2.50700605e-003 6.60554972e-003 1.10011604e-002
      -9.32969339e-003 -1.79564543e-002 -8.04345962e-003
      -4.18405840e-003 -2.17050104e-003 -2.39076018e-002
      -3.48871644e-003 -8.85685720e-003 3.51165817e-003 -1.36798266e-002
      -2.15551853e-002 -4.16035391e-003 -2.89868703e-003 9.57315974e-003
      5.68472268e-003 3.47154052e-003 4.11138451e-003 1.17793372e-002
      -1.92128085e-002 -1.16933957e-002 4.54976922e-003 3.61604104e-003
      7.47387204e-003 -7.43740005e-003 1.77356042e-002 2.08971556e-002
      1.86593849e-002 -1.30192749e-002 -2.98421308e-002 -2.11413857e-003
      4.13295114e-003 3.09988530e-003 2.67543225e-003 8.68048519e-003
      1.35568939e-002 1.40544055e-002 6.76071737e-003 8.49895086e-003
      2.58550950e-004 3.81127256e-003 1.40084438e-002 -5.17780939e-003
      2.35940656e-003 -1.27297919e-002 -3.24217826e-002 -3.41556445e-002
      -5.18224537e-002 -2.69475989e-002 -1.78875010e-002
      -4.82298667e-003 3.92893888e-003 6.58457400e-003 1.11050997e-002
      9.21171624e-003 4.89698537e-003 -9.41129867e-003 -1.64389238e-002
      -6.10917713e-003 -2.17343518e-003 -3.18475068e-002
      -3.65678854e-002 -4.20388728e-002 -4.35097069e-002
      -3.60249430e-002 -1.10221496e-002 1.39125772e-002 5.11278631e-003
      1.69009641e-002 1.31701995e-002 1.53556438e-002 1.08825210e-002
      9.01591033e-003 1.34041271e-004 1.06622670e-002 1.54371066e-002
      1.74225718e-002 2.19074637e-002 9.00682341e-003 2.16096528e-002
      1.76001657e-002 1.02084158e-002 -1.42120197e-002 -2.98026577e-002
      -5.58654545e-003 5.84857678e-003 1.78877972e-002 1.00078629e-002
      1.76305231e-002 1.95229203e-002 1.48947546e-002 1.50565407e-003
      1.45464437e-002 6.94519700e-003 1.69152860e-002 1.41569981e-002
      4.85041272e-003 6.77877944e-003 -2.02195393e-003 -1.98004139e-003
      -1.14934538e-002 -2.50086226e-002 -7.11141340e-003
      -9.86084342e-004 1.89968757e-002 1.59173459e-002 1.29141193e-002
      1.50626563e-002 1.47544630e-002 1.72476228e-002 8.88540689e-003
      -4.49543959e-003 5.72310900e-003 -5.44858740e-005 -2.33977940e-002
      -2.74218265e-002 -1.31006604e-002 -2.20596585e-002
      -2.49488875e-002 -2.78045665e-002 -1.98976900e-002
      -1.20783905e-002 5.57975331e-003 -6.93299249e-003 -4.25826479e-003
      5.38385566e-003 1.17924353e-002 1.62876043e-002 2.53172754e-003
      -2.05728188e-002 -2.03968864e-002 -3.20889801e-002
      -3.01556308e-002 -3.75978276e-002 -3.53879556e-002
      -3.54894698e-002 -3.74321677e-002 -1.07491249e-002 8.40725843e-003
      1.45378169e-002 1.97907351e-002 1.33433212e-002 1.28437113e-002
      2.09262315e-002 1.84365362e-002 1.08593637e-002 1.96305159e-002
      1.87483709e-002 2.47299988e-002 2.22655889e-002 1.77064482e-002
      1.25460746e-002 9.25673079e-003 1.47903468e-002 1.33121549e-003
      1.38309470e-003 1.01340786e-002 1.12757478e-002 8.59292876e-003
      1.68425567e-003 3.92453419e-003 1.89661253e-002 1.29268728e-002
      1.68057978e-002 1.26038706e-002 6.08205423e-003 -9.37676616e-003
      -1.60174239e-002 -2.53337212e-002 -2.48475466e-002
      -9.03191231e-003 -5.33201545e-003 -2.00154372e-002
      -1.12868557e-002 -2.67666182e-003 -1.38363556e-003
      -2.20303587e-003 -4.10975516e-003 -7.51612801e-003 7.32238172e-004
      8.08446668e-003 1.50169721e-002 1.43156629e-002 -2.53522769e-003
      -1.20875100e-002 -1.84724592e-002 -2.40625478e-002
      -2.91834157e-002 -2.25841906e-002 -2.44318545e-002
      -2.28435136e-002 -1.14142122e-002 -1.87256723e-003
      -1.48131617e-003 4.75575589e-003 -2.69929267e-004 -1.88121032e-002
      -8.60193453e-004 -7.81078031e-003 1.39121274e-002 1.40215559e-002
      6.38573710e-003 -9.36557446e-003 -1.15766963e-002 -1.28374808e-002
      -1.24368630e-002 -3.78855760e-003 -1.04306666e-002
      -1.76384654e-002 1.58011895e-002 2.43680570e-002 2.00934056e-002
      1.20767327e-002 -3.36505444e-004 4.52679209e-003 1.61256827e-002
      1.92309599e-002 2.57236157e-002 2.14744322e-002 -7.34283647e-004
      -1.51725532e-002 -2.48287991e-002 -3.58647704e-002
      -2.88065542e-002 -1.05155436e-002 -7.31210178e-003
      -1.51362177e-002 -2.70169205e-003 1.15972003e-002 5.80440415e-003
      8.89450032e-003 7.20529817e-003 7.25428341e-003 1.76902544e-002
      1.07409954e-002 2.34064572e-002 2.79936362e-002 -7.92933255e-003
      -2.05476191e-002 -2.36159563e-002 -2.52460781e-002
      -2.64494456e-002 -5.26708132e-003 -4.26772144e-003
      -1.59522872e-002 -3.24663483e-002 -1.48533620e-002
      -1.54064328e-003 5.52297896e-003 -6.30847597e-003 -1.59767903e-002
      -5.92826691e-004 -2.01577488e-002 7.21867196e-003 2.41105701e-003
      -2.22542440e-003 -8.23303033e-003 -5.35083096e-003
      -3.62056424e-003 -1.07949069e-002 -1.21416400e-004
      -1.96738131e-002 -3.05113755e-002 -1.42960185e-002 1.08434889e-003
      2.00742725e-002 1.61709655e-002 1.04214633e-002 -3.99729516e-003
      1.49611142e-002 -2.12936103e-003 6.97444333e-003 -3.48817484e-005
      -8.71007144e-003 -2.91500874e-002 -1.41653139e-002
      -1.55111104e-002 -2.35438496e-002 -1.42413266e-002
      -1.68301351e-002 -1.33055029e-002 -2.04834323e-002
      -8.99117347e-003 2.51250807e-003 7.93820806e-003 1.87741884e-003
      -1.56834954e-003 1.64996665e-002 6.77144108e-003 1.99404974e-002
      2.82967985e-002 -4.83434135e-003 6.35816657e-004 7.46155530e-003
      -4.37362090e-004 -5.53936325e-003 8.56725592e-003 -5.53592341e-003
      -1.45623349e-002 1.58215268e-003 1.42567856e-002 1.90050006e-002
      1.47250742e-002 2.57757632e-003 -7.40368385e-004 1.03946533e-002
      2.04354036e-003 3.05678556e-003 5.87506127e-003 -2.80143972e-003
      -1.46840159e-002 -4.07236209e-003 1.51973765e-003 -4.16787947e-003
      3.79547942e-003 -1.49771746e-003 -1.77061220e-003 -2.21564267e-002
      -9.84221045e-003 -4.45757946e-003 -4.76690824e-004 3.30595649e-003
      1.28008509e-002 1.29456343e-002 1.17858928e-002 -1.62237789e-003
      -2.78083631e-003 -2.50841072e-003 1.43733183e-002 1.14155961e-002
      7.35537894e-003 7.64550408e-003 -6.19512890e-003 -4.41931048e-003
      -2.76407488e-002 -4.91131889e-003 1.17167379e-004 -5.88256354e-003
      1.49691536e-003 1.99867738e-003 -1.83643855e-003 -1.09799476e-002
      2.34272587e-003 -3.83403571e-003 3.18017951e-003 1.38631486e-003
      1.11534435e-003 1.77207980e-002 1.25535764e-002 5.07691735e-003
      2.87132408e-003 9.45130549e-003 -5.89980604e-003 -1.38171380e-002
      -2.89795804e-003 1.53270829e-003 5.56209125e-003 1.32041192e-002
      1.43175879e-002 1.01689342e-002 1.52821131e-002 -8.86714924e-003
      -6.67113578e-003 -7.62000307e-003 -5.81478002e-004 1.04180304e-002
      -4.34478326e-003 9.41202324e-003 -4.52973228e-003 -4.46845777e-003
      -1.64124705e-002 2.11235994e-004 3.33868666e-004 -5.45134023e-003
      -1.99004309e-003 -6.55300356e-003 -9.61125456e-003
      -2.04816367e-002 -1.89480130e-002 -1.59506891e-002
      -1.77294444e-002 -8.79152399e-003 -6.59120688e-003 2.23043039e-002
      9.56916902e-003 1.21259633e-002 -9.12724237e-004 5.62814018e-003
      -6.96772523e-003 9.56196710e-003 8.70244764e-003 1.77160211e-004
      -3.02711851e-003 -1.53742908e-002 -3.62357534e-002
      -3.46385241e-002 -6.32275641e-003 -1.01819765e-002 1.31129446e-002
      5.52061526e-003 4.44611954e-003 1.49736730e-002 2.11490281e-002
      4.44484875e-003 6.81557553e-003 1.46388924e-002 1.69291589e-002
      1.12270107e-002 1.32839484e-002 -8.28558765e-003 -1.79365594e-002
      -4.33251634e-002 -5.36143929e-002 -3.37241478e-002
      -1.51613839e-002 6.60701143e-003 2.03945413e-002 2.38414202e-002
      2.20479034e-002 2.60501690e-002 2.39274334e-002 1.21036675e-002
      1.03191389e-002 1.88235492e-002 1.31790275e-002 4.08827374e-003
      -4.72335552e-004 9.97935305e-004 -4.94749052e-003 -1.41762700e-002
      -3.26130688e-002 -2.57189386e-002 -1.69204138e-002
      -2.80902386e-002 -2.68890206e-002 -6.46317471e-003 7.87719677e-004
      1.18473452e-002 1.59038361e-002 -2.30722851e-003 1.87773432e-003
      8.25964008e-003 2.33331160e-003 1.06162382e-002 1.74634233e-002
      1.22151887e-002 -1.12371836e-002 -1.85762420e-002 -3.57992277e-002
      -2.53755674e-002 -9.28095821e-003 1.60730667e-002 9.18171136e-004
      1.24048581e-002 1.01311645e-002 1.60993449e-002 1.40129020e-002
      1.24301284e-003 4.54458734e-003 1.12371547e-002 8.56119301e-003
      1.33057113e-003 -6.24996657e-003 -1.10566253e-002 -2.49390583e-002
      -4.29976359e-002 -4.26907688e-002 -2.52944268e-002
      -1.59678441e-002 -5.94251615e-004 4.37380373e-003 5.36476215e-003
      5.40061528e-003 1.36872493e-002 1.04435524e-002 2.46393960e-003
      -5.32712380e-004 2.32776467e-004 1.18758006e-003 3.63419589e-004
      -2.61002337e-003 -5.97920921e-003 -1.99682284e-002
      -2.99756136e-002 -2.02368200e-002 -3.98194557e-003 1.78476912e-003
      -5.90446172e-004 -2.05736328e-003 8.76764674e-003 1.06757618e-002
      7.64155295e-003 1.06430463e-002 7.75456522e-003 -4.53440953e-005
      -5.39352093e-003 -5.93127403e-003 6.16175961e-003 1.59453992e-002
      1.24566937e-002 -6.91322004e-003 -2.24702116e-002 -3.35365944e-002
      -2.71568727e-002 -1.29072387e-002 3.56998108e-003 -5.52344974e-003
      5.96864615e-003 7.95175508e-003 6.71045296e-003 3.38821299e-003
      -6.33799098e-003 -4.64138901e-003 -4.77932335e-004 1.40960224e-003
      2.95563554e-003 4.33635293e-003 5.96226193e-003 -7.35540222e-003
      -1.32041601e-002 -1.39518911e-002 -9.84252803e-003
      -2.24257470e-003 1.75490248e-004 -9.69128218e-003 1.62193598e-003
      8.87794234e-003 1.55885732e-002 8.94129276e-003 4.74910391e-003
      -2.86822137e-003 -4.06034291e-003 -1.60082011e-003
      -1.00906182e-004 1.44168502e-003 -1.97950401e-003 -2.28117388e-002
      -7.50831468e-003 -7.07949337e-004 8.22167844e-003 1.64611135e-002
      1.04702050e-002 1.82946576e-004 2.21275836e-002 2.01847591e-002
      2.18265038e-002 2.12160442e-002 1.31142261e-002 7.61185540e-003
      3.07684066e-003 3.19819339e-003 -1.29227769e-002 -7.81615917e-003
      -1.15503622e-002 -1.72504205e-002 -3.75390006e-003
      -3.26754595e-003 7.57937692e-003 -1.92629697e-003 -1.75038148e-002
      -1.69128273e-002 1.50372237e-002 8.45586043e-003 1.89920403e-002
      1.41414348e-002 7.97017012e-003 9.43688955e-003 1.24991129e-004
      -7.83308782e-003 -2.60084821e-003 1.02674053e-003 9.75657161e-003
      -1.39389485e-002 -9.50178597e-003 -2.58129952e-003 5.03851706e-003
      4.05312236e-003 3.76709178e-003 -1.13309817e-002 1.50380423e-003
      1.90906338e-002 2.10291296e-002 2.50022002e-002 1.00754593e-002
      1.08818356e-002 2.40942673e-003 3.92689416e-003 -1.47270374e-002
      -7.17353122e-003 -6.84264535e-003 -2.36125626e-002
      -1.85006186e-002 -1.11586750e-002 -2.80671706e-003 3.00732150e-004
      -1.17480131e-002 -2.85486206e-002 -3.92830605e-003 5.19326376e-003
      6.95576984e-003 1.21431425e-002 6.48191553e-006 1.00437580e-002
      -1.39074901e-003 -1.54666957e-002 2.55026226e-003 1.41978532e-003
      -5.28820883e-003 -1.12685002e-002 -1.92849583e-003 1.77507731e-003
      1.14601590e-002 -1.57182373e-003 -1.80680305e-002 -1.22922668e-002
      1.28618004e-002 1.34002175e-002 1.75655838e-002 1.51501186e-002
      9.63330362e-003 1.64786261e-002 1.06683997e-002 -1.99371995e-003
      1.41926575e-003 6.53119106e-003 9.74897575e-003 -7.75175681e-003
      -2.44027251e-004 1.44435838e-002 1.61082856e-002 -1.62404834e-003
      -2.19474137e-002 -1.77958291e-002 4.09466354e-003 -3.73399258e-003
      -4.20974474e-003 4.51099966e-003 5.12283389e-003 -3.30547593e-003
      -2.09980528e-003 -1.37905870e-002 2.71570199e-004 3.51132895e-003
      -3.75046569e-004 -5.33592468e-003 -2.14760052e-003
      -4.39101271e-003 6.68073911e-003 -4.40293737e-003 -1.66873541e-002
      -2.32694037e-002 -8.28058738e-003 2.15167645e-003 6.23358227e-003
      1.00890752e-002 9.58169717e-003 7.94606283e-003 5.33592934e-003
      -1.50764380e-002 1.77839876e-003 8.12394358e-003 1.67837292e-002
      8.20841640e-003 -6.73340214e-003 -2.87007540e-004 1.16973631e-002
      -5.23334881e-003 -2.67629009e-002 -2.35027298e-002
      -1.70281306e-002 -1.55222015e-002 -4.68649343e-003 2.52387137e-003
      1.19026075e-003 2.28354271e-004 7.60536501e-003 -3.41201085e-003
      1.77321362e-003 9.77330003e-003 1.70867071e-002 1.37443207e-002
      8.57863203e-003 1.07987467e-002 2.48640310e-002 1.04510160e-002
      -2.66127288e-003 -4.98731527e-003 1.00792600e-002 1.21329977e-004
      -6.92842808e-003 -4.08084365e-003 -1.42076053e-003
      -9.61773749e-003 -1.28141148e-002 -1.11429123e-002
      -2.44566915e-003 -4.58482141e-003 1.40637830e-002 9.13655292e-003
      -2.09998689e-003 -1.94582378e-003 2.26724590e-003 -1.51376869e-003
      -1.57392602e-002 -1.87855177e-002 9.81412129e-004 5.73843764e-003
      -8.00116733e-003 -1.43729495e-002 -1.50388395e-002
      -1.60008837e-002 -1.84988286e-002 -1.26744090e-002 1.33052133e-002
      1.37030100e-002 2.06151716e-002 8.70224182e-003 -8.68614577e-003
      -4.09937836e-003 1.43885743e-002 1.45741673e-002 -1.86663140e-002
      -7.89427385e-003 3.69070936e-003 1.59278419e-003 -3.61074577e-003
      2.10710336e-003 1.82977843e-003 1.79882580e-003 3.55179864e-003
      2.74904864e-003 1.53143788e-002 4.63505089e-003 1.07754013e-002
      1.13978656e-002 1.33817922e-002 -6.04113378e-003 -1.37594724e-002
      -1.57118298e-003 -1.86645072e-002 -2.17824485e-002
      -6.73477864e-003 -1.45885954e-002 -1.89276002e-002
      -1.22861424e-002 -1.78054720e-002 -1.03376405e-002
      -5.61211165e-003 -4.61429870e-003 -1.04379086e-002
      -8.71912111e-003 4.17318864e-004 1.40098436e-002 4.04253975e-003
      4.31027496e-003 1.96010945e-003 -1.46311822e-006 -1.86516589e-003
      -1.42141124e-002 -9.26586706e-003 7.19256839e-003 -1.10324705e-002
      -9.00296587e-003 -1.43978028e-002 -7.43795652e-003
      -6.19389862e-003 -1.24954591e-002 -1.05029950e-002 2.16454035e-004
      1.45212123e-002 2.66608801e-002 1.72997303e-002 1.28892856e-002
      1.58804208e-002 1.09222345e-002 6.36332063e-003 -3.11811734e-003
      3.77089775e-004 6.82755467e-003 1.10039546e-003 -1.75874541e-003
      -4.03407030e-003 1.37321521e-002 1.83918551e-002 7.40962848e-003
      9.62302927e-003 -5.92431752e-003 2.83829984e-003 1.13514867e-002
      1.26345158e-002 -8.02695693e-004 -1.14109209e-002 -1.37347041e-003
      -1.91688295e-002 -3.16601433e-002 -2.07984373e-002
      -2.13569310e-002 -2.69461591e-002 -1.64405555e-002
      -1.57110728e-002 -3.47992661e-003 -1.26777726e-004
      -1.42780831e-003 9.36001074e-003 1.04380623e-002 1.70582570e-002
      1.74230132e-002 1.38595942e-002 1.17617799e-002 4.25411994e-003
      1.11520365e-002 -1.53664537e-002 -1.30017204e-002 -5.00654522e-003
      -4.14619781e-003 -1.31529635e-002 -1.68987401e-002
      -3.77482991e-003 9.59417224e-003 2.43499409e-002 2.05355156e-002
      -2.12738235e-002 -2.50063394e-003 1.21008605e-002 7.48413522e-003
      2.14426895e-003 4.76691267e-003 3.83149854e-005 -2.53422512e-003
      -1.89973060e-002 -1.95545424e-002 -9.65389889e-003
      -6.14896836e-003 -3.97826254e-004 -1.54135488e-002 2.96319043e-003
      1.43298889e-002 1.49529353e-002 -8.37147888e-003 -1.47922914e-002
      2.88282591e-003 1.66480541e-002 2.40375455e-002 8.93461052e-003
      9.32881236e-003 4.70745144e-003 4.78392094e-003 -1.95006914e-002
      -1.30234156e-002 6.33734791e-003 5.96089801e-003 2.96863727e-002
      1.32241771e-002 2.68171858e-002 3.27655636e-002 3.38225551e-002
      -3.12897726e-003 -4.12749406e-003 1.13623682e-002 2.02130545e-002
      1.02749681e-002 6.24397257e-003 4.50556213e-003 -1.31375622e-002
      -9.41147096e-003 -2.85617765e-002 -2.80501395e-002
      -2.48673577e-002 -2.36327704e-002 -1.60665996e-002
      -2.33050082e-002 -1.33416252e-002 -3.17610358e-003 1.02855908e-002
      -3.45445907e-004 -3.57260142e-004 2.09676027e-002 2.96412539e-002
      2.86967345e-002 7.44242081e-003 1.45260338e-002 5.00176975e-004
      -1.41971912e-002 -2.98471097e-002 -2.94977706e-002
      -1.38159096e-002 -8.83363467e-003 1.62391607e-002 1.59642228e-003
      -2.63719796e-003 5.03961090e-003 2.55126543e-002 4.67652484e-004
      -2.75856927e-002 -5.73896919e-004 2.39201169e-003 1.87367983e-002
      3.19783716e-003 9.35377460e-003 -2.70248347e-005 -3.00010527e-003
      -1.92454141e-002 -1.10656768e-002 6.84285769e-003 1.09159183e-002
      2.45927181e-002 1.75947435e-002 2.27340851e-002 2.30530333e-002
      1.87975746e-002 -1.45720690e-002 -3.88530716e-002 -1.28479106e-002
      -7.83690542e-004 1.08861225e-002 2.72773206e-003 1.33989444e-002
      9.10345465e-003 8.08986556e-003 -2.23768596e-002 -1.00887148e-002
      2.95849796e-003 -6.19550643e-004 1.26569448e-002 3.33158532e-003
      1.41072143e-002 1.69586111e-002 6.29962981e-003 -2.13727131e-002
      -9.75642260e-003 1.07042259e-002 1.35254581e-003 1.21003464e-002
      -5.42704482e-003 2.45579658e-003 -9.10837203e-003 -9.64870956e-003
      -2.30208989e-002 -2.56594624e-002 -6.35534013e-003
      -1.38118048e-003 3.99963744e-003 -7.97739998e-003 -2.02271785e-003
      2.89035798e-003 1.32410405e-002 -1.17682414e-002 -1.87884718e-002
      -1.60159206e-003 -1.08176647e-002 1.04471734e-002 7.26499071e-004
      1.20288646e-002 4.46334016e-003 1.50652882e-002 -1.60032492e-002
      -2.18776371e-002 -5.95509191e-004 5.32825338e-003 1.17706442e-002
      3.42384214e-003 1.97239611e-002 1.35652358e-002 1.23019628e-002
      -1.35557316e-002 -3.36694978e-002 -7.45142065e-003 2.67034047e-003
      4.28312412e-003 1.19576277e-003 7.73936417e-003 1.73140205e-002
      1.14885326e-002 -7.86760263e-003 6.89950422e-004 1.06738294e-002
      1.24326916e-002 1.14881648e-002 1.19449794e-002 2.17733774e-002
      1.48636708e-002 1.38899088e-002 -2.09993478e-002 -1.75264757e-002
      -1.83689571e-003 -3.74742784e-003 -2.23637582e-003
      -3.56378965e-003 1.92776590e-003 1.32371932e-002 9.43029765e-003
      -1.58694084e-003 -2.20560469e-002 -9.67900269e-003
      -2.03698762e-002 -2.32199226e-002 -3.26478854e-002
      -2.40583532e-002 -1.39129413e-002 -9.60906502e-003
      -3.44043300e-002 -1.85250267e-002 2.94050341e-003 -2.64503737e-003
      1.41146127e-002 9.72588547e-003 1.55706890e-002 1.68516841e-002
      2.92323045e-002 8.59613065e-003 -5.62646426e-003 1.27306823e-002
      7.06068240e-003 7.94372894e-003 1.83569745e-003 1.10839419e-002
      1.05262985e-002 1.16951419e-002 -1.32669611e-002 -1.95837412e-002
      1.31299524e-002 1.27715222e-003 1.75250359e-002 2.67395261e-003
      2.17970368e-002 2.84762718e-002 4.19694185e-002 1.00939013e-002
      -3.30634648e-003 9.55316424e-003 -9.57638957e-003 -1.11527378e-002
      -1.81013495e-002 4.42657014e-003 -4.80065588e-003 1.07686967e-003
      -2.41836421e-002 9.51795187e-003 1.46853356e-002 6.95370324e-003
      7.08242552e-003 8.46194453e-004 3.00972769e-003 8.42002407e-003
      7.47926021e-003 5.18237660e-003 -6.99708844e-003 -1.04439342e-002
      -2.14895569e-002 -2.74542421e-002 -2.53525954e-002
      -1.46180848e-002 -6.27463544e-003 -1.99214625e-003
      -1.11103784e-002 -6.89253490e-003 8.14262033e-003 2.72026588e-003
      4.98669874e-003 -4.05388745e-003 2.34195543e-003 6.21734140e-003
      8.81327316e-003 2.37367349e-003 -5.55617595e-003 -3.15921493e-002
      -2.87310295e-002 -3.18452418e-002 -3.79952937e-002
      -2.33206376e-002 -1.31673068e-002 -9.41028167e-003
      -2.06720624e-002 5.38430782e-003 1.93602368e-002 1.06238974e-002
      1.19644189e-002 9.82618332e-003 1.18566221e-002 1.62745360e-002
      2.49258298e-002 8.72299261e-003 3.08866333e-003 9.23840387e-004
      -4.74833511e-003 3.39074992e-003 1.44570014e-002 1.87746715e-002
      1.31773427e-002 9.54175740e-003 2.90156668e-003 1.26907071e-002
      1.89369004e-002 1.99336130e-002 1.78870596e-002 1.42596131e-002
      3.59003455e-003 -1.43024116e-003 1.72934346e-002 1.69255625e-004
      -1.24755614e-002 -1.76571719e-002 -2.07369439e-002
      -1.50234876e-002 7.51818356e-004 1.18600531e-002 1.84653215e-002
      1.31885149e-002 8.56378395e-003 -9.35216993e-003 5.87847026e-004
      2.03664834e-003 4.03470546e-003 -1.13785816e-002 -4.54321969e-003
      -3.67910741e-003 5.14600053e-003 6.62182691e-003 7.48874561e-004
      -2.02821940e-002 -1.61014404e-002 -1.73362698e-002
      -2.10587382e-002 -1.25807207e-002 -9.78107215e-004
      -3.18099489e-003 -1.34982625e-002 -8.05501640e-003 1.37213906e-002
      2.54540835e-002 1.28790345e-002 2.39821943e-003 -6.01835968e-003
      -8.82328767e-003 -7.72782229e-003 -4.13711229e-003
      -2.07211506e-002 -7.38885486e-003 -9.60461795e-003
      -1.49786286e-002 -8.49926844e-003 5.67088951e-004 -5.04873600e-003
      4.82934481e-003 -9.72905196e-003 2.10213265e-003 1.45543609e-002
      1.21440627e-002 1.27658602e-002 2.04226747e-003 -1.46951294e-003
      -1.71870179e-003 5.33333793e-003 7.08857412e-003 -1.82321221e-002
      -1.31242899e-002 -1.19106807e-002 -1.47617096e-002
      -7.71451555e-003 6.98865531e-003 1.38669759e-002 1.28982682e-002
      -3.15696758e-004 8.21239408e-003 2.51242481e-002 3.10198348e-002
      1.83711685e-002 1.22714741e-002 8.62117298e-003 1.34424411e-003
      4.19967715e-003 -3.48333642e-003 -2.27897018e-002 -6.29606703e-003
      -5.09595405e-003 -1.44501161e-002 -2.79968558e-003 1.04967486e-002
      1.40865669e-002 2.71958765e-002 5.94404899e-003 -9.78604585e-005
      4.74590203e-003 9.88912862e-003 1.38647966e-002 1.88608058e-002
      1.84879955e-002 1.64108537e-002 1.06008379e-002 -4.57759760e-003
      -2.42474419e-003 -5.73588721e-003 -7.52043817e-003 5.04142791e-003
      2.95285974e-003 1.11724101e-002 3.40480171e-003 -2.18105945e-003
      -5.48194721e-003 -8.99029605e-004 1.05361373e-003 -1.86174322e-004
      -4.20687284e-004 6.31050812e-003 -6.84420904e-003 -2.21093819e-002
      -2.50476692e-002 -2.07349323e-002 -1.36688557e-002 3.91464820e-003
      8.16454738e-003 2.16993019e-002 6.79763732e-003 9.12900083e-003
      8.32647085e-003 2.44261650e-003 -3.51089565e-003 6.84647021e-005
      4.13742196e-003 7.30671640e-003 8.37433338e-003 1.29509587e-002
      1.48169650e-002 7.09341839e-003 -4.45715804e-003 -1.19534368e-002
      -1.69527754e-002 -1.06192799e-002 -1.45525709e-002
      -3.52079910e-003 3.45424160e-005 9.99069214e-003 1.38776740e-002
      5.09133935e-003 1.60685438e-003 -1.54173223e-003 -7.62931956e-003
      6.11030636e-003 -3.81873082e-003 -7.30894366e-003 -2.71199737e-003
      -1.92168280e-002 -2.39979438e-002 -1.66857541e-002
      -1.15228789e-002 -1.36861978e-002 7.21465657e-003 6.91421190e-003
      -3.63142486e-003 1.14711793e-003 1.01140356e-002 -1.80559946e-004
      5.47709235e-004 2.47512222e-003 -2.01541395e-003 5.63693233e-004
      -2.55057309e-003 -8.42265598e-003 -1.79940127e-002
      -1.53905144e-002 -2.53138300e-002 -2.91096196e-002
      -3.17261294e-002 -1.69495791e-002 3.03105521e-003 1.18281553e-002
      1.08670229e-002 7.44212139e-003 8.66422616e-003 5.40705491e-003
      4.90526261e-004 1.18806269e-002 1.46856448e-002 1.27329426e-002
      5.06279198e-003 3.01103853e-003 -6.40623458e-003 6.71986863e-003
      -3.15095903e-003 1.55836897e-004 -1.42916059e-002 -3.11575155e-003
      6.27237651e-003 1.01652723e-002 1.95844118e-002 6.54527871e-003
      3.83709674e-003 6.73455698e-003 5.75760007e-003 6.32141903e-003
      -3.72241368e-004 -1.45354471e-003 -9.02681844e-004
      -9.24887788e-003 -8.86597857e-003 -4.28021047e-003
      -1.59498192e-002 -1.23937726e-002 -1.90401580e-002
      -3.26852873e-002 -9.03921574e-003 -5.58572821e-003
      -1.58515584e-003 8.94513726e-003 1.42030623e-002 8.23382102e-003
      8.85390397e-003 9.46671981e-003 2.56020739e-003 1.26279541e-003
      4.54870472e-003 4.39796713e-004 -2.71704909e-003 2.07509678e-002
      1.15299392e-002 -1.93087719e-002 -1.51113495e-002 -2.19319593e-002
      -7.98154622e-003 -5.63085778e-004 2.36421591e-003 7.05739716e-003
      -6.10619923e-003 1.92622165e-003 1.31406905e-002 6.39014738e-003
      1.74229462e-002 8.36928096e-003 -7.18748476e-003 -5.29429736e-003
      -1.89277716e-002 -1.13048088e-002 -8.99080746e-003
      -3.26932175e-003 -1.02424147e-002 7.19533488e-003 1.62728433e-003
      5.46138594e-003 3.84530611e-003 -7.67413154e-003 -9.41588078e-003
      5.06087381e-004 1.09221262e-003 8.12061410e-003 1.81234479e-002
      1.15986178e-002 -9.78102908e-003 -1.24845356e-002 -1.66303627e-002
      -1.64387748e-002 -1.17263105e-002 -3.28680035e-003
      -1.96104851e-002 -6.00121683e-004 -2.92151701e-003 1.10944202e-004
      -1.13281691e-004 5.15049556e-003 2.61271442e-003 2.25312822e-003
      4.05087741e-003 5.32452855e-003 -6.77387055e-004 -1.02777919e-002
      -1.35996714e-002 -7.41024455e-003 -2.81268451e-002
      -1.36683891e-002 -7.08153564e-003 -6.70504477e-003
      -1.02486024e-002 -1.36922719e-002 -5.61485440e-003
      -6.29147561e-003 -1.19492775e-002 -1.12883644e-002
      -1.91545896e-002 -2.63891486e-003 5.74664446e-003 1.43986782e-002
      1.29257012e-002 -1.32898544e-003 -1.87301394e-002 -9.99940559e-003
      -1.68114863e-002 -2.71083415e-002 -1.60723086e-002
      -1.54617410e-002 -2.34069470e-002 -9.21388064e-003
      -1.70537177e-002 -2.30506063e-002 -9.96058434e-003 5.61151700e-003
      1.84845726e-003 1.12742130e-002 1.55825187e-002 5.25470637e-003
      1.29362904e-002 1.42841386e-002 -5.56028588e-003 -5.75899752e-003
      -1.60941924e-003 -7.71418493e-003 -5.27302735e-004
      -8.83068424e-003 -2.24968828e-002 -2.77889310e-003
      -2.24088901e-003 6.03065966e-003 7.53290858e-003 1.16167525e-002
      1.19144106e-002 2.08038986e-002 1.36639671e-002 -1.83132160e-002
      -5.82300313e-003 -1.47182336e-002 -2.00508852e-002
      -2.42778752e-002 -1.56041104e-002 -1.43525749e-002 3.68873851e-004
      -1.18269334e-002 -2.65151821e-002 -5.12980681e-004
      -1.12192170e-003 -6.50493801e-003 -2.27968767e-003 1.74204598e-003
      3.49601591e-003 6.56879181e-003 -1.58267561e-002 1.83643848e-002
      1.42885232e-002 8.04115739e-003 -4.24319413e-003 1.45141559e-003
      4.22390597e-003 -1.07544679e-002 -2.88223312e-003 -1.09339915e-002
      -1.99428946e-002 -9.58083291e-003 -6.17142161e-003
      -7.35086575e-003 -3.10319039e-004 1.98024884e-002 1.35299042e-002
      3.34161930e-002 2.39963308e-002 -7.93292839e-003 3.65859317e-003
      -7.22114043e-003 3.16410884e-003 -1.79953817e-002 -1.21542076e-002
      -6.99955272e-003 2.15360909e-004 -1.26782153e-002 -1.91911533e-002
      3.59492097e-003 -6.04837155e-003 -5.49531309e-003 -7.48227909e-003
      1.41936764e-002 -1.70774257e-003 1.84751991e-002 4.25236969e-004
      -5.10683004e-003 -1.17389858e-003 -1.23498980e-002
      -1.16434565e-003 -1.21265287e-002 -1.17007028e-002
      -1.79229758e-003 9.74100828e-003 -2.13643047e-003 2.05033529e-003
      1.33832833e-002 9.15571488e-003 1.56386395e-003 7.04681640e-003
      5.99455927e-003 3.70115507e-003 8.64698831e-003 -1.19870827e-002
      2.19933013e-003 -7.13165104e-003 8.10832658e-004 2.15974753e-003
      -1.35728018e-002 -5.98649262e-003 -1.29993586e-003 6.97330525e-003
      -1.54214920e-002 1.98426889e-003 -6.06932408e-005 -5.15099498e-004
      -4.94390540e-003 1.44299993e-004 2.53690965e-003 9.44113545e-003
      1.95389055e-002 4.53080778e-004 -1.18476916e-002 -2.12285481e-003
      -3.52745084e-003 4.85120853e-003 -2.11529341e-003 -5.38796140e-003
      4.33102902e-003 1.51731409e-002 4.72410861e-003 3.80974938e-003
      2.24468354e-002 1.19325025e-002 4.08138614e-003 3.57690011e-003
      2.96023046e-003 3.82231036e-003 6.77241804e-003 -8.92813969e-003
      -3.69607122e-003 -1.98197123e-002 -1.54718384e-002
      -8.20982456e-003 -1.05880918e-002 2.67544901e-003 -3.11518135e-003
      2.24476568e-002 1.96108682e-004 -6.95444818e-004 2.29385607e-002
      9.91758611e-003 3.64129478e-003 3.13361385e-003 1.11051872e-002
      1.67211033e-002 3.50873149e-003 -5.27203409e-003 1.64162181e-002
      1.13448882e-002 1.08827436e-002 6.77052361e-004 -9.87821911e-003
      -7.64594041e-003 -7.46897887e-003 1.65020563e-002 -1.09108835e-002
      -2.42976137e-004 1.08990008e-002 1.06778992e-002 1.48198660e-003
      -2.09823623e-003 9.51431692e-003 1.31484112e-002 1.62314605e-002
      4.34319023e-003 1.35456072e-002 6.65952964e-003 3.22667183e-003
      1.92274735e-003 1.14434697e-002 -1.25968996e-002 -2.06522197e-002
      2.07988499e-003 -2.00365838e-002 -2.10897494e-002 8.43263697e-004
      -8.47291853e-003 -2.49436125e-003 -1.81069656e-003 3.69914644e-003
      5.47697442e-003 7.38498103e-003 -2.84485263e-003 2.85177422e-003
      6.00776810e-004 -5.34028932e-003 -6.39366219e-003 -2.50580348e-003
      9.14320815e-003 -1.88868004e-003 2.49756966e-002 -6.41054194e-003
      -3.31669953e-003 1.68131758e-002 9.39597934e-003 5.30254375e-003
      4.82920650e-003 1.15242954e-002 1.58103108e-002 1.06168361e-002
      5.48412232e-003 -7.05014740e-004 4.85632481e-004 -9.20831412e-003
      -4.50971164e-003 8.11457168e-003 6.06790604e-003 -4.73796669e-003
      8.59605987e-003 -1.84880774e-002 -1.18756648e-002 -5.58371004e-003
      -1.04417186e-002 -5.97123383e-003 -4.72588791e-003
      -4.85548237e-003 -7.04938406e-003 -3.40421684e-003 7.68015254e-003
      2.30760518e-002 4.99673188e-003 1.64029165e-003 6.45944290e-003
      7.24293478e-003 -6.87059294e-003 -1.21594965e-002 -8.44991580e-003
      -3.00399940e-002 -3.70321870e-002 -1.38151404e-002
      -2.12375261e-002 -5.81766572e-003 -1.01617184e-002 1.71025551e-003
      7.39712501e-003 1.69814583e-002 1.34658497e-002 2.92853974e-002
      2.20833477e-002 6.58572372e-003 1.09088290e-002 1.06858723e-002
      3.33726895e-003 3.52247688e-003 1.14584304e-002 -1.98143274e-002
      -2.99250744e-002 -4.19621030e-003 -9.03992448e-003
      -8.98609310e-003 -1.52757987e-002 8.13411921e-003 8.31695274e-003
      3.45411226e-002 3.13892439e-002 8.36173724e-003 5.93744218e-003
      -4.78683098e-004 2.55501620e-003 1.10393232e-002 3.39794741e-003
      1.60424039e-003 -2.93860096e-003 -3.53782363e-002 -3.03538218e-002
      -1.85976047e-002 -1.82668120e-002 -8.49920232e-003
      -1.28960656e-002 -1.43635329e-002 -9.68555734e-003 4.38588811e-003
      1.15741007e-002 2.16343794e-002 1.02020008e-002 3.80545878e-003
      8.72740895e-003 1.74083263e-002 5.94165362e-003 1.78217608e-002
      1.11517832e-002 -1.89392976e-002 -1.68630090e-002 -7.60927680e-004
      -2.52400665e-003 3.12687736e-003 -1.69671476e-002 -1.12812617e-003
      3.31684551e-003 1.62929725e-002 2.15837508e-002 8.07892997e-003
      1.29357455e-002 7.58408941e-003 1.11487675e-002 9.66968387e-003
      -7.24111032e-003 -1.62540376e-002 -5.06485114e-003
      -3.31009030e-002 -2.78154928e-002 -1.57289635e-002
      -1.52527820e-002 -1.19606014e-002 -8.89375620e-003
      -2.23135715e-003 -5.77240158e-003 1.98004153e-002 1.07064731e-002
      8.80685076e-003 2.45368034e-002 1.87151451e-002 1.92756429e-002
      5.40859671e-003 2.54619261e-003 6.18861150e-003 -5.40989032e-003
      -2.96354666e-002 -2.56270226e-002 1.74279977e-003 -3.87024530e-003
      4.15654387e-003 -3.05513968e-003 -5.80038410e-003 1.60762446e-003
      2.10116692e-002 6.97884662e-003 6.41758833e-003 3.40131833e-003
      3.38253565e-003 1.01142684e-002 1.04257558e-002 -9.44238063e-003
      -5.83459018e-003 -8.07553809e-003 -3.84439714e-002
      -3.47618945e-002 -5.56118740e-003 -4.48810030e-003 2.25039525e-003
      -3.84918158e-003 1.12261751e-003 -2.57400167e-003 5.51936403e-003
      4.89666685e-003 -2.43190792e-003 1.92074738e-002 1.38815818e-002
      8.17111414e-003 3.01605230e-003 -2.21580057e-003 8.40995740e-003
      9.23592411e-003 -2.67845783e-002 -2.31717881e-002 1.99045222e-002
      1.18621197e-002 1.52875884e-002 2.32309126e-003 3.23500461e-003
      4.93210787e-003 8.65826663e-003 1.51118124e-003 -1.10574998e-002
      1.67452879e-002 -1.73765948e-004 7.83921778e-003 -1.12797990e-002
      4.86602949e-004 2.57173739e-003 9.63055249e-003 -1.42504685e-002
      -2.27689147e-002 8.42339452e-003 2.18965858e-003 1.90467131e-003
      -1.11502754e-002 -5.02563198e-004 -2.04993249e-003 9.54147801e-003
      -1.49468761e-002 -9.40059964e-003 9.67159215e-003 -8.33221059e-003
      5.15816873e-003 -2.80887750e-003 7.10377516e-003 6.30318560e-003
      2.96572838e-002 1.66450068e-003 -6.61887694e-003 8.60081147e-003
      1.68529637e-002 1.17158704e-002 3.37434863e-003 2.45656185e-002
      -3.49737005e-003 1.12830717e-002 -1.11166127e-002 -3.06290500e-002
      5.69374301e-003 2.56609637e-004 -5.95811987e-003 -1.38126053e-002
      -7.19510135e-004 -1.84364372e-003 7.69347884e-003 -2.23291237e-002
      -2.46011727e-002 1.47969965e-002 1.01879947e-002 2.24400801e-003
      -1.13135194e-002 3.11565772e-003 -2.48192297e-003 -5.50929504e-003
      -2.66729817e-002 -3.45906280e-002 -1.27896178e-003 2.96074199e-003
      -1.70487526e-003 -3.85648827e-003 8.09740275e-003 1.12181052e-003
      2.01247036e-002 -8.66746996e-003 -1.36199929e-002 2.31662020e-002
      2.22570151e-002 1.53445415e-002 -1.00868922e-002 1.15779191e-002
      -5.95533382e-003 7.20049860e-003 -2.46937852e-002 -2.14713998e-002
      5.42993098e-003 -6.14074850e-003 8.68290290e-003 -1.91379921e-003
      4.41545248e-003 6.73850719e-003 2.72940099e-002 2.43901601e-003
      -1.64886005e-002 2.53925938e-003 5.16706333e-003 2.03493168e-003
      -2.61397264e-003 5.55380760e-003 9.61084061e-006 1.09243905e-002
      -2.39428226e-002 -2.51983348e-002 2.05265116e-002 4.08003572e-003
      1.94463264e-002 -8.96412705e-004 4.47721966e-003 1.87992491e-002
      4.47151624e-002 1.23137450e-002 -1.11645386e-002 6.54126983e-003
      -1.13468943e-002 -2.86390376e-003 -2.01997813e-002 3.96434171e-003
      -2.27254326e-003 1.02665909e-002 -2.77801231e-002 -3.52042131e-002
      -3.25293466e-003 -8.42873193e-003 3.37339123e-003 4.51276515e-004
      7.35510187e-003 8.08196701e-003 3.08825430e-002 -5.01989946e-003
      -1.61595680e-002 1.09316483e-002 1.29777733e-002 1.37133859e-002
      -6.95657590e-003 2.50208122e-003 6.41818740e-004 8.74372385e-003
      -3.62605713e-002 -2.44932566e-002 6.46620709e-003 -7.35165831e-003
      5.53371990e-003 -5.44459512e-003 3.58400657e-003 4.44545504e-003
      3.87879647e-002 -4.06012638e-003 -1.17338011e-002 1.39061799e-002
      7.60213286e-003 1.12726400e-002 -1.05034094e-003 8.44165776e-003
      6.40947744e-003 1.53949102e-002 -2.87976842e-002 -1.03811212e-002
      1.03045069e-002 7.67341303e-003 1.35405688e-002 7.45023089e-003
      4.48540598e-003 1.30341314e-002 2.08983719e-002 -5.54939397e-005
      -4.65487642e-003 -5.86765073e-003 -1.27000911e-002 4.26615961e-003
      2.29094806e-003 9.02686268e-003 2.17990368e-003 -2.57334369e-003
      -7.61750061e-003 -2.62778206e-003 7.21707102e-003 5.43176662e-003
      1.99795458e-002 7.66795082e-003 -2.67938944e-003 -1.08064776e-002
      -2.95189163e-003 -1.23616271e-002 -2.65783854e-002
      -1.67810600e-002 -2.67806146e-002 -1.60695240e-002
      -1.51204504e-003 1.00185657e-002 8.93661939e-003 1.49190426e-004
      3.22950329e-003 -4.74423589e-003 9.93447378e-003 1.42445287e-003
      3.38566070e-003 -2.11668573e-003 1.43292416e-002 -2.11455423e-004
      2.34064534e-002 -7.49367708e-003 -5.30982669e-003 1.74450725e-002
      9.04082973e-003 1.31966751e-002 9.36109480e-003 1.53945824e-002
      8.52838065e-003 1.46837169e-002 5.72836259e-003 1.71963975e-003
      3.99360200e-003 -3.94889992e-003 -5.66960545e-003 -2.17914246e-002
      -3.52512603e-003 -1.85123049e-002 -5.40564349e-003
      -2.09699869e-002 -2.07329821e-002 1.62895359e-002 4.65094298e-003
      7.17535336e-003 1.37784025e-002 1.83437485e-002 1.79040488e-002
      2.24057734e-002 1.08610708e-002 -1.62266253e-003 4.90473304e-003
      -1.13197125e-003 8.51196609e-003 1.20302907e-003 -5.01313852e-003
      -1.11356759e-002 1.62980438e-003 -3.81855387e-003 -1.54937729e-002
      -9.92521923e-003 -1.39199868e-002 -5.99704357e-003 2.43820902e-003
      8.63144454e-003 1.04987975e-002 8.10985919e-003 -1.47340645e-004
      -2.95080873e-003 1.82676464e-002 1.81259457e-002 1.06686316e-002
      6.30575977e-003 1.61212974e-003 4.29057656e-003 4.10194229e-003
      -3.80032300e-003 -7.13094883e-003 -2.19198200e-003
      -3.39446939e-003 -1.93707796e-003 -6.86227763e-003 9.28213075e-003
      1.36418259e-002 1.33618722e-002 -3.35335964e-003 -2.68247968e-004
      -1.52302522e-003 -1.21113490e-002 -4.56887251e-003
      -1.01549849e-002 -9.55081359e-003 -1.44434413e-002
      -1.22356070e-002 -1.37075977e-002 -1.20293545e-002 2.27100551e-002
      1.16138058e-002 9.40962695e-003 1.18284635e-002 1.03856251e-002
      9.81380697e-003 1.51295811e-002 4.11687326e-003 -2.57599517e-003
      4.35859244e-003 -9.87948757e-003 8.14983528e-003 -4.35416820e-003
      3.14445380e-004 -5.34525746e-003 -1.02256648e-002 -2.25645434e-002
      -1.12490524e-002 5.67562645e-003 1.00760488e-002 1.55435214e-002
      7.03680096e-003 6.21975958e-003 4.69970796e-003 2.01751851e-003
      -4.83508082e-003 -6.92789117e-003 5.50530199e-003 8.95627774e-003
      1.27695538e-002 9.83216427e-003 1.45057170e-002 7.03197159e-003
      8.71162745e-004 -1.72631047e-003 -1.13582602e-002 -7.55404634e-003
      -1.47215929e-002 -1.66713522e-004 4.41969559e-003 1.14148697e-002
      2.26019863e-002 6.33741915e-003 7.03927735e-003 5.69528434e-003
      2.49921111e-003 8.88753869e-003 1.13263326e-002 3.06918449e-003
      1.09730680e-002 6.32319506e-003 -1.65994663e-003 -3.73121863e-003
      8.67852592e-004 -1.80104058e-002 -2.56091952e-002 -1.05714286e-002
      -9.13708284e-003 -1.38315232e-003 1.43997266e-003 3.34779825e-003
      1.10323378e-003 -1.69923604e-002 -2.09117937e-003 7.49414833e-003
      7.99888652e-003 9.46703460e-003 8.84291623e-003 5.68459695e-003
      1.19933998e-002 -2.02786177e-003 -1.03738634e-002 -7.78403459e-003
      -1.71158202e-002 -7.22160144e-003 1.46292837e-003 2.45336303e-003
      8.79093725e-003 4.77376301e-003 2.55785114e-003 -9.28745512e-003
      1.16132735e-003 8.27443786e-004 -1.22525101e-003 5.00336755e-003
      6.39903033e-003 4.01408412e-003 5.27424039e-003 5.21112513e-003
      4.52394877e-003 -1.08898655e-002 -2.38657258e-002 -8.34086444e-003
      -1.26452846e-002 -4.98419534e-003 -1.00112529e-002
      -2.68669869e-003 -1.40279187e-002 1.03097875e-002 4.02255915e-003
      1.43355294e-003 3.65179987e-003 -3.19756591e-003 1.13937957e-003
      3.67401121e-003 2.24450068e-003 -4.98833228e-003 -9.24195349e-003
      -3.56081165e-002 -3.41111273e-002 -1.96246002e-002
      -1.39269456e-002 1.98424305e-003 4.82715853e-003 7.86440447e-003
      8.89584050e-003 6.11793669e-003 2.18955358e-003 8.93737815e-005
      1.61408179e-003 -1.32245959e-005 -2.35244283e-003 1.27498396e-002
      1.89699158e-002 1.09555600e-002 -2.49011186e-003 -2.60292292e-002
      -1.90344844e-002 -1.11836987e-002 -9.05028172e-003
      -2.79174116e-003 -2.49572075e-003 -2.44391904e-005 8.24386254e-003
      6.86953496e-003 4.06126631e-003 1.88452215e-003 1.24011445e-003
      -1.02563517e-003 3.21380980e-003 7.41554983e-003 2.27589649e-003
      6.44816598e-003 -6.59057777e-003 -2.53937151e-002 -5.10794595e-002
      -3.64996605e-002 -2.32547969e-002 -9.76570789e-003
      -9.87871923e-003 -3.31108645e-003 8.42906709e-004 1.52679719e-002
      1.15141235e-002 1.31099215e-002 1.07621923e-002 8.56480736e-004
      3.59247392e-003 9.87853948e-003 1.19676637e-002 1.35422554e-002
      -1.59652310e-003 -4.17152680e-002 -4.58937623e-002
      -4.56520319e-002 -2.05752682e-002 -4.27369308e-003 3.17493454e-003
      3.34582734e-003 8.31259601e-003 9.55064967e-003 5.13866893e-004
      -2.82987865e-004 -2.14977935e-003 -2.48563359e-003
      -9.96719953e-003 -3.90169933e-003 5.06854057e-003 1.85630040e-003
      1.88516092e-003 -7.04527879e-003 -2.27109212e-002 -1.39177749e-002
      -1.74688399e-002 -1.54358502e-002 -1.04294624e-002 1.52658578e-003
      7.33583374e-003 1.78739745e-002 7.46271992e-003 3.35710403e-003
      -7.43916351e-003 -1.04470458e-002 -1.36857284e-002
      -1.87070016e-002 2.04523839e-003 -4.60845331e-004 -7.19526364e-003
      5.71349962e-003 -1.34791899e-002 -1.11099966e-002 -8.45802762e-003
      -2.79976102e-003 4.25052689e-003 1.00263814e-002 1.56936329e-002
      5.75647969e-003 6.09710114e-003 1.15874056e-002 8.59829504e-003
      -2.68972060e-003 -3.68752517e-003 -8.65095481e-003
      -2.53385724e-003 -3.96506255e-003 -8.14934261e-003
      -3.13648432e-002 -3.68451364e-002 -4.56191562e-002
      -3.81555371e-002 -1.89002939e-002 -1.29472110e-002
      -9.86508001e-003 -6.12992793e-003 1.82546931e-003 6.26870384e-003
      7.89382961e-003 9.46271792e-003 -7.99736939e-003 -8.36500991e-003
      -7.81405531e-003 1.18370506e-003 -2.17746571e-003 7.56455003e-004
      4.49386565e-003 -1.84022598e-002 -2.37972364e-002 -3.06609012e-002
      -1.76200643e-002 -1.52931260e-002 -5.94574027e-003
      -8.15379899e-003 1.62387546e-002 1.13704056e-002 8.46382510e-003
      2.63950997e-003 -1.86678569e-003 -3.89446761e-003 -1.10117523e-002
      -8.01445171e-003 -9.74387489e-003 -1.38014518e-002 1.74645823e-003
      4.98047285e-003 2.91004637e-003 -1.30134344e-003 7.00806128e-003
      8.64451937e-003 2.00338457e-002 1.89818777e-002 -9.58616100e-003
      6.04780810e-003 4.21388960e-003 6.50938880e-003 -5.32311993e-003
      -2.99164397e-003 -7.36636901e-003 -9.80609190e-003
      -1.48364380e-002 -1.83429159e-002 -3.84380552e-003 3.68064363e-003
      -3.75358621e-003 -1.49304057e-002 -4.29936685e-003
      -4.24996577e-003 9.64033045e-003 -3.16177355e-003 2.36120983e-003
      1.06403464e-002 5.64280339e-003 1.10307587e-002 -2.86396383e-003
      -2.52700225e-003 -4.61938325e-003 -1.37622021e-002
      -1.44296754e-002 -6.85988041e-003 1.02911480e-002 4.31558723e-003
      -1.74250919e-003 -2.08486915e-002 -1.24341575e-002
      -3.86768999e-003 4.36539389e-003 -2.54366547e-003 -7.83088431e-003
      4.52587567e-003 2.67314212e-003 -5.10630058e-003 -1.82566629e-003
      1.82193313e-002 1.97855043e-004 -6.44263765e-003 -1.96243282e-002
      -1.45827364e-002 1.76669769e-002 8.90708342e-003 -2.28743814e-003
      -1.81279872e-002 -1.03410669e-002 4.01251856e-003 6.02609338e-003
      -7.21905474e-003 -1.59765314e-002 1.99218979e-003 8.99716374e-003
      1.11675858e-002 4.81484877e-003 3.41570843e-003 4.13432159e-003
      9.40146018e-003 2.08480097e-003 -3.02419509e-003 1.76811256e-002
      1.03154266e-002 -2.95899250e-003 -7.99491070e-003 3.31233675e-003
      7.49690412e-003 3.29447328e-003 -9.15011764e-003 -7.78607791e-003
      -1.51169039e-002 -1.80189926e-002 -6.97212014e-003
      -6.24434464e-003 2.72399350e-003 -1.55174974e-004 1.25142196e-002
      7.43773673e-003 6.72672031e-005 1.46793397e-002 2.70186434e-003
